انداختم taken 0.1666667
رفت taken 0.1666667
و taken 0.1666667
طولانی taken 0.1666667
نمیشود taken 0.1666667
سفرهای taken 0.1666667
ویلیام William 1.0000000
سینما cinema 1.0000000
انجا serve 1.0000000
خوشبختانه luckily 1.0000000
انجام fourtnightly 0.1000000
این fourtnightly 0.1000000
در fourtnightly 0.1000000
دوهفته‌ای fourtnightly 0.3000000
مذاکرات fourtnightly 0.1000000
دوهفته fourtnightly 0.2000000
داد fourtnightly 0.1000000
صبحانه‌کاری breakfast 0.0714286
با breakfast 0.0357143
همراه breakfast 0.0357143
میبینم breakfast 0.0357143
دایما breakfast 0.0357143
بدهم breakfast 0.0357143
خودم breakfast 0.0357143
صبحانه breakfast 0.7142857
نظرت what 0.0036364
, what 0.0072727
ژانویه what 0.0036364
‌کاری what 0.0036364
چیز what 0.0036364
در what 0.0145455
غیرممکن what 0.0036364
نظرتون what 0.0072727
چیزی what 0.0218182
نه what 0.0036364
مورد what 0.0145455
تاریخی what 0.0036364
امسال what 0.0036364
ساعت what 0.0036364
فکر what 0.0036364
چیست what 0.0618182
جلسه what 0.0036364
زمانی what 0.0036364
چطور what 0.0763636
نظر what 0.0436364
چی what 0.0254545
هفته what 0.0036364
حدودا what 0.0036364
راجع what 0.0072727
اسم what 0.0036364
برنامه what 0.0072727
بعد what 0.0036364
چه‌ what 0.0036364
لطفا what 0.0036364
بگویید what 0.0036364
اینکه what 0.0036364
خوب what 0.0036364
منظورتان what 0.0036364
دوشنبه what 0.0072727
نظرتان what 0.0509091
بیست what 0.0072727
چه‌ساعتی what 0.0109091
چه what 0.3127273
نوزدهم what 0.0072727
ساعتی what 0.0072727
امد what 0.0036364
جمعه what 0.0036364
مارس what 0.0036364
اوضاع what 0.0036364
ده what 0.0036364
درباره what 0.0290909
به what 0.0145455
فردا what 0.0036364
ببخشید what 0.0036364
پس what 0.0036364
? what 0.0072727
NULL what 0.0545455
اول what 0.0036364
چه‌چیزی what 0.0072727
نظری what 0.0181818
انچه what 0.0109091
که what 0.0036364
چیزیست what 0.0036364
‌ساعتی what 0.0036364
موضوع what 0.0036364
شما what 0.0145455
کدام what 0.0036364
یازدهم what 0.0036364
کاری what 0.0072727
است what 0.0072727
خبر what 0.0036364
مسیله private 0.1250000
درباره private 0.2500000
شخصی private 0.1250000
است private 0.1250000
خصوصی private 0.3750000
NULL eighth 0.0797872
همین eighth 0.0053191
تا eighth 0.0053191
, eighth 0.0053191
شاید eighth 0.0053191
. eighth 0.0106383
هشت eighth 0.0159574
صورت eighth 0.0053191
دوازدهم eighth 0.0053191
‌یکم eighth 0.0053191
از eighth 0.0053191
من eighth 0.0053191
فوریه eighth 0.0053191
نه eighth 0.0053191
هشتم eighth 0.8244681
دهم eighth 0.0053191
است eighth 0.0053191
بقیه‌چیزها tonight 0.5000000
امشب tonight 0.5000000
المپیک village 1.0000000
بهم Beham 0.5000000
صحبت‌ Beham 0.5000000
بودم counted 0.2500000
حساب counted 0.2500000
وارونه counted 0.2500000
کرده counted 0.2500000
کارشناسان experts 1.0000000
میرسد sounds 0.2142857
نظر sounds 0.3571429
به sounds 0.2857143
بنظر sounds 0.0714286
میاید sounds 0.0714286
NULL hello 0.0261438
والبرگ hello 0.0032680
, hello 0.0163399
لاجر hello 0.0032680
سلا hello 0.0032680
اقای hello 0.0065359
سلام hello 0.8986928
. hello 0.0392157
نایهمیر hello 0.0032680
نظرتان Wednesday 0.0031250
NULL Wednesday 0.0281250
و Wednesday 0.0031250
تا Wednesday 0.0062500
, Wednesday 0.0031250
چاهرشنبه Wednesday 0.0031250
شدم Wednesday 0.0031250
برای Wednesday 0.0031250
این Wednesday 0.0031250
. Wednesday 0.0031250
که Wednesday 0.0031250
هفتم Wednesday 0.0031250
بعد Wednesday 0.0062500
سیزدهم Wednesday 0.0031250
ازاد Wednesday 0.0031250
کنیم Wednesday 0.0031250
لنت Wednesday 0.0062500
از Wednesday 0.0031250
ماه Wednesday 0.0031250
چهارشنبه‌ای Wednesday 0.0031250
امادگی Wednesday 0.0031250
مورد Wednesday 0.0031250
حرکت Wednesday 0.0031250
چهارشنبه Wednesday 0.8875000
جلسه Wednesday 0.0031250
پنجشنبه Wednesday 0.0031250
اتفاقا happen 0.1666667
باشید happen 0.1666667
غیر‌منتظره‌ای happen 0.1666667
داد happen 0.1666667
رخ happen 0.1666667
هرچیز happen 0.1666667
اوایل again 0.0059524
اول again 0.0059524
NULL again 0.0595238
, again 0.0059524
این again 0.0059524
دیگر again 0.0059524
بازهم again 0.0357143
زمان again 0.0059524
نیز again 0.0059524
دهیم again 0.0059524
جیز again 0.0059524
مجدد again 0.0059524
من again 0.0059524
ماه again 0.0059524
دوباره again 0.6011905
روز again 0.0059524
شما again 0.0059524
بودند again 0.0059524
بار again 0.0178571
دوبار again 0.0059524
مجددا again 0.0119048
یکبار again 0.0059524
سپتامبر again 0.0059524
هم again 0.0773810
بعدارظهر again 0.0059524
کنی again 0.0059524
باز again 0.0773810
بیست twenty 0.4315562
یعنی twenty 0.0007205
شنبه twenty 0.0007205
, twenty 0.0036023
یا twenty 0.0007205
‌‌و twenty 0.0014409
ژانویه twenty 0.0007205
می twenty 0.0007205
بیست‌دوم twenty 0.0014409
به twenty 0.0007205
هفتم twenty 0.0014409
ازاد twenty 0.0007205
‌یکم twenty 0.0007205
من twenty 0.0007205
از twenty 0.0021614
قطعی twenty 0.0007205
یکم twenty 0.0014409
ببینیم twenty 0.0007205
روز twenty 0.0007205
? twenty 0.0007205
چهارشنبه twenty 0.0007205
فکر twenty 0.0007205
چطور twenty 0.0007205
دوم twenty 0.0014409
بیستم twenty 0.0021614
NULL twenty 0.0309798
اول twenty 0.0007205
و twenty 0.3623919
تا twenty 0.0007205
ولی twenty 0.0007205
این twenty 0.0007205
سه‌شنبه twenty 0.0007205
اولین twenty 0.0007205
ان twenty 0.0007205
میکنم twenty 0.0007205
. twenty 0.0021614
بیست‌ twenty 0.0381844
که twenty 0.0014409
‌و twenty 0.0417867
معنا twenty 0.0007205
سوم twenty 0.0007205
پنجم twenty 0.0014409
میتوانم twenty 0.0007205
وقتم twenty 0.0007205
هشتم twenty 0.0014409
‌و‌ twenty 0.0504323
است twenty 0.0007205
هم twenty 0.0007205
نوامبر twenty 0.0014409
میشود practical 0.2000000
خیلی practical 0.2000000
بطور‌حتم practical 0.2000000
عملی practical 0.4000000
داشته matters 0.1111111
NULL matters 0.1111111
مسایل matters 0.1111111
باشیم matters 0.1111111
بررسی matters 0.1111111
موضوعات matters 0.3333333
موضوع matters 0.1111111
میتوانند employees 0.1111111
دارند employees 0.1111111
کارمندانی employees 0.1111111
کارکنان employees 0.2222222
کارمندان employees 0.2222222
از employees 0.1111111
بفرستیم employees 0.1111111
زدید of 0.0007402
نوامبرچطور of 0.0007402
اگوست of 0.0207254
خاطر of 0.0014804
اغلب of 0.0007402
چه‌عجب of 0.0007402
بسازید of 0.0007402
ژانویه of 0.0495929
تمام of 0.0007402
می of 0.0429312
شورتاید of 0.0007402
در of 0.0051813
بتوانیم of 0.0014804
شانزدهم of 0.0007402
مجموعه of 0.0022206
هفته‌ای of 0.0022206
روز of 0.0007402
هین of 0.0007402
صحبت‌هایمان of 0.0014804
نفر of 0.0007402
شروتاید of 0.0007402
چیست of 0.0044412
دوم of 0.0014804
دوی of 0.0022206
تعطیلات‌اخرهفته of 0.0014804
بیستم of 0.0007402
فنجان of 0.0074019
روزاتحاد of 0.0007402
ازاد‌بودن of 0.0007402
و of 0.0051813
عنوان of 0.0007402
تکه of 0.0007402
هردوی of 0.0014804
پایان of 0.0007402
ملی of 0.0007402
طبیعتا of 0.0007402
موارد of 0.0007402
همان of 0.0007402
اصلا of 0.0007402
هنوز of 0.0007402
فوریه of 0.0569948
سوم of 0.0007402
وحدت‌المان of 0.0007402
خوشم of 0.0007402
گسترش of 0.0007402
سپتامبر of 0.0310881
دوشنبه of 0.0007402
بیست of 0.0044412
اتحاد of 0.0014804
بطور of 0.0007402
نوزدهم of 0.0007402
اخر‌ of 0.0007402
دنیای of 0.0007402
زیادی of 0.0066617
موافق of 0.0007402
درباره of 0.0096225
فکرش of 0.0007402
یک of 0.0007402
به of 0.0051813
باره‌ of 0.0007402
من of 0.0022206
از of 0.0436714
? of 0.0014804
کار of 0.0007402
عمومی of 0.0007402
یکشنبه of 0.0007402
تماس of 0.0014804
اول of 0.0029608
داشتن of 0.0007402
هجدهم of 0.0007402
وقت of 0.0014804
دلیل of 0.0014804
المان of 0.0007402
برای of 0.0014804
نظری of 0.0007402
که of 0.0007402
سیزدهم of 0.0007402
‌و of 0.0007402
مارچ of 0.0037010
تاسف of 0.0007402
سومین of 0.0007402
اغاز of 0.0007402
پنجم of 0.0007402
قبل of 0.0007402
وقتم of 0.0007402
میتوانم of 0.0007402
بیندازیم of 0.0007402
دسامبر of 0.0392302
کاری of 0.0007402
خلاص of 0.0007402
نوامبر of 0.0562546
مقدمات of 0.0007402
اوایل of 0.0014804
دارم of 0.0007402
اغار of 0.0007402
, of 0.0029608
دارید of 0.0007402
ژوین of 0.0340489
وقفه of 0.0007402
یا of 0.0014804
اوپرمن of 0.0007402
منحصرا of 0.0007402
بلوک of 0.0014804
بازدیدکننده of 0.0007402
اکتبر of 0.0510733
طولانی of 0.0007402
خیلی of 0.0007402
باقیمانده of 0.0007402
قهوه of 0.0007402
شراب of 0.0022206
استراحت of 0.0007402
لطف of 0.0014804
ماه of 0.0125833
اواسط of 0.0007402
مشروب of 0.0029608
مورد of 0.0029608
یکسانی of 0.0007402
اطلاعات of 0.0007402
داشت of 0.0007402
ساعت of 0.0007402
رو of 0.0007402
چطور of 0.0014804
ایجاد of 0.0007402
هستید of 0.0007402
بصورت of 0.0007402
نظر of 0.0014804
فکرم of 0.0007402
اوت of 0.0251665
البته of 0.0177646
این of 0.0029608
هفته of 0.0111029
شهر of 0.0037010
بقیه of 0.0007402
یادداشت‌ of 0.0007402
فشار of 0.0007402
اما of 0.0007402
دوازدهم of 0.0007402
میکردم of 0.0066617
یادداشتی of 0.0007402
فکرکنیم of 0.0007402
برنداشته‌اید of 0.0007402
اواخر of 0.0007402
بین of 0.0014804
خوب of 0.0007402
کمبود of 0.0007402
دوره of 0.0022206
گفتید of 0.0007402
خارج of 0.0007402
روزها of 0.0029608
ابتدای‌ of 0.0007402
جولای of 0.0370096
شنبه of 0.0007402
مارس of 0.0325685
خبر‌داشتید of 0.0007402
گزینه of 0.0007402
جای of 0.0014804
ماهانه of 0.0014804
هفتم of 0.0014804
کنیم of 0.0007402
وقفه‌ای of 0.0007402
موردش of 0.0007402
قسمتی of 0.0007402
متوالی of 0.0007402
بیایند of 0.0007402
ایامثل of 0.0007402
پس of 0.0007402
بسیاری of 0.0007402
فعال of 0.0007402
بهار of 0.0022206
حرکت of 0.0007402
چهارشنبه of 0.0007402
بخاطر of 0.0044412
را of 0.0014804
درس of 0.0007402
NULL of 0.1250925
ابتدای of 0.0014804
تا of 0.0066617
خواهم of 0.0007402
ژوییه of 0.0281273
زنگ of 0.0007402
نیایش of 0.0022206
اوریل of 0.0355292
حاضر of 0.0007402
سال of 0.0014804
. of 0.0066617
سری of 0.0007402
دعا of 0.0037010
کاغذم of 0.0007402
بله of 0.0007402
اخرهفته‌های of 0.0007402
کدام of 0.0014804
یازدهم of 0.0007402
قررار of 0.0007402
میبینید of 0.0007402
هفدهم of 0.0007402
‌و‌ of 0.0014804
است of 0.0007402
‌دارم trust 0.5000000
اطمینان trust 0.5000000
مربوط relevant 0.3333333
موضوعات relevant 0.3333333
به relevant 0.3333333
ایکس X-Ray 0.5000000
اشعه X-Ray 0.5000000
را still 0.0050505
خارج still 0.0101010
NULL still 0.0404040
و still 0.0050505
ذهن still 0.0050505
راضی still 0.0050505
الن still 0.0050505
احتمالا still 0.0050505
ثابت still 0.0050505
بازهم still 0.0353535
چهارم still 0.0050505
پنجاهه still 0.0050505
کنگره‌ای still 0.0050505
چیزی still 0.0050505
ازاد still 0.0202020
همچنان still 0.0757576
هنوز still 0.5757576
بابت still 0.0050505
امکانپذیر still 0.0050505
بیکار still 0.0050505
توجه still 0.0050505
متشکر still 0.0050505
دسترس still 0.0050505
هم still 0.1262626
رو still 0.0050505
نوامبر still 0.0050505
باز still 0.0050505
باید still 0.0151515
گذشته previous 1.0000000
بگزرد smoothly 0.1666667
پیش smoothly 0.1666667
میرود smoothly 0.1666667
ارامی smoothly 0.5000000
بازگو recapulate 0.2500000
قرار recapulate 0.2500000
میخواهید recapulate 0.2500000
کنید recapulate 0.2500000
باشد misunderstanding 0.2000000
امده misunderstanding 0.2000000
پیش misunderstanding 0.2000000
. misunderstanding 0.2000000
سو‌تفاهم misunderstanding 0.2000000
رفته‌ام will 0.0012739
نیستم will 0.0114650
ما will 0.0012739
دارد will 0.0012739
برمیگردم will 0.0025478
میرسم will 0.0012739
‌میکنیم will 0.0038217
در will 0.0038217
زمان will 0.0012739
نوبت will 0.0012739
نیست will 0.0089172
فرق will 0.0012739
نمیرسیم will 0.0012739
نه will 0.0012739
روز will 0.0012739
اگر will 0.0012739
میایم will 0.0076433
اتاق will 0.0012739
میشود will 0.0012739
و will 0.0012739
قرارملاقات‌ها will 0.0012739
میرویم will 0.0038217
برخواهم will 0.0012739
بر‌میداریم will 0.0025478
پایان will 0.0012739
میکنم will 0.0038217
ان will 0.0191083
خواهد‌بود will 0.0050955
سرم will 0.0012739
کنگره‌ای will 0.0012739
نخواهد‌بود will 0.0076433
سعی will 0.0012739
هنوز will 0.0012739
جداگانه will 0.0012739
همدیگر will 0.0050955
نخواهیم will 0.0012739
میتوانید will 0.0025478
شوم will 0.0012739
کافیست will 0.0025478
سریع will 0.0012739
میترسم will 0.0012739
چشم‌انتظار will 0.0012739
موفقیت will 0.0012739
نمیشود will 0.0025478
ده will 0.0025478
یادداشت will 0.0063694
چهارم will 0.0012739
هر will 0.0012739
مفصل will 0.0012739
یک will 0.0012739
به will 0.0076433
دوهفته will 0.0012739
میکنیم will 0.0203822
میدهیم will 0.0012739
کرد will 0.0229299
خواهد‌ will 0.0012739
انموقع will 0.0025478
مینویسم will 0.0101911
من will 0.0050955
‌میدهیم will 0.0038217
از will 0.0101911
تکالیف will 0.0012739
تماس‌ will 0.0012739
ازادی will 0.0012739
بود will 0.0012739
میگذارم will 0.0025478
همین will 0.0025478
وقت will 0.0012739
صحبت‌ها will 0.0012739
برای will 0.0012739
بازهم will 0.0012739
بفهمیم will 0.0012739
خواهی will 0.0012739
یقینا will 0.0025478
میروم will 0.0038217
که will 0.0012739
افرادم will 0.0012739
برخواهیم will 0.0012739
عجله will 0.0012739
میتوانیم will 0.0012739
روزی will 0.0012739
میکشد will 0.0063694
پنجم will 0.0012739
خواهیم‌بود will 0.0012739
هشتم will 0.0012739
کردن will 0.0012739
بزودی will 0.0012739
وقتم will 0.0050955
خواهیم will 0.0560510
موقع will 0.0101911
گرفت will 0.0012739
دسترس will 0.0012739
خلاص will 0.0012739
مشغول will 0.0101911
کافی will 0.0089172
باید will 0.0063694
هتم will 0.0012739
میشوند will 0.0025478
بر‌خواهم will 0.0012739
میبینم will 0.0089172
, will 0.0012739
بگیرید will 0.0025478
شده‌اند will 0.0012739
کرده‌ام will 0.0012739
میگردم will 0.0012739
با will 0.0025478
کلوگن will 0.0012739
نکشد will 0.0025478
براستی will 0.0012739
ترک will 0.0012739
میز will 0.0012739
سه will 0.0012739
بدینگونه will 0.0012739
بخوریم will 0.0025478
نخواهد‌داشت will 0.0012739
فهمیدم will 0.0012739
همسرم will 0.0012739
میگذاریم will 0.0012739
ماصرفا will 0.0012739
داشت will 0.0101911
ساعت will 0.0012739
هفته‌ها will 0.0012739
این‌بار will 0.0012739
ببینید will 0.0012739
رانندگی will 0.0012739
خواهید will 0.0063694
راینلند will 0.0012739
البته will 0.0012739
نخواهد will 0.0101911
این will 0.0025478
چهارشنبه‌هایی will 0.0012739
رسیدن will 0.0012739
برمیگردیم will 0.0012739
شهر will 0.0012739
ریتم will 0.0012739
یادداشت‌ will 0.0012739
بحث will 0.0012739
اسلایدها will 0.0012739
داد will 0.0012739
ندارد will 0.0038217
میشوم will 0.0012739
اینهم will 0.0012739
میگیرم will 0.0038217
گرفتارم will 0.0012739
ندارم will 0.0050955
نخواهم‌بود will 0.0050955
هم will 0.0025478
بطریقی will 0.0012739
‌کرد will 0.0012739
قطار will 0.0012739
باشد will 0.0012739
عصبانی will 0.0012739
خارج will 0.0012739
روزها will 0.0012739
جزییات will 0.0012739
اینکار will 0.0012739
نهم will 0.0012739
شرکت will 0.0025478
هستم will 0.0076433
نخواهم will 0.0242038
مرخصی will 0.0012739
امکان‌ will 0.0012739
خواهد will 0.0152866
سازمان‌دهی will 0.0012739
سخت will 0.0012739
میرسیم will 0.0012739
بشود will 0.0050955
خواهند will 0.0025478
پس will 0.0025478
گلف will 0.0012739
بزنم will 0.0012739
تعهداتت will 0.0012739
ایا will 0.0063694
چهارشنبه will 0.0012739
خواهم‌بود will 0.0076433
جز will 0.0012739
را will 0.0038217
طول will 0.0012739
NULL will 0.1961783
تا will 0.0012739
خواهم will 0.1656051
ان‌را will 0.0012739
حسابی will 0.0012739
پیدا‌کردن will 0.0012739
مسیله‌ساز will 0.0012739
نمیکشد will 0.0025478
میچسبیم will 0.0012739
مقداری will 0.0012739
فصل will 0.0012739
. will 0.0025478
میبینیم will 0.0012739
تعطیل will 0.0012739
امیدواریم will 0.0012739
نداشته will 0.0012739
بسادگی will 0.0012739
کاغذم will 0.0012739
به‌موقع will 0.0012739
نباشم will 0.0012739
ناامید will 0.0012739
اخرهفته‌های will 0.0012739
شما will 0.0012739
دورم will 0.0012739
یازدهم will 0.0012739
هفدهم will 0.0012739
نمیتوانم will 0.0038217
خواهیم‌کرد will 0.0012739
منشی will 0.0012739
شد will 0.0012739
نظم will 0.0012739
این fatter 0.1250000
چاق fatter 0.1250000
زمان fatter 0.1250000
شوم fatter 0.1250000
میشود fatter 0.1250000
شما fatter 0.1250000
اگر fatter 0.1250000
باعث fatter 0.1250000
سکوی platform 1.0000000
مدت much 0.0133333
طول much 0.0133333
NULL much 0.0666667
ممنون much 0.0266667
زیاد much 0.0400000
انقدر much 0.0266667
بوجود much 0.0133333
نکشد much 0.0133333
هستم much 0.0266667
زیادی much 0.1600000
مال much 0.0133333
فکرش much 0.0133333
که much 0.0133333
خیلی much 0.0400000
بیشتری much 0.0266667
کلی much 0.0133333
تشکر much 0.0133333
فشار much 0.0133333
ترجیح‌ much 0.0133333
فرق much 0.0266667
سپاسگزارم much 0.0133333
از much 0.1066667
حد much 0.0133333
متشکرم much 0.1466667
درمیان much 0.0133333
‌میکنم much 0.0133333
چقدر much 0.0400000
ندارم much 0.0133333
داشت much 0.0133333
افزایش much 0.0133333
تمایل much 0.0133333
اسانتر much 0.0133333
مصاحبه interview 1.0000000
اواسط halves 1.0000000
خواهید neither 0.2500000
ندارم neither 0.2500000
نکرده‌ام neither 0.2500000
هم neither 0.2500000
های settling 0.2000000
حل settling 0.2000000
فصل settling 0.2000000
و settling 0.2000000
پرسش settling 0.2000000
منسا mensa 0.2857143
داشته mensa 0.1428571
باشیم mensa 0.1428571
ملاقاتی mensa 0.1428571
همین mensa 0.1428571
الان mensa 0.1428571
باشد going 0.0350877
شنیده‌ام going 0.0175439
مطمینم going 0.0175439
گردش going 0.0175439
میرود going 0.0175439
دارد going 0.0175439
درسدن going 0.0175439
قرار‌است going 0.0526316
می going 0.0175439
مقدس going 0.0175439
با going 0.0175439
خوریم going 0.0175439
به going 0.0701754
گذار going 0.0175439
سخت going 0.0175439
رفتن going 0.0175439
ترک going 0.0175439
قرار going 0.0175439
میشود going 0.0175439
NULL going 0.2105263
توافق‌ going 0.0175439
بکشد going 0.0175439
ساز going 0.0175439
میکنم going 0.0175439
مشکل going 0.0877193
چهارتایی going 0.0175439
انجاییکه going 0.0175439
دلپذیری going 0.0175439
همراهی going 0.0350877
بر going 0.0175439
جالب going 0.0175439
مطمینا going 0.0175439
مسافرت going 0.0175439
برویم going 0.0175439
نتیجه going 0.0175439
دارم firm 0.5000000
مشاوره firm 0.5000000
بخش part 0.2500000
قسمتی part 0.2500000
ینصورت part 0.2500000
شد part 0.2500000
دفتر superbly 0.2000000
به superbly 0.2000000
فوق‌العاده‌ superbly 0.2000000
طرز superbly 0.2000000
مناسبی superbly 0.2000000
NULL hairdresser 1.0000000
مدیریتی board 0.2000000
هییت‌ board 0.2000000
هییت board 0.2000000
مدیره board 0.4000000
قبل beforehand 0.1111111
داشته beforehand 0.1111111
‌باشیم beforehand 0.1111111
از beforehand 0.1111111
پیشاپیش beforehand 0.1111111
تنظیم‌ beforehand 0.1111111
طرح‌ریزی‌ beforehand 0.1111111
کنید beforehand 0.1111111
نگهدارید beforehand 0.1111111
زور zur 0.5000000
پست zur 0.5000000
دکتر 's 0.0909091
امسال 's 0.0909091
NULL 's 0.3636364
از 's 0.0909091
پدرم 's 0.0909091
چهارشنبه 's 0.0909091
فورت 's 0.0909091
دانش 's 0.0909091
بگذرانند can 0.0038314
‌کنند can 0.0038314
وجودان can 0.0038314
‌کاری can 0.0038314
نمیشود can 0.0038314
اطمینان can 0.0038314
میتوانند can 0.0038314
اختیار can 0.0038314
گزینه can 0.0038314
بتوانیم can 0.0383142
به can 0.0038314
کوتاهی can 0.0038314
منتهای‌مراتب can 0.0038314
من can 0.0038314
از can 0.0038314
بازبینی can 0.0038314
میتواند can 0.0076628
حل‌و‌فصل can 0.0038314
دوری can 0.0038314
بتواند can 0.0038314
ایا can 0.0153257
زمانی can 0.0038314
توانم can 0.0038314
را can 0.0459770
تریب can 0.0038314
ببینم can 0.0038314
NULL can 0.0881226
و can 0.0038314
بنویسید can 0.0038314
همین can 0.0076628
وقت can 0.0038314
تا can 0.0038314
فکرم can 0.0038314
نمیتوانیم can 0.0153257
سه‌شنبه can 0.0038314
هفته can 0.0038314
ملاقات can 0.0038314
. can 0.0038314
که can 0.0076628
دهیم can 0.0038314
کمکی can 0.0038314
بتوانید can 0.0038314
اجتناب can 0.0076628
صرف‌نظر can 0.0038314
میتوانیم can 0.4521073
هماهنگ can 0.0038314
همدیگر can 0.0038314
میشنوم can 0.0038314
میتوانی can 0.0191571
راحت can 0.0038314
هشتم can 0.0038314
میتوانم can 0.0613027
بتوانم can 0.0114943
انجا can 0.0038314
نمیتوانم can 0.0306513
نشود can 0.0038314
میتوانید can 0.0229885
خوابید can 0.0038314
چاره‌ای can 0.0038314
کجاست where 0.1111111
را where 0.0370370
کجا where 0.5185185
شما where 0.0370370
رستورانی where 0.0370370
? where 0.0370370
بازهم where 0.0370370
ان‌موقع where 0.0370370
که where 0.0740741
جاییکه where 0.0740741
تیلمن HansTillmann 1.0000000
وغیره etcetera 1.0000000
هستم Oppenrieder 0.3333333
اوپنیدر Oppenrieder 0.6666667
پرواز flight 0.3333333
میگویم flight 0.3333333
که flight 0.3333333
دکتر doctor 0.3333333
دارم doctor 0.3333333
وقت doctor 0.3333333
کنیم settle 0.2666667
بمانیم settle 0.0666667
تعیین settle 0.2000000
بعدش settle 0.0666667
حل‌و‌فصل settle 0.0666667
‌برسیم settle 0.0666667
‌نتیجه‌ای settle 0.0666667
انرا settle 0.1333333
همه settle 0.0666667
منتظر wait 0.0200000
NULL wait 0.0400000
صبرکن wait 0.0200000
صبر‌ wait 0.1000000
, wait 0.0200000
‌کنید wait 0.1400000
صبر wait 0.3600000
یک wait 0.0200000
کنید wait 0.2800000
NULL ai 1.0000000
NULL ubeck 0.3333333
خواهم‌بود ubeck 0.3333333
لوبک ubeck 0.3333333
ببینم seeing 0.1000000
منتظر seeing 0.2000000
دیدار seeing 0.2000000
بیمه seeing 0.1000000
هستم seeing 0.1000000
درجلسه seeing 0.1000000
کاربردی seeing 0.1000000
معماری seeing 0.1000000
بگذاریم left 0.0588235
باقی left 0.1764706
مذاکره left 0.0588235
به‌سادگی left 0.0588235
میماند left 0.3529412
سرجاش left 0.0588235
نهم left 0.0588235
برای left 0.0588235
باقی‌ left 0.0588235
بماند left 0.0588235
شبکه network 0.7500000
قرار network 0.2500000
ازمایش experiment 0.2500000
هستم experiment 0.2500000
مهم experiment 0.2500000
بسیار experiment 0.2500000
قراری dates 0.0057803
تعیین dates 0.0057803
, dates 0.0057803
شده‌اند dates 0.0057803
واگذار dates 0.0057803
ملاقات‌هایی dates 0.0057803
تاریخهایم dates 0.0057803
تاریخها dates 0.0346821
ملاقات‌ها dates 0.0578035
در dates 0.0057803
تاریخهایی dates 0.0057803
از dates 0.0057803
قرار dates 0.2716763
تمامی dates 0.0057803
روز dates 0.0231214
ملاقاتهایی dates 0.0057803
پیش dates 0.0115607
تاریخی dates 0.0057803
های dates 0.0057803
قرارها dates 0.0693642
را dates 0.0578035
قرارهایی dates 0.0173410
وعده dates 0.0057803
NULL dates 0.0404624
تاریخ dates 0.0751445
زمانهایی dates 0.0057803
تا dates 0.0057803
کردیم dates 0.0057803
داشته‌اید dates 0.0057803
ملاقات‌های dates 0.0057803
دیگر dates 0.0057803
ندهیم dates 0.0057803
ملاقات dates 0.0982659
. dates 0.0057803
که dates 0.0057803
بدون dates 0.0057803
روزی dates 0.0057803
قرار‌ها dates 0.0057803
جداگانه dates 0.0057803
تاریخهای dates 0.0231214
تاریخ‌ها dates 0.0057803
قرارهای dates 0.0346821
ان‌هنگام dates 0.0057803
باید dates 0.0115607
ازاردهنده bit 0.0169492
NULL bit 0.0508475
راحتر bit 0.0169492
حضرت bit 0.0169492
نفهمیدم bit 0.0169492
کمی bit 0.7627119
. bit 0.0169492
رسیدیم bit 0.0169492
توافق bit 0.0169492
خرده bit 0.0169492
فشرده bit 0.0338983
بیشتری bit 0.0169492
درواقع fact 0.0666667
NULL fact 0.0333333
در‌نظر‌گرفتن fact 0.0166667
در‌حقیقت fact 0.0333333
واقع fact 0.4833333
در‌واقع fact 0.0500000
همان fact 0.0166667
به fact 0.0166667
حقیقت fact 0.2833333
میزنید Cologne 0.0250000
NULL Cologne 0.1250000
کلن Cologne 0.0500000
بروم Cologne 0.0500000
زنگ Cologne 0.0250000
کلوگن Cologne 0.1250000
هستم Cologne 0.0750000
کلانژ Cologne 0.3500000
کلون Cologne 0.0250000
کولون Cologne 0.0250000
به Cologne 0.0250000
بقیه Cologne 0.0250000
شهر Cologne 0.0250000
کلنی Cologne 0.0500000
زیادی lots 1.0000000
دوشنبه‌ها Mondays 0.4800000
دارم Mondays 0.0400000
دوشنبه Mondays 0.4800000
میرسد seen 0.1250000
نظر seen 0.1250000
متوجه seen 0.1250000
دیدیم seen 0.1250000
قبل seen 0.1250000
شدم seen 0.1250000
کمی seen 0.1250000
که seen 0.1250000
سفری future 0.2500000
نیاز future 0.2500000
نزدیک future 0.5000000
را address 0.2500000
ادرس address 0.2500000
مگر address 0.2500000
دارید address 0.2500000
والتر Walter 1.0000000
درخواست teacher 0.1428571
معلم teacher 0.4285714
بخواهید teacher 0.1428571
کنم teacher 0.1428571
بیاید teacher 0.1428571
موجب cause 0.1000000
پیش cause 0.1000000
امدن cause 0.1000000
شبیه cause 0.1000000
مشکلاتی cause 0.2000000
مسیله cause 0.1000000
چندتا cause 0.1000000
انهایی cause 0.1000000
باعث cause 0.1000000
هیجانزده quite 0.0100000
تعداد quite 0.0100000
مناسب quite 0.0400000
NULL quite 0.0300000
باندزبان quite 0.0100000
با quite 0.0100000
زیادی quite 0.0400000
میروم quite 0.0100000
مهم quite 0.0200000
یقینا quite 0.0100000
قرارملاقاتهای quite 0.0100000
تقریبا quite 0.0200000
دوست quite 0.0100000
مشکل quite 0.0100000
کاملا quite 0.5200000
خیلی quite 0.0800000
بسیار quite 0.0200000
نشدم quite 0.0100000
پیچیده quite 0.0100000
هماهنگ quite 0.0100000
بی‌موقع quite 0.0100000
فوریه quite 0.0100000
واقعا quite 0.0300000
کامل quite 0.0100000
جور quite 0.0100000
هم quite 0.0100000
دلچسب quite 0.0100000
درنمیاید quite 0.0100000
یکشنبه‌های quite 0.0100000
میداند knows 1.0000000
بیست upon 0.0476190
تعهداتی upon 0.0476190
دو upon 0.0476190
بر upon 0.1428571
برسر upon 0.0476190
برسیم upon 0.0952381
‌نتیجه‌ای upon 0.0476190
میتوانید upon 0.0476190
ساعت upon 0.0476190
روی upon 0.2380952
به upon 0.0952381
توافق upon 0.0952381
انتهای very 0.0070922
تنگ very 0.0070922
لطف‌ very 0.0070922
دارید very 0.0070922
ژانویه very 0.0070922
در very 0.0070922
به very 0.0070922
خیلی very 0.4042553
بسیار very 0.2553191
واقعی very 0.0070922
لطف very 0.0070922
متشکرم very 0.0070922
خیلی‌خوب very 0.0070922
اگر very 0.0070922
? very 0.0070922
عضو very 0.0070922
خوبی very 0.0283688
راپیشنهاد very 0.0070922
میرسد very 0.0070922
قابلیتهای very 0.0070922
NULL very 0.0709220
ممنون very 0.0070922
حسابی very 0.0070922
کازینو very 0.0070922
که very 0.0070922
اصلا very 0.0141844
باشی very 0.0070922
شما very 0.0070922
زودتر very 0.0070922
راحت very 0.0070922
ایتدا very 0.0070922
محدوداست very 0.0070922
است very 0.0141844
مشغول very 0.0070922
ایده very 0.0070922
علاقمند very 0.0070922
بیست only 0.0043478
دارم only 0.0086957
ژانویه only 0.0043478
نکشد only 0.0043478
خواهد only 0.0086957
هفتم only 0.0043478
فقظ only 0.0043478
من only 0.0130435
از only 0.0086957
بگیرد only 0.0043478
ساعت only 0.0043478
یکشنبه only 0.0043478
NULL only 0.0565217
همین only 0.0043478
وقت only 0.0130435
نیازمندیم only 0.0043478
کوتاه only 0.0043478
البته only 0.0043478
احتمالا only 0.0086957
درعوض only 0.0043478
این only 0.0043478
که only 0.0043478
محدودیتهایی only 0.0043478
بعد only 0.0043478
تنها only 0.2913043
فقط only 0.4782609
سی‌ام only 0.0043478
خواهم‌ only 0.0043478
فوریه only 0.0043478
قبل only 0.0043478
وقتم only 0.0086957
کمی only 0.0043478
روزهای only 0.0043478
پنجشنبه only 0.0043478
تو A- 0.0135135
ازاد A- 0.0135135
NULL A- 0.1891892
صبح A- 0.5405405
تا A- 0.0135135
نه A- 0.0135135
بین A- 0.0135135
قبل‌ازظهر A- 0.0675676
ده A- 0.0405405
یادداشت A- 0.0135135
زمان A- 0.0135135
ساعت A- 0.0135135
بعدازظهر A- 0.0135135
دوازده A- 0.0135135
دوم A- 0.0135135
قبل‌از A- 0.0135135
دارم me 0.0009862
مناسب me 0.0049310
, me 0.0049310
یا me 0.0009862
تذکر me 0.0009862
میتوان me 0.0009862
زمان me 0.0009862
بگذار me 0.0039448
نیست me 0.0009862
معرفی me 0.0009862
بهتر me 0.0009862
لنت me 0.0009862
ماه me 0.0019724
اگر me 0.0009862
نه me 0.0019724
شروتاید me 0.0009862
همراهم me 0.0019724
گوش me 0.0009862
باز me 0.0019724
بیستم me 0.0019724
‌کنم me 0.0009862
میپذیرم me 0.0009862
بگذارید me 0.0009862
این me 0.0039448
ملاقات me 0.0009862
هجی me 0.0088757
دچار me 0.0009862
بدهید me 0.0128205
هجی‌اش me 0.0009862
دوازدهم me 0.0019724
هماهنگ me 0.0009862
بنظرم me 0.0009862
میخواهید me 0.0019724
میماند me 0.0009862
اینکه me 0.0009862
بگویید me 0.0009862
خوب me 0.0019724
سپتامبر me 0.0009862
هم me 0.0059172
میاید me 0.0009862
دهید me 0.0009862
بیست me 0.0029586
مرا me 0.0029586
بفرمایید me 0.0009862
مارس me 0.0009862
نهم me 0.0009862
امکان me 0.0009862
یک me 0.0009862
بیندازم me 0.0019724
بخشید me 0.0009862
اجازه me 0.0177515
من me 0.7573964
یکم me 0.0009862
واقعا me 0.0009862
توجه me 0.0009862
ببخشید me 0.0098619
? me 0.0009862
هفت me 0.0009862
موردی me 0.0009862
چهارشنبه me 0.0009862
ببینم me 0.0128205
را me 0.0019724
خودتان me 0.0009862
اول me 0.0009862
NULL me 0.0552268
بده me 0.0009862
تا me 0.0019724
ا me 0.0009862
سه‌شنبه me 0.0009862
برای me 0.0078895
خودم me 0.0019724
. me 0.0069034
مشکل me 0.0009862
روزی me 0.0009862
فقط me 0.0009862
طرز me 0.0009862
شما me 0.0019724
نمیتوانم me 0.0019724
‌و‌ me 0.0019724
است me 0.0029586
شد me 0.0009862
هستم Gottschalk 0.5000000
گوتشاک Gottschalk 0.5000000
میبینمت Bielefeld 0.1111111
هنگام Bielefeld 0.1111111
NULL Bielefeld 0.1111111
انزمان Bielefeld 0.1111111
داشته Bielefeld 0.1111111
باشید Bielefeld 0.1111111
ان Bielefeld 0.1111111
بیلفلد Bielefeld 0.2222222
دراول by 0.0196078
NULL by 0.1176471
نظر by 0.0784314
برگردم by 0.0196078
تا by 0.0392157
اتفاقی by 0.0196078
شرکت by 0.0196078
برای by 0.0784314
بحال by 0.0196078
به by 0.0980392
دیده by 0.0196078
امیدواریم by 0.0196078
ملاقاتهای by 0.0196078
بیشتری by 0.0196078
راستی by 0.0196078
در‌نظر‌داشتم by 0.0196078
شود by 0.0196078
اسلایدها by 0.0196078
از by 0.0980392
امکانی by 0.0196078
صدا by 0.0196078
طرف by 0.0392157
منظورت by 0.0196078
کوچک by 0.0196078
مساعد by 0.0196078
باشید by 0.0392157
میزنیم by 0.0196078
منظورتان by 0.0392157
تهیه‌وتدارک preparations 0.0555556
NULL preparations 0.1111111
شما preparations 0.0555556
نهایی preparations 0.0555556
تدارک preparations 0.1111111
با preparations 0.0555556
جهت preparations 0.0555556
‌کنیم preparations 0.0555556
سازی preparations 0.0555556
یک preparations 0.0555556
به preparations 0.0555556
مقدمات preparations 0.2777778
میشوند ill 0.5000000
مریض ill 0.5000000
گذاشتید thank 0.0085470
NULL thank 0.0085470
سپاسگزارم thank 0.0256410
ممنون thank 0.0598291
من thank 0.0170940
از thank 0.1709402
متشکرم thank 0.5982906
ممنونم thank 0.0598291
خوب thank 0.0085470
. thank 0.0085470
هم thank 0.0085470
خیلی thank 0.0256410
گمان reckon 0.5000000
‌میکنم reckon 0.5000000
معمولا usually 0.8333333
دوشنبه usually 0.1666667
مردم motivated 1.0000000
ر U 0.0123457
NULL U 0.3950617
یو U 0.5432099
و U 0.0123457
ت U 0.0123457
. U 0.0123457
کیو U 0.0123457
نمایشگاهی fair 0.3333333
یک fair 0.0833333
هانور fair 0.0833333
نمایشگاه fair 0.4166667
مشغول fair 0.0833333
نگاه calmly 0.2000000
ارام calmly 0.2000000
کنیم calmly 0.2000000
ان calmly 0.2000000
به calmly 0.2000000
بلوم Bl 1.0000000
ابتدای‌ interesting 0.5000000
دلچسب interesting 0.5000000
فجیع tragic 0.3333333
نیست tragic 0.3333333
هم tragic 0.3333333
مااست project 0.1250000
بگذاریم project 0.1250000
درباره project 0.1250000
طرح‌ریزی project 0.1250000
پروژه project 0.2500000
میاید project 0.1250000
همچنین project 0.1250000
اغلب worked 0.3333333
همین worked 0.3333333
طورکه worked 0.3333333
اینا Ina 1.0000000
فنجان nice 0.0428571
NULL nice 0.0285714
چه nice 0.0142857
چه‌عجب nice 0.0142857
عالی nice 0.0142857
, nice 0.0142857
اشنا‌شدن nice 0.0142857
این nice 0.0142857
داشته nice 0.0285714
خیلی nice 0.0142857
بسیار nice 0.0142857
جالبی nice 0.0142857
چیزی nice 0.0142857
دلپذیری nice 0.0142857
صحبت nice 0.0142857
میشد nice 0.0142857
دلپذیر nice 0.0285714
زیبایی nice 0.0142857
قشنگی nice 0.0142857
لطف nice 0.0142857
جالب nice 0.0428571
باشی nice 0.0142857
زیبا nice 0.0571429
باشید nice 0.0142857
خوب nice 0.3714286
است nice 0.0142857
میشود nice 0.0428571
خوبی nice 0.0857143
شروع ended 0.5000000
میکنیم ended 0.5000000
باشد problem 0.0084746
NULL problem 0.0338983
مشکلی problem 0.3135593
میکند problem 0.0084746
اشکالی problem 0.0423729
نخواهد problem 0.0423729
این problem 0.0593220
وجود problem 0.0084746
نیست problem 0.1016949
نبود problem 0.0084746
مشکل problem 0.2966102
هیچ problem 0.0084746
نخواهد‌بود problem 0.0084746
‌ان problem 0.0084746
ندارد problem 0.0338983
هرقدرهم problem 0.0084746
ایجاد problem 0.0084746
دهید check 0.0454545
را check 0.1818182
NULL check 0.1363636
بررسی check 0.0454545
نگاهی check 0.0454545
کنم check 0.3181818
لطفا check 0.0454545
چک check 0.1818182
NULL means 0.0370370
اینکه means 0.0370370
از means 0.0370370
که means 0.1111111
یعنی means 0.3333333
معنی means 0.2592593
بدین means 0.1851852
اول absolutely 0.0416667
غیر absolutely 0.0833333
خاصی absolutely 0.0416667
و absolutely 0.0416667
واقعا absolutely 0.0416667
مطلقا absolutely 0.1666667
الان absolutely 0.0416667
قطعا absolutely 0.0416667
هستند absolutely 0.0416667
دیگر absolutely 0.0416667
بود absolutely 0.0416667
کاملا absolutely 0.3750000
یکبار recorded 1.0000000
پیشنهاد definite 0.3333333
قطعی definite 0.6666667
دور farther 0.3333333
راه farther 0.3333333
امده‌اند farther 0.3333333
بک Backe 1.0000000
جان Johne 1.0000000
اوضاع situation 0.2500000
شریط situation 0.2500000
چطور situation 0.5000000
لباسهای laundry 0.5000000
شسته laundry 0.5000000
چیز unexpected 0.3333333
غیر‌منتظره‌ای unexpected 0.3333333
اگر unexpected 0.3333333
باشد tight 0.0652174
هنگام tight 0.0217391
تنگ tight 0.0217391
NULL tight 0.0217391
فشرده‌تر tight 0.0217391
میکند tight 0.0434783
فشرده‌ای tight 0.1086957
خیلی tight 0.0217391
برنامه tight 0.0217391
مشکل tight 0.0217391
خواهد tight 0.0217391
بسیار tight 0.0217391
سرم tight 0.0217391
ای tight 0.0217391
سخت tight 0.0652174
بشود tight 0.0217391
شلوغ tight 0.0217391
کمی tight 0.0217391
میشود tight 0.0652174
فشرده tight 0.3260870
شد tight 0.0217391
کاملا thoroughly 1.0000000
بیست note 0.0416667
یادداشت‌ note 0.1250000
نوشت note 0.0833333
را note 0.2083333
متوجه note 0.0416667
خواهم note 0.0416667
یادداشتی note 0.0416667
الان note 0.0416667
شدم note 0.0416667
یادداشت note 0.1666667
میکنم note 0.1250000
کنید note 0.0416667
سیوالهایی there 0.0058480
عصبانی there 0.0058480
مواد there 0.0058480
دارد there 0.0350877
سو there 0.0058480
ان‌وقت there 0.0058480
هست there 0.0760234
با there 0.0058480
وجود there 0.0877193
بعد‌‌از there 0.0058480
یک there 0.0116959
نیاید there 0.0058480
انموقع there 0.0058480
بعدازان there 0.0058480
هییت‌ there 0.0058480
قرار there 0.0058480
راه there 0.0058480
روز there 0.0058480
پس there 0.0116959
انزمان there 0.0058480
برگشت there 0.0058480
کوچک there 0.0058480
بود there 0.0058480
شامل there 0.0058480
عمومی there 0.0175439
امکان‌پذیر there 0.0058480
انجاست there 0.0116959
NULL there 0.2163743
غیراینصورت there 0.0058480
نسبتی there 0.0058480
ولی there 0.0058480
یکدفعه there 0.0058480
برای there 0.0058480
این there 0.0116959
برنامه there 0.0058480
خواهد‌بود there 0.0058480
جانشینی there 0.0058480
درست there 0.0058480
داده‌اید there 0.0058480
هنوز there 0.0409357
شش there 0.0058480
داریم there 0.0058480
گروه there 0.0058480
سخنرانی there 0.0175439
بگذاریدببینیم there 0.0058480
اشتباه there 0.0058480
انجا there 0.2280702
همایش there 0.0058480
غلط there 0.0058480
امر there 0.0058480
روزهای there 0.0116959
جلب eye 0.5000000
کرده eye 0.5000000
روبن‌اشمیت R 0.0103627
NULL R 0.2797927
ون‌رومر R 0.0051813
ار R 0.6683938
ر R 0.0155440
ان R 0.0051813
ت R 0.0051813
نوشته‌میشود R 0.0051813
رومر R 0.0051813
با coincides 0.1428571
بطرز coincides 0.1428571
انچه coincides 0.1428571
منطبق coincides 0.1428571
حد coincides 0.1428571
میشود coincides 0.1428571
هم coincides 0.1428571
به keeping 1.0000000
دست patches 0.3333333
رفت‌وامد‌های patches 0.3333333
میدهیم patches 0.3333333
NULL Bonn 0.1176471
میشناسیم Bonn 0.0588235
پنج‌روزه Bonn 0.0588235
در‌نظر Bonn 0.0588235
حاضر Bonn 0.0588235
‌بگیریم Bonn 0.0588235
شده Bonn 0.0588235
بن Bonn 0.4705882
میشویم Bonn 0.0588235
برخی‌اوقات sometimes 0.5000000
شنبه‌ها sometimes 0.5000000
دورتموند Dortmund 0.5000000
از Dortmund 0.2500000
داشته‌باشم Dortmund 0.2500000
میشوم confused 0.1666667
گیج confused 0.3333333
شده‌ام confused 0.1666667
کرده‌اید confused 0.1666667
توجه confused 0.1666667
میفون Mifune 1.0000000
چه‌چیزی owe 0.1666667
مدیون owe 0.1666667
را owe 0.1666667
این owe 0.1666667
به owe 0.1666667
افتخار owe 0.1666667
را warm 0.3333333
نگه warm 0.3333333
گرم warm 0.3333333
NULL exactly 0.0151515
اما exactly 0.0151515
من exactly 0.0151515
شما exactly 0.0151515
دقیقا exactly 0.8636364
همان exactly 0.0303030
نمیدانید exactly 0.0151515
همین‌طور exactly 0.0151515
برنامه‌ام exactly 0.0151515
NULL Bayrischer 1.0000000
باشد appropriate 0.1666667
مناسب appropriate 0.1666667
ادونت appropriate 0.1666667
تاجران appropriate 0.1666667
ساعت appropriate 0.1666667
مناسبی appropriate 0.1666667
رفته‌ام gone 0.0909091
دست gone 0.0909091
NULL gone 0.0909091
رفت gone 0.0909091
از gone 0.0909091
تعطیلاتتان gone 0.0909091
خواهم‌ gone 0.0909091
اندکی‌ gone 0.0909091
پیش gone 0.0909091
برود gone 0.0909091
که gone 0.0909091
NULL theater 1.0000000
انجاییکه matter 0.0344828
مطلب matter 0.0344828
مسیله‌ای matter 0.1034483
NULL matter 0.0344828
اوردن matter 0.0344828
از matter 0.0344828
همدیگر matter 0.0344828
نباشد matter 0.0344828
ندارد matter 0.0344828
بزنم matter 0.0344828
مهم matter 0.2413793
مسیله matter 0.0344828
به matter 0.0344828
ایرادی matter 0.0344828
موضوع matter 0.2413793
منطقی reasonable 0.6666667
معقولی reasonable 0.3333333
خود invited 0.2500000
کردید invited 0.2500000
دعوت invited 0.2500000
را invited 0.2500000
کاترین Kathrin 1.0000000
جلو drag 0.2000000
این drag 0.2000000
بیندازیم drag 0.2000000
بکشانیم drag 0.2000000
به drag 0.2000000
. south 1.0000000
کنیم rearrange 0.1666667
برنامه‌ریزی rearrange 0.3333333
را rearrange 0.1666667
دوباره rearrange 0.1666667
کنم rearrange 0.1666667
را trouble 0.2000000
زیاد trouble 0.2000000
دردسر trouble 0.2000000
به trouble 0.2000000
بیندازید trouble 0.2000000
اشلور-کویل or-Quell 0.0434783
کند or-Quell 0.0434783
میکنید or-Quell 0.0434783
اشکلور-کویل or-Quell 0.0869565
شرول or-Quell 0.0869565
می or-Quell 0.0434783
اشلور or-Quell 0.0434783
کوییل or-Quell 0.0434783
کویل or-Quell 0.0869565
کیول or-Quell 0.1304348
-کویل or-Quell 0.0434783
شلور or-Quell 0.3043478
هستند Meyer 0.0588235
مییر Meyer 0.6470588
ایشان Meyer 0.1176471
میکنم Meyer 0.0588235
که Meyer 0.0588235
صحبت‌ Meyer 0.0588235
این partially 0.3333333
از partially 0.3333333
قسمتی partially 0.3333333
صبح Habicht 0.5000000
سیلبرن‌هبیت Habicht 0.5000000
تقویم calendar 0.6666667
هفتگی calendar 0.3333333
اتحاد Union 0.3333333
داشت Union 0.3333333
نخواهید Union 0.3333333
اطلاع‌ people 0.0625000
بتوانند people 0.0625000
تاانجاییکه people 0.0625000
NULL people 0.0625000
‌کنند people 0.0625000
افراد people 0.1250000
از people 0.1875000
مردم people 0.3125000
تنظیم people 0.0625000
NULL afternoon 0.0567376
تا afternoon 0.0070922
, afternoon 0.0070922
سه‌شنبه afternoon 0.0070922
عصر afternoon 0.0354610
ام afternoon 0.0070922
بعد afternoon 0.0992908
برگزار afternoon 0.0070922
بعد‌ازظهر afternoon 0.0496454
از afternoon 0.0992908
ظهر afternoon 0.0921986
دوباره afternoon 0.0070922
چطوراست afternoon 0.0070922
بعد‌از‌ظهر afternoon 0.0212766
بعداز‌ظهر afternoon 0.0141844
مصاحبه afternoon 0.0070922
است afternoon 0.0070922
ظهرها afternoon 0.0070922
بعدازظهر afternoon 0.4468085
بعدارظهر afternoon 0.0141844
کرومل Kr 1.0000000
استار Star 1.0000000
حفاظتی protection 0.2500000
حفاظت protection 0.1250000
داده protection 0.2500000
از protection 0.2500000
محافظت protection 0.1250000
NULL front 1.0000000
چیزی recover 0.1666667
اورده recover 0.1666667
باشید recover 0.1666667
روی‌هم‌رفته recover 0.1666667
بدست recover 0.1666667
باید recover 0.1666667
‌خواهیم meet 0.0016234
بگذاریم meet 0.0016234
یکدیگر meet 0.0438312
‌میکنیم meet 0.0048701
انروز meet 0.0016234
بتوانیم meet 0.0016234
سه‌بار meet 0.0016234
دوازده meet 0.0016234
میکنیم meet 0.0162338
ناهار meet 0.0016234
‌داریم meet 0.0016234
قرارملاقات meet 0.0016234
کنیم meet 0.1055195
پیشنهاد meet 0.0016234
اگر meet 0.0016234
روز meet 0.0032468
ببینیم meet 0.0714286
اولین‌بار meet 0.0016234
ساعت meet 0.0016234
جلسه meet 0.0016234
را meet 0.2532468
هنگام meet 0.0016234
NULL meet 0.0308442
کنم meet 0.0064935
داشته‌باشیم meet 0.0032468
محدودیت‌های meet 0.0016234
برای meet 0.0016234
دیگر meet 0.0016234
سه‌شنبه meet 0.0016234
ملاقات meet 0.1948052
مایل meet 0.0016234
میبینیم meet 0.0032468
همدیگ meet 0.0016234
قراربود meet 0.0016234
کنید meet 0.0016234
میتوانیم meet 0.0032468
همدیگر meet 0.1866883
فرودگاه meet 0.0016234
خواهیم meet 0.0064935
خوب meet 0.0016234
‌کنیم meet 0.0129870
متشکر meet 0.0032468
دید meet 0.0081169
‌کرد meet 0.0016234
میخواهم into 0.0476190
میرسیم into 0.0476190
تا into 0.0476190
بعداز‌ان into 0.0476190
انداختم into 0.0476190
برای into 0.0476190
گذشته into 0.0476190
بگنجانیم into 0.0952381
در into 0.2857143
جای‌ into 0.0476190
زمانی into 0.0476190
میاید into 0.1428571
برنامه‌ام into 0.0476190
متوجه failed 0.2857143
من failed 0.1428571
نمیباشم failed 0.1428571
زمانی failed 0.1428571
نشدم failed 0.2857143
اولیور Oliver 1.0000000
NULL seven 0.1176471
امروز seven 0.0196078
ملاقات seven 0.0196078
هفت seven 0.7647059
. seven 0.0196078
ساعت seven 0.0196078
عصر seven 0.0196078
برنامه seven 0.0196078
NULL certain 0.2500000
خاصی certain 0.2500000
خاص certain 0.2500000
برای‌اینکه certain 0.2500000
NULL Fathers-Day 1.0000000
هفته‌گی weekly 0.1111111
پایه weekly 0.1111111
صورت weekly 0.1111111
برنامه weekly 0.1111111
هفتگی‌ام weekly 0.1111111
هفتگی weekly 0.4444444
واقعا indeed 1.0000000
سیلبرن‌هبیت Silberne 1.0000000
NULL good 0.0397727
چیزخوبی good 0.0056818
خبر‌‌ good 0.0056818
بخیر good 0.0113636
جمعه good 0.0056818
موفق good 0.0056818
کازینو good 0.0056818
مادر good 0.0056818
جمعهخوب good 0.0056818
مقدس good 0.0454545
داشته good 0.0113636
معقولانه good 0.0056818
نیک good 0.0056818
خیلی good 0.0625000
بسیار good 0.0056818
عصر‌بخیر good 0.0113636
من good 0.0056818
بنظرم good 0.0056818
خیلی‌خوب good 0.0113636
روز good 0.0056818
چطوره good 0.0056818
خداحافظ good 0.0511364
خوب good 0.3920455
صبح‌بخیر good 0.0056818
است good 0.0795455
خوبی good 0.1988636
مورد making 0.1250000
در making 0.1250000
NULL making 0.1250000
میباشد making 0.1250000
قرار‌ making 0.1250000
چیست making 0.1250000
گذاشتن making 0.1250000
فشرده making 0.1250000
مهمی really 0.0111111
درواقع really 0.0111111
مناسب really 0.0111111
اینقدرها really 0.0111111
نمود really 0.0111111
NULL really 0.0444444
عاقلانه really 0.0111111
واقعا really 0.7777778
اشنا‌شدن really 0.0111111
خوشحالم really 0.0222222
میتوانید really 0.0111111
خیلی really 0.0444444
شد really 0.0111111
بسیار really 0.0111111
میاورید bringing 0.3333333
را bringing 0.3333333
هم bringing 0.3333333
درخواست demand 0.2000000
حقوق demand 0.2000000
افزایش demand 0.2000000
هم demand 0.2000000
بلافاصله demand 0.2000000
و overlap 0.3333333
نیمه overlap 0.3333333
نصفه overlap 0.3333333
مییر Meyer-L 1.0000000
بیست till 0.0952381
NULL till 0.2380952
من till 0.0476190
تا till 0.3333333
مارس till 0.0476190
پنجم till 0.0476190
هشتم till 0.0476190
ان till 0.0476190
است till 0.0952381
اضافی education 0.5000000
اموزش education 0.5000000
دارد matches 0.3333333
قرارهای matches 0.3333333
مطابقت matches 0.3333333
قراری meeting 0.0035842
را meeting 0.0430108
NULL meeting 0.0250896
مشکلی meeting 0.0035842
جلسه‌ meeting 0.0501792
شام meeting 0.0035842
نشست meeting 0.0322581
داشته meeting 0.0035842
جلسه‌ای meeting 0.0358423
بعدا meeting 0.0035842
جله meeting 0.0035842
ملاقات meeting 0.0824373
جلسات meeting 0.0107527
قرارمان meeting 0.0035842
باشم meeting 0.0071685
قرارملاقات meeting 0.0071685
دومی meeting 0.0035842
نشستی meeting 0.0107527
دو meeting 0.0035842
قرارملاقاتمان meeting 0.0071685
منتظرم meeting 0.0035842
جلسه‌مقدماتی meeting 0.0107527
قرار meeting 0.0035842
نشستمان meeting 0.0035842
اولیه meeting 0.0501792
رسمی meeting 0.0035842
جلسه meeting 0.5770609
دوروزه meeting 0.0035842
عجول rash 1.0000000
کرون Korn 0.6000000
کورن Korn 0.4000000
حل solved 0.5000000
کرد solved 0.5000000
دکتر Mr 0.0093458
NULL Mr 0.0280374
من Mr 0.0093458
گرتنر Mr 0.0093458
, Mr 0.0186916
بخیر Mr 0.0093458
اقای Mr 0.8785047
این Mr 0.0093458
کاپ Mr 0.0093458
است Mr 0.0093458
جانچ Mr 0.0093458
یک fish 1.0000000
روبرت Robert 1.0000000
مستقیما directly 0.3333333
ترجیح directly 0.3333333
بلافاصله directly 0.3333333
اعتراف prayer 0.1111111
دعا prayer 0.4444444
نیایش prayer 0.3333333
روز prayer 0.1111111
مناسب then 0.0025084
بگذاریم then 0.0025084
کلن then 0.0008361
روشن then 0.0008361
تمام then 0.0025084
چیز then 0.0008361
در then 0.0016722
زمان then 0.0075251
نوبت then 0.0008361
همه then 0.0008361
دوازده then 0.0008361
دراینصورت then 0.0008361
بهتر then 0.0008361
روز then 0.0008361
میایم then 0.0033445
انگاه then 0.0008361
دفترهای‌روزانه‌مان then 0.0008361
تو then 0.0008361
مشکل‌ساز then 0.0008361
عصرها then 0.0008361
و then 0.0008361
تاریخ then 0.0008361
پیدا then 0.0008361
دیدار then 0.0008361
شریط then 0.0008361
ان then 0.0367893
سراسر then 0.0008361
دهیم then 0.0075251
برنامه then 0.0008361
بعد then 0.0376254
بدهید then 0.0008361
هانوفر then 0.0033445
بابت then 0.0008361
رسید then 0.0008361
مخواهم then 0.0008361
باشید then 0.0016722
‌دهیم then 0.0016722
مدت then 0.0016722
اخر‌هفته‌ها then 0.0008361
موافق then 0.0008361
بماند then 0.0008361
یک then 0.0016722
به then 0.0016722
میکنیم then 0.0016722
انجام‌دادن then 0.0008361
کرد then 0.0008361
میدهیم then 0.0008361
انموقع then 0.0635452
پیشنهاد then 0.0008361
امشب then 0.0008361
من then 0.0033445
? then 0.0016722
انجامش then 0.0008361
همراه then 0.0008361
بخوابم then 0.0008361
بود then 0.0008361
خوبی then 0.0008361
بطری then 0.0008361
همین then 0.0008361
نسبتی then 0.0008361
وقت then 0.0250836
جا then 0.0008361
برای then 0.0016722
بیرون then 0.0008361
مناسبتر then 0.0008361
راحت‌تر then 0.0008361
که then 0.0008361
قرارمان then 0.0008361
عجله then 0.0008361
مانهیم then 0.0008361
لپزینگ then 0.0025084
روزی then 0.0016722
ورودی then 0.0008361
اینجا then 0.0008361
پنجم then 0.0008361
موافقت then 0.0008361
نشستمان then 0.0008361
وقتم then 0.0016722
خواهیم then 0.0016722
موقع then 0.0183946
کاری then 0.0008361
نوامبر then 0.0008361
مشغول then 0.0008361
میبینمت then 0.0008361
راحتی then 0.0008361
میبینم then 0.0008361
, then 0.0117057
ارایشگاه then 0.0008361
ان‌وقت then 0.0041806
کلوگن then 0.0008361
پیدا‌کردم then 0.0008361
بسیار then 0.0008361
قرارملاقات then 0.0016722
غیر‌ممکن then 0.0008361
ببینیم then 0.0075251
بنابراین then 0.0033445
انزمان then 0.0225753
دایر then 0.0008361
ساعت then 0.0008361
سپس then 0.0142140
جلسه then 0.0008361
باز then 0.0008361
رانندگی then 0.0008361
خواهید then 0.0008361
بعد‌از then 0.0025084
درزدن then 0.0008361
میاندازم then 0.0008361
البته then 0.0008361
این then 0.0008361
هفته then 0.0008361
لایپزینگ then 0.0008361
برلین then 0.0033445
شهر then 0.0008361
بن then 0.0008361
هفته‌مان then 0.0008361
‌ then 0.0008361
اما then 0.0008361
کشور then 0.0008361
دورتموند then 0.0008361
عادی then 0.0008361
خدانگهدار then 0.0008361
پایانی then 0.0008361
ندارم then 0.0008361
گذاشته then 0.0008361
هم then 0.0008361
وقتتان then 0.0008361
ان‌هنگام then 0.0008361
معیین then 0.0008361
باشد then 0.0041806
ان‌‌وقت then 0.0008361
خارج then 0.0041806
مشکلی then 0.0008361
نگهداریم then 0.0016722
امد then 0.0008361
رخ then 0.0008361
ویژه then 0.0008361
خواهد then 0.0016722
مرخصی then 0.0008361
ناهار then 0.0008361
یرای then 0.0008361
کنیم then 0.0091973
بعدازان then 0.0008361
توبینگن then 0.0008361
قرار then 0.0008361
علاوه then 0.0016722
پس then 0.2709030
انوقت then 0.0493311
لیپزینگ then 0.0008361
موکول then 0.0008361
ان‌موقع then 0.0493311
را then 0.0317726
هنگام then 0.0083612
NULL then 0.1471572
رزور then 0.0008361
تا then 0.0008361
خواهم then 0.0016722
نباشیم then 0.0008361
میان then 0.0008361
داشته then 0.0008361
رایانه then 0.0008361
. then 0.0100334
میبینیم then 0.0008361
نصفه then 0.0008361
رایانه‌ then 0.0008361
تعهدات then 0.0008361
شرایط then 0.0008361
نیوبرانزویک then 0.0008361
شرق then 0.0008361
همچنین then 0.0008361
ان‌‌موقع then 0.0008361
برنامه‌ریزی things 0.0416667
NULL things 0.1250000
چه things 0.0416667
کنم things 0.0416667
کارها things 0.0416667
چیزهای things 0.0416667
با things 0.0416667
روبراه things 0.0833333
این things 0.0416667
اوضاع things 0.0416667
چیز things 0.1250000
یقینا things 0.0416667
همه things 0.0416667
از things 0.0833333
قرار things 0.0416667
فراهم things 0.0416667
چیزها things 0.0833333
را excuse 0.1578947
بخشید excuse 0.0526316
لحظه excuse 0.0526316
من excuse 0.0526316
, excuse 0.0526316
ببخشید excuse 0.6315789
شولتز Schulz 1.0000000
پانزدهم fifteen 1.0000000
سرایدار caretaker 1.0000000
ندارم persuading 0.3333333
شدن persuading 0.3333333
متقاعد persuading 0.3333333
نصب slides 0.2500000
اسلایدها slides 0.2500000
شده slides 0.2500000
اسلایدهای slides 0.2500000
کامل hear 0.1000000
صدای hear 0.3000000
مرا hear 0.1000000
. hear 0.1000000
میشنوید hear 0.1000000
میکنی hear 0.1000000
گوش hear 0.1000000
میشنوم hear 0.1000000
را marked 0.1818182
NULL marked 0.0909091
دفتر marked 0.0909091
زدم marked 0.0909091
علامت marked 0.1818182
گذاشته‌ام marked 0.0909091
علامت‌ marked 0.0909091
انها marked 0.0909091
خورده‌اند marked 0.0909091
مجتمع state 1.0000000
هوش artificial 0.6000000
مورد artificial 0.2000000
زمینه artificial 0.2000000
ای fantastic 0.1666667
خوب fantastic 0.1666667
است fantastic 0.1666667
خارق‌العاده fantastic 0.5000000
ممکن probably 0.0540541
قضیه probably 0.0270270
باشیم probably 0.0270270
من probably 0.0270270
انقدر probably 0.0270270
شاید probably 0.0270270
احتمالا probably 0.7027027
مستلزم probably 0.0270270
در probably 0.0270270
کار probably 0.0270270
نداشته probably 0.0270270
تعداد few 0.0322581
NULL few 0.0322581
چندتا few 0.0645161
راهم few 0.0322581
چند few 0.5161290
درگیر few 0.0322581
اتی few 0.0322581
کمی few 0.1935484
یقینا few 0.0322581
فراهم few 0.0322581
صحبت whom 1.0000000
ندهد government 0.3333333
اهمیت government 0.3333333
دولت government 0.3333333
NULL told 0.0384615
گفتم told 0.1538462
شده‌است told 0.0384615
گفت told 0.0769231
گفته told 0.1153846
بودم told 0.0384615
با told 0.0384615
همانطوریکه told 0.0384615
شده told 0.0384615
که told 0.1923077
همانطور told 0.1153846
به told 0.1153846
نمایش show 1.0000000
احتمالا sufficient 0.1428571
خراب sufficient 0.1428571
ان‌هنگام sufficient 0.1428571
کافی sufficient 0.5714286
NULL Ash 0.0666667
لنت Ash 0.0666667
اول Ash 0.1333333
تا Ash 0.0666667
مثلا Ash 0.0666667
ماه Ash 0.1333333
روز Ash 0.0666667
خاکستری Ash 0.0666667
روزه Ash 0.0666667
هم Ash 0.0666667
چهارشنبه Ash 0.2000000
شنیدم heard 0.0714286
شنیده‌ام heard 0.2142857
هنوز heard 0.0714286
من heard 0.0714286
اید heard 0.0714286
. heard 0.0714286
که heard 0.2142857
درباره‌اش heard 0.0714286
باید heard 0.0714286
شنیده heard 0.0714286
اینکه occasionally 0.2000000
نشود occasionally 0.2000000
کنسل occasionally 0.2000000
مگر occasionally 0.2000000
کنم occasionally 0.2000000
قیمتی price 0.5000000
چه price 0.5000000
اینطور G 0.0312500
NULL G 0.3645833
گ G 0.0104167
جیی G 0.1145833
گرتنر G 0.0625000
جی G 0.3229167
اقای G 0.0104167
ار G 0.0104167
ر G 0.0208333
گرن G 0.0104167
ت G 0.0104167
گونترصحبت G 0.0104167
گارتنر G 0.0104167
نوشته G 0.0104167
واقع Vienna 0.0500000
برگزار Vienna 0.1000000
خواهیم Vienna 0.0500000
وین Vienna 0.6500000
میشود Vienna 0.1000000
کرد Vienna 0.0500000
اتاق reserved 1.0000000
مناسب suit 0.3756410
مشکلی suit 0.0012821
چه suit 0.0025641
عالی suit 0.0012821
, suit 0.0051282
یا suit 0.0012821
دادید suit 0.0012821
هست suit 0.0012821
مناسبی suit 0.0025641
با suit 0.0012821
خیلی suit 0.0064103
بهتر suit 0.0012821
لنت suit 0.0012821
رای suit 0.0012821
من suit 0.0089744
از suit 0.0038462
یکم suit 0.0012821
? suit 0.0012821
جور suit 0.0051282
مساعد suit 0.0012821
NULL suit 0.0307692
تا suit 0.0012821
راحتید suit 0.0012821
برای suit 0.5025641
این suit 0.0012821
سه‌شنبه suit 0.0012821
. suit 0.0025641
مشکل suit 0.0012821
برنامه suit 0.0076923
دوازدهم suit 0.0012821
روزی suit 0.0025641
شما suit 0.0025641
خوب suit 0.0076923
اینده suit 0.0012821
نمیتوانم suit 0.0012821
سپتامبر suit 0.0012821
است suit 0.0038462
پنجشنبه suit 0.0025641
زیادی plenty 0.2000000
داشت plenty 0.2000000
خواهم plenty 0.2000000
زمانهای plenty 0.2000000
بسیار plenty 0.2000000
ایتالیا Italy 1.0000000
عبارت even 0.0416667
ممکن even 0.0416667
بگیریم even 0.0416667
‌باشیم even 0.0416667
NULL even 0.0416667
بیاندازید even 0.0416667
نصف even 0.0416667
داریم even 0.0416667
داشته even 0.0416667
هرچند even 0.0416667
حتی even 0.5416667
خیلی even 0.0416667
تمام finish 0.1666667
حدود finish 0.1666667
دیگر finish 0.1666667
روز finish 0.1666667
چند finish 0.1666667
کنید finish 0.1666667
با contact 0.4000000
بگیرید contact 0.2000000
تماس contact 0.4000000
تاجران senior 1.0000000
بعدازان immediately 0.0526316
اینکه immediately 0.0526316
NULL immediately 0.0526316
فورا immediately 0.2631579
بلافاصله immediately 0.5789474
باشد should 0.0034722
سیوالهایی should 0.0034722
ما should 0.0069444
بایستی should 0.0069444
بیفتیم should 0.0034722
غیر‌منتظره‌ای should 0.0034722
مشکلی should 0.0138889
پنج should 0.0034722
دارید should 0.0138889
اخر should 0.0034722
بتوانی should 0.0034722
در should 0.0034722
بهتراست should 0.0104167
هر should 0.0034722
قالب should 0.0034722
خواهد should 0.0138889
مجبور should 0.0034722
هرگز should 0.0034722
سفرمان should 0.0034722
بهتر should 0.0486111
سه should 0.0034722
حالا should 0.0034722
ببینیم should 0.0069444
مجبوریم should 0.0034722
انرا should 0.0034722
ایا should 0.0034722
میشود should 0.0034722
معمول should 0.0069444
جلسه should 0.0034722
حتی should 0.0034722
را should 0.0034722
ممکن should 0.0069444
NULL should 0.0416667
باشیم should 0.0138889
داشته should 0.0104167
این should 0.0104167
انچه should 0.0034722
نیز should 0.0034722
ساعت‌ها should 0.0069444
همینرا should 0.0034722
بعد should 0.0034722
سفر should 0.0034722
میتوانیم should 0.0069444
همچنان should 0.0034722
هنوز should 0.0138889
باشی should 0.0069444
امکانش should 0.0034722
میتوانی should 0.0034722
زودتر should 0.0034722
خواهدبود should 0.0034722
نباید should 0.0277778
لباسهای should 0.0034722
طوری should 0.0034722
باشید should 0.0034722
نمیتواند should 0.0034722
است should 0.0034722
لازم should 0.0069444
باید should 0.5833333
کافی should 0.0069444
لنگ Lange 0.7142857
لانج Lange 0.1428571
لانگ Lange 0.1428571
خواسته instructed 0.3333333
من instructed 0.3333333
طرف instructed 0.3333333
شرکت consulting 0.5000000
مشاوره consulting 0.5000000
پس connected 0.2500000
NULL connected 0.2500000
درست connected 0.2500000
, connected 0.2500000
البرت Ableitner 0.2000000
البیتنر Ableitner 0.3000000
الیتنر Ableitner 0.1000000
ابلینتر Ableitner 0.1000000
ابلیتنر Ableitner 0.2000000
البینتر Ableitner 0.1000000
شرکتی companions 0.3333333
لازم companions 0.3333333
داشته‌باشیم companions 0.3333333
بداند he 0.1428571
چهارشنبه he 0.1428571
او he 0.5714286
چهاردهم he 0.1428571
تهیه .. 0.2500000
مقاله .. 0.2500000
برای .. 0.2500000
نیاز .. 0.2500000
کرومل ummel 1.0000000
هستند fresh 0.2000000
تازه fresh 0.2000000
رولهای fresh 0.2000000
ذهن fresh 0.2000000
موجود fresh 0.2000000
هستید superstitious 0.5000000
خرافاتی superstitious 0.5000000
ما involve 0.1666667
شامل involve 0.3333333
خواهد involve 0.1666667
برنامه involve 0.1666667
شد involve 0.1666667
برمیگردیم return 0.5000000
روز return 0.5000000
خاطره gather 0.3333333
برای gather 0.3333333
جمع‌اوری gather 0.3333333
انجام intervals 0.2000000
بدهیم intervals 0.2000000
گفتگوها intervals 0.2000000
وقفه‌های intervals 0.4000000
ندارد pertain 0.5000000
ربطی pertain 0.5000000
استراحت weeks 0.0303030
NULL weeks 0.0303030
‌تا weeks 0.0303030
هفته‌های weeks 0.0606061
خواهد‌‌بود weeks 0.0303030
داریم weeks 0.0303030
هفته weeks 0.7272727
روزه weeks 0.0303030
در weeks 0.0303030
NULL fly 1.0000000
هستید come 0.0126582
میگردیم come 0.0126582
صبح come 0.0126582
بیایی come 0.0126582
NULL come 0.1645570
دیدار come 0.0253165
امد come 0.1265823
اجازه‌دهید come 0.0126582
بیایم come 0.0759494
کارمندانی come 0.0126582
خواهی come 0.0126582
برمیگردیم come 0.0126582
میل come 0.0126582
به come 0.1772152
بیایید come 0.0506329
میایید come 0.0253165
شروع come 0.0126582
عصر‌ come 0.0126582
من come 0.0126582
اتاقهایمان come 0.0126582
بزنید come 0.0126582
میایم come 0.0886076
دیدن come 0.0126582
راحت come 0.0126582
قادر come 0.0126582
چرا come 0.0126582
دور come 0.0253165
وم come 0.0126582
بله feasible 0.2000000
است feasible 0.2000000
امکان‌پذیر feasible 0.4000000
هست feasible 0.2000000
وارونه backwards 1.0000000
زمینه‌ها preparation 0.1000000
امادگیها preparation 0.1000000
برپا preparation 0.1000000
تدارکاتی preparation 0.1000000
اماده‌سازی preparation 0.1000000
امادگی preparation 0.1000000
بماند preparation 0.1000000
هم preparation 0.2000000
همه preparation 0.1000000
NULL bar 0.3333333
سالاد bar 0.3333333
صرف bar 0.3333333
تصادفی cars 1.0000000
حداقل least 0.4705882
دست‌کم least 0.0588235
نهایت least 0.0588235
باشیم least 0.0588235
بودن least 0.0588235
دردسترس least 0.0588235
نه least 0.0588235
اقلا least 0.0588235
نداریم least 0.0588235
نخواهم‌بود least 0.0588235
کمابیش less 0.5000000
هزینه less 0.5000000
مناسب fine 0.1043129
NULL fine 0.0060181
عالی fine 0.0030090
هست fine 0.0010030
برای fine 0.0020060
‌خوبم fine 0.0010030
ان fine 0.0010030
زمان fine 0.0010030
. fine 0.0030090
به fine 0.0010030
خیلی fine 0.0020060
کاملا fine 0.0010030
بسیار fine 0.0230692
بهتر fine 0.0010030
بخوبی fine 0.0010030
درست fine 0.0010030
بله fine 0.0010030
من fine 0.0020060
توجه fine 0.0010030
بسیارخوب fine 0.0060181
خوبه fine 0.0020060
خب fine 0.0030090
جور fine 0.0010030
بسیارخب fine 0.0010030
مساعد fine 0.0090271
خوبند fine 0.0010030
خوب fine 0.4032096
هم fine 0.0010030
بود fine 0.0090271
است fine 0.4062187
خوبی fine 0.0010030
باشد keep 0.0222222
را keep 0.2666667
NULL keep 0.0888889
مشکلی keep 0.0222222
ویت keep 0.0222222
نگهداریم keep 0.0666667
طنین‌انداز keep 0.0222222
نگهداشته keep 0.0222222
همینگونه keep 0.0222222
نگه keep 0.0222222
همان keep 0.0222222
مربا keep 0.0222222
همینطوری keep 0.0222222
بدون keep 0.0222222
بداریم keep 0.0222222
هیچ keep 0.0222222
هماهنگ keep 0.0222222
نگه‌ keep 0.0444444
نگه‌داریم keep 0.0222222
میخواهید keep 0.0222222
محفوظ keep 0.0222222
طور keep 0.0222222
داریم keep 0.0444444
نگه‌‌داریم keep 0.0222222
همانطور keep 0.0222222
وقرار keep 0.0222222
بعدیرا keep 0.0222222
باشد better 0.0941176
بهتر better 0.4352941
NULL better 0.0352941
نمیاید better 0.0117647
بیشتر better 0.0117647
مناسبترند better 0.0117647
بهتر‌است better 0.0117647
اجازه‌ better 0.0117647
شاید better 0.0117647
هشتم better 0.0117647
بهتراست better 0.0235294
مناسبتر better 0.0117647
بهترین better 0.0117647
. better 0.0235294
میشود better 0.0117647
است better 0.2588235
بود better 0.0117647
بسته depending 0.5000000
بستگی depending 0.5000000
وزیران Ministry 0.5000000
هییت Ministry 0.5000000
هجی‌ yours 0.3333333
شما yours 0.3333333
کنید yours 0.3333333
دست due 0.1000000
سری due 0.1000000
NULL due 0.1000000
رسیده due 0.1000000
برقرار due 0.1000000
فرا due 0.1000000
هم due 0.1000000
یک due 0.1000000
قرارها due 0.1000000
باید due 0.1000000
دیگر pen 0.3333333
خودکار pen 0.3333333
مغزم pen 0.3333333
از frequently 1.0000000
پایانی final 0.1666667
پایان final 0.1666667
عنوان final 0.1666667
اخرین final 0.1666667
مذاکره final 0.1666667
که final 0.1666667
موشامر Mooshammer 1.0000000
اموزان schoolchildren 0.5000000
پاییزی schoolchildren 0.5000000
بیاورید tea 0.0588235
صرف tea 0.3529412
تشریف tea 0.0588235
چای tea 0.5294118
دارم and 0.0007220
ما and 0.0007220
ژانویه and 0.0007220
در and 0.0028881
بگذار and 0.0007220
همانجا and 0.0007220
ازاد and 0.0007220
حالا and 0.0007220
نه and 0.0007220
روز and 0.0021661
اگر and 0.0021661
خداحافظ and 0.0014440
ساندیز and 0.0007220
فکر and 0.0007220
سپس and 0.0007220
جلسه and 0.0007220
میخواهم and 0.0007220
تاریخ and 0.0007220
و and 0.8382671
درغیر‌اینصورت and 0.0007220
وبسیار and 0.0007220
میرویم and 0.0007220
دیدار and 0.0007220
بگویم and 0.0007220
این and 0.0014440
هفته and 0.0007220
واکتبر and 0.0014440
ملاقات and 0.0007220
بعد and 0.0007220
اهل and 0.0007220
چاق and 0.0007220
اما and 0.0007220
هانوفر and 0.0007220
شش and 0.0007220
همدیگر and 0.0007220
انهم and 0.0007220
جدا and 0.0007220
وپنجشنبه and 0.0007220
سختی and 0.0007220
دیگرم and 0.0007220
روجر and 0.0007220
وقرار and 0.0007220
دوشنبه and 0.0007220
پنجشنبه and 0.0007220
روزهای and 0.0007220
شنیده‌ام and 0.0007220
عکسها and 0.0007220
زمانبندی and 0.0007220
خالی and 0.0007220
جولای and 0.0007220
شنبه and 0.0007220
از‌طرف‌دیگر and 0.0007220
هستم and 0.0007220
میباشد and 0.0007220
بروزرسانی and 0.0007220
موافق and 0.0007220
به and 0.0007220
فردا and 0.0007220
میگیریم and 0.0007220
1995 and 0.0007220
پیشنهاد and 0.0021661
امادگیها and 0.0007220
متشکرم and 0.0007220
من and 0.0050542
از and 0.0014440
قرار and 0.0021661
یکم and 0.0007220
پس and 0.0014440
? and 0.0007220
فنی and 0.0007220
دوما and 0.0007220
را and 0.0007220
اول and 0.0007220
NULL and 0.0519856
باشیم and 0.0007220
هجدهم and 0.0007220
تا and 0.0223827
برای and 0.0007220
وسپس and 0.0007220
نظری and 0.0007220
بغیر and 0.0007220
. and 0.0007220
چک and 0.0007220
که and 0.0021661
کننده and 0.0007220
سیزدهم and 0.0007220
منتظرم and 0.0007220
شما and 0.0007220
ودوم and 0.0007220
پنجم and 0.0007220
یکی and 0.0007220
بعداز and 0.0007220
ودوشنبه and 0.0007220
برویم and 0.0007220
قبلا and 0.0007220
اینرو and 0.0014440
همچنین and 0.0021661
هیچ virtually 0.1666667
صورتیکه virtually 0.1666667
درحقیقت virtually 0.1666667
در‌واقع virtually 0.1666667
وقتی virtually 0.1666667
واقعا virtually 0.1666667
اسکات‌مه‌یر Schottemeyer 0.5000000
. Schottemeyer 0.2500000
صحبت‌ Schottemeyer 0.2500000
داشتیم six 0.0370370
NULL six 0.0740741
چهارم six 0.0185185
ساعت six 0.0185185
شش six 0.8518519
صفحه‌ام anymore 0.1666667
دیگر anymore 0.1666667
نمیبینم anymore 0.1666667
نمیدانم anymore 0.1666667
چیزها anymore 0.1666667
صورت anymore 0.1666667
قراری fixed 0.0212766
سرانجام fixed 0.0106383
صبح fixed 0.0106383
تعیین fixed 0.0638298
کرده fixed 0.0212766
ثبت fixed 0.0744681
درهر‌حال fixed 0.0106383
میکردیم fixed 0.0212766
محلی fixed 0.0106383
چیز fixed 0.0106383
ثبت‌ fixed 0.0425532
چیزی fixed 0.0106383
کنیم fixed 0.0106383
شوند fixed 0.0106383
قطعی fixed 0.0106383
تثبیت fixed 0.0106383
مورد fixed 0.0106383
داشتیم fixed 0.0212766
ملاقاتی fixed 0.0106383
انرا fixed 0.0106383
به‌این fixed 0.0106383
را fixed 0.1489362
کرده‌ایم fixed 0.0425532
NULL fixed 0.0212766
کردیم fixed 0.0957447
ایم fixed 0.0212766
چاهرشنبه fixed 0.0106383
ترتیب fixed 0.0106383
ثابت fixed 0.0425532
نکرده‌ام fixed 0.0106383
. fixed 0.0106383
شده fixed 0.0212766
قرارمان fixed 0.0106383
ثبت‌‌ fixed 0.0106383
ثابتی fixed 0.0106383
انتخاب fixed 0.0212766
تاریخ‌ها fixed 0.0106383
‌کردیم fixed 0.0106383
گذاشته fixed 0.0106383
نتیجه fixed 0.0106383
تنظیم fixed 0.0212766
‌شد fixed 0.0106383
روزهای fixed 0.0106383
شد fixed 0.0106383
لی‌انارد Leonhard 0.5000000
, Leonhard 0.5000000
تمام spend 0.1428571
نمود spend 0.1428571
خواهیم spend 0.1428571
سپری spend 0.1428571
یکدیگر spend 0.1428571
از spend 0.1428571
شب spend 0.1428571
ایبرل Eberle 1.0000000
داشته regularity 0.2500000
باشیم regularity 0.2500000
قرار regularity 0.2500000
چندتا regularity 0.2500000
کنیم February 0.0059880
NULL February 0.0718563
از February 0.0059880
هجدهم February 0.0059880
وقت February 0.0059880
ما‌بین February 0.0059880
فوریه February 0.8502994
یا February 0.0059880
مارس February 0.0059880
اخر February 0.0059880
ژانویه February 0.0059880
? February 0.0059880
. February 0.0059880
چهاردهم February 0.0059880
‌و February 0.0059880
قراری already 0.0075188
دارم already 0.0451128
صبح already 0.0075188
, already 0.0037594
کرده already 0.0037594
اید already 0.0037594
کرده‌ام already 0.0075188
در already 0.0375940
زمان already 0.0037594
خوردید already 0.0037594
داده already 0.0037594
روز already 0.0037594
داری already 0.0037594
حالا already 0.0112782
اکنون already 0.0563910
ساعت already 0.0037594
گرفتار already 0.0037594
تو already 0.0037594
کرده‌ایم already 0.0037594
نظر already 0.0037594
فعلا already 0.0187970
حاضرکاملا already 0.0037594
درحال‌حاضر already 0.0112782
این already 0.0037594
بگوییم already 0.0037594
شده already 0.0037594
تاکنون already 0.0037594
برنامه already 0.0037594
دوازدهم already 0.0037594
کشور already 0.0037594
بعدی already 0.0037594
گرفتارم already 0.0037594
هم already 0.0639098
قبل‌ازان already 0.0037594
بیست already 0.0037594
برنامه‌هایی already 0.0037594
گذاشته‌ام already 0.0075188
دوساعته already 0.0037594
پیشاپیش already 0.1127820
انها already 0.0037594
یک already 0.0037594
هفتم already 0.0037594
گذاشتم already 0.0037594
قرار already 0.0037594
من already 0.0037594
از already 0.0639098
متاسفانه already 0.0037594
درحال already 0.0075188
حرکت already 0.0037594
حال already 0.0150376
یکشنبه already 0.0037594
را already 0.0037594
اول already 0.0037594
ازقبل already 0.0075188
NULL already 0.0902256
‌شده‌است already 0.0037594
همین already 0.0112782
خواهم already 0.0112782
ژوییه already 0.0037594
در‌حال already 0.0037594
حاضر already 0.0225564
. already 0.0037594
که already 0.0075188
اخیرا already 0.0037594
همچنان already 0.0037594
درگیر already 0.0150376
پنجم already 0.0037594
قبل already 0.0526316
مشغولیتی already 0.0037594
قبلا already 0.1165414
لیپزیگ already 0.0037594
پر already 0.0037594
حال‌حاضر already 0.0075188
باید already 0.0037594
هستید lucky 0.1111111
خانواده lucky 0.1111111
من lucky 0.1111111
شانس lucky 0.2222222
ندارید lucky 0.1111111
هستم lucky 0.1111111
که lucky 0.1111111
خوش lucky 0.1111111
نظرتان think 0.0019268
اوایل think 0.0019268
گفتید think 0.0019268
بگذاریم think 0.0019268
چه think 0.0019268
گمان think 0.0019268
کرده‌ام think 0.0019268
‌میکنید think 0.0019268
در think 0.0038536
فکرش think 0.0019268
خیلی think 0.0019268
فکرنمیکنم think 0.0019268
? think 0.0057803
طور think 0.0019268
فکری think 0.0173410
ایا think 0.0019268
ساعت think 0.0019268
فکر‌ think 0.0481696
چیست think 0.0192678
فکر think 0.3815029
چطور think 0.0019268
تو think 0.0019268
فکر‌میکنم think 0.0019268
نمیکنم think 0.0057803
‌کنم think 0.0019268
نظر think 0.0019268
NULL think 0.0327553
ازاد‌بودن think 0.0019268
اول think 0.0019268
فکرم think 0.0019268
کنم think 0.0366089
پانزدهم think 0.0019268
نظری think 0.0077071
میکنم think 0.2851638
میکنمک think 0.0019268
. think 0.0019268
گمانم think 0.0038536
میکنی think 0.0038536
میکنید think 0.0423892
فکرکنیم think 0.0019268
شما think 0.0038536
‌میکنم think 0.0385356
چقدر think 0.0019268
فکرکنم think 0.0077071
هفدهم think 0.0019268
برگزاری think 0.0019268
هجی differently 0.3333333
متفاوت differently 0.3333333
شدن differently 0.3333333
دارند cuisine 0.5000000
کازینو cuisine 0.5000000
NULL unfortunately 0.0583333
و unfortunately 0.0083333
من unfortunately 0.0166667
, unfortunately 0.0166667
متاسفانه unfortunately 0.8166667
روز unfortunately 0.0083333
اخر unfortunately 0.0083333
متاسفم unfortunately 0.0166667
این unfortunately 0.0166667
ان unfortunately 0.0083333
زمان unfortunately 0.0083333
بود unfortunately 0.0083333
دوازده unfortunately 0.0083333
متعاقبا subsequent 0.5000000
سفر subsequent 0.2500000
و subsequent 0.2500000
دارم knowledge 0.5000000
خبر knowledge 0.5000000
اینجوری last 0.0178571
طول last 0.1250000
NULL last 0.0892857
متوجه last 0.0178571
میکشد last 0.0714286
, last 0.0178571
نهایی last 0.0178571
الان last 0.0178571
اخر last 0.2500000
چهارمین last 0.0178571
رادرست last 0.0178571
اخرین last 0.3392857
مناسب suited 0.2000000
برای suited 0.2000000
بودید suited 0.2000000
است suited 0.2000000
گفته suited 0.2000000
اطلاع‌ inform 0.0714286
میترسم inform 0.0714286
به‌موقع inform 0.0714286
بدهم inform 0.0714286
خبر‌‌ inform 0.0714286
اطلاع inform 0.0714286
میدهم inform 0.1428571
ان‌موقع inform 0.0714286
به inform 0.2142857
باید inform 0.0714286
افرادم inform 0.0714286
میدهم food 0.1428571
ترتیب food 0.1428571
غذای food 0.1428571
هم food 0.1428571
صورت food 0.1428571
غذا food 0.2857143
تعطیلات vacation 0.2000000
بود vacation 0.4000000
خواهم vacation 0.4000000
چندبار often 0.1111111
شود often 0.1111111
NULL often 0.1111111
لغو often 0.1111111
از often 0.2222222
اینجا often 0.1111111
اینها often 0.1111111
میروم often 0.1111111
هایمن Heilmann 1.0000000
بروزرسانی update 0.5000000
میکنیم update 0.5000000
اوردیم exchange 0.1250000
تبادل exchange 0.1250000
بپردازیم exchange 0.1250000
تاان‌موقع exchange 0.1250000
به exchange 0.1250000
تجربه‌هایی exchange 0.1250000
که exchange 0.1250000
بدست‌ exchange 0.1250000
ولزتد Vollstedt 0.6666667
نولزتد Vollstedt 0.3333333
بیست next 0.0135135
مناسب next 0.0135135
مااست next 0.0135135
بگذاریم next 0.0135135
NULL next 0.0405405
احتمالی next 0.0135135
برای next 0.0135135
اتی next 0.0135135
جنب next 0.0135135
نداریم next 0.0135135
سرم next 0.0135135
بعد next 0.1216216
چهار‌ next 0.0135135
از next 0.0135135
من next 0.0135135
ماه next 0.0135135
نه next 0.0135135
میدهید next 0.0135135
خوبه next 0.0135135
بعدی next 0.3243243
مناسبترین next 0.0135135
اینده next 0.2702703
رامعرفی yourself 0.2500000
خودتان yourself 0.5000000
دردسر yourself 0.2500000
بهتراست almost 0.0714286
هرتاریخی almost 0.0714286
تقریبا almost 0.7857143
الان almost 0.0714286
کردید proposed 0.2000000
NULL proposed 0.2000000
پیشنهاد proposed 0.4000000
نوامبر proposed 0.2000000
بلوم um 1.0000000
بیست twentieth 0.0250000
بیستم twentieth 0.7666667
پیشنهاد twentieth 0.0083333
دوازدهم twentieth 0.0083333
NULL twentieth 0.1083333
و twentieth 0.0083333
تا twentieth 0.0083333
, twentieth 0.0166667
مارس twentieth 0.0083333
? twentieth 0.0083333
برای twentieth 0.0083333
دوازده twentieth 0.0083333
دوم twentieth 0.0166667
صرف‌نظر off 0.0714286
NULL off 0.0714286
از off 0.0714286
بیکار off 0.0714286
قطع off 0.0714286
تعطیل‌ off 0.0714286
کنم off 0.0714286
انها off 0.0714286
هستم off 0.0714286
در off 0.0714286
خانه off 0.0714286
یک off 0.0714286
مرخصی off 0.1428571
به‌‌این‌ thus 0.0625000
برگزار thus 0.0625000
NULL thus 0.0625000
بدینسان thus 0.0625000
بنابراین thus 0.3750000
پس thus 0.0625000
خواهیم thus 0.0625000
ترتیب thus 0.1250000
میتوانید thus 0.0625000
به‌این thus 0.0625000
محدود restricted 0.5000000
فقط restricted 0.1666667
است restricted 0.1666667
میشویم restricted 0.1666667
استیلن Steinlen 0.5000000
استیتلن Steinlen 0.5000000
رنجاندن offend 0.2500000
قصد offend 0.2500000
شما offend 0.2500000
اصلا offend 0.2500000
داشتیم similar 0.5000000
مشابه similar 0.5000000
چندبار lately 0.3333333
ببینیم lately 0.3333333
اخیرا lately 0.3333333
NULL approximately 0.6666667
تقریبا approximately 0.3333333
بداند known 1.0000000
سر consecutive 0.2000000
دو consecutive 0.2000000
متوالی consecutive 0.2000000
هم consecutive 0.2000000
پشت consecutive 0.2000000
ویترشیت Weiterscheit 0.7500000
صحبت‌ Weiterscheit 0.2500000
کنیم combine 0.1818182
بهم combine 0.0454545
را combine 0.1818182
ادغام‌ combine 0.0909091
ادغام combine 0.0909091
بعدی combine 0.0454545
انگاه combine 0.0454545
همراه combine 0.0454545
انرا combine 0.0454545
پیوند combine 0.0454545
بدهیم combine 0.0454545
‌نمیکنیم combine 0.0454545
به combine 0.0454545
کوتاهی combine 0.0454545
هستند Ostermann 0.2500000
استرمن Ostermann 0.5000000
که Ostermann 0.2500000
ملاقات‌هایی finding 1.0000000
تاریخها cooperation 0.2000000
هستم cooperation 0.2000000
همکاری cooperation 0.2000000
در cooperation 0.2000000
همکاریتان cooperation 0.2000000
تابستانی summer 0.8333333
که summer 0.1666667
عصرها evening 0.0135135
دارم evening 0.0135135
NULL evening 0.1486486
‌وقتی evening 0.0135135
پنجشنبه‌ evening 0.0135135
نمی‌توانم‌ evening 0.0135135
غروب evening 0.1216216
عصری evening 0.0270270
. evening 0.0135135
عصر evening 0.4054054
میکنیم evening 0.0135135
خواهد‌بود evening 0.0135135
کرد evening 0.0135135
بعد evening 0.0135135
میافتم evening 0.0135135
گذراند evening 0.0135135
عصر‌ evening 0.0135135
عصر‌بخیر evening 0.0270270
راه evening 0.0135135
اگر evening 0.0135135
میگذاریم evening 0.0135135
ساعت evening 0.0135135
بعدازظهر evening 0.0405405
زمان waste 1.0000000
کنیم stressful 0.1428571
هماهنگ stressful 0.1428571
پیدا stressful 0.1428571
پر stressful 0.1428571
میکنیم stressful 0.1428571
مشکل stressful 0.1428571
استرسی stressful 0.1428571
کنم push 1.0000000
گردان rotating 1.0000000
بایستی additional 0.5000000
دیگری additional 0.5000000
میرسد Wilhelmstra 0.5000000
درویل‌هلمستراسه Wilhelmstra 0.5000000
دست hold 0.0062500
را hold 0.1750000
بگذاریم hold 0.0062500
NULL hold 0.0562500
شدنمان hold 0.0062500
باشیم hold 0.0187500
نگهداریم hold 0.0312500
نگهدارید hold 0.0062500
می hold 0.0062500
برپاکنیم hold 0.0062500
داشته hold 0.0312500
برگزار‌ hold 0.0500000
دوست hold 0.0062500
سمیناراخر hold 0.0062500
میکنیم hold 0.0125000
قرارمان hold 0.0062500
باشم hold 0.0062500
کنید hold 0.0062500
برگزار hold 0.2000000
کنیم hold 0.1937500
صبرکن hold 0.0062500
دست‌کم hold 0.0062500
حالت hold 0.0062500
پیگیری hold 0.0062500
برگزار‌‌ hold 0.0062500
نگهدار hold 0.0062500
طور hold 0.0062500
همسرم hold 0.0062500
صبر hold 0.0125000
‌کنیم hold 0.0250000
بر‌گزار‌ hold 0.0062500
بر‌گزار hold 0.0062500
صحبتی hold 0.0062500
جلسه hold 0.0500000
‌کرد hold 0.0062500
ساختمان building 0.5000000
قدیمی building 0.5000000
NULL twelve 0.0967742
تا twelve 0.0161290
ده twelve 0.0161290
هستم twelve 0.0161290
ساعت twelve 0.0161290
. twelve 0.0161290
دوازده twelve 0.8064516
ام twelve 0.0161290
موقع asleep 0.2500000
در asleep 0.2500000
ان asleep 0.2500000
خواب asleep 0.2500000
دقیق precise 0.5000000
را precise 0.5000000
متقابل visits 0.5000000
بگزارم visits 0.5000000
NULL Sagerer 1.0000000
موقع : 0.0588235
چه : 0.0588235
: : 0.8823529
را same 0.0212766
بطور same 0.0212766
NULL same 0.0212766
همین same 0.1489362
مشابه same 0.0425532
انها same 0.0212766
ترتیب same 0.0212766
چیز same 0.0212766
یک same 0.0212766
همان same 0.1063830
ساعت‌ها same 0.0425532
فرقی same 0.0638298
یکی same 0.0425532
ندارد same 0.0212766
یکسانی same 0.0212766
همینطور same 0.0638298
همزمان same 0.0212766
در‌واقع same 0.0212766
درهمان same 0.0212766
ساعت same 0.0212766
هم same 0.1489362
همانطور same 0.0212766
نمیکند same 0.0425532
خبرنگار reporter 1.0000000
متوالی holding 0.2000000
درباره holding 0.2000000
برگزاری holding 0.6000000
واقع deal 0.2500000
مشکلی deal 0.2500000
معامله deal 0.5000000
NULL named 1.0000000
نقشه city 0.2500000
عاشق city 0.2500000
هستم city 0.2500000
شهر city 0.2500000
استرانسر sner 1.0000000
نیستم free 0.0178838
دارم free 0.0119225
صبح free 0.0014903
, free 0.0014903
کی free 0.0029806
خواهید‌بود free 0.0014903
دارید free 0.0044709
تمام free 0.0014903
زمان free 0.0014903
بیکارم free 0.0029806
خواهید‌‌بود free 0.0014903
هیچ free 0.0014903
ازاد free 0.4366617
ماه free 0.0014903
روز free 0.0029806
ازادخواهم free 0.0014903
تو free 0.0014903
هستید free 0.0149031
پنچ free 0.0014903
ازاد‌بودن free 0.0014903
و free 0.0044709
خواهم‌‌‌بود free 0.0014903
ان free 0.0014903
تنها free 0.0014903
بیکار free 0.0119225
امکانی free 0.0014903
بین free 0.0014903
باشید free 0.0089419
ندارم free 0.0014903
دهم free 0.0014903
نخواهم‌بود free 0.0014903
میتوانید free 0.0014903
هم free 0.0014903
وقتتان free 0.0029806
دوشنبه free 0.0014903
پنجشنبه free 0.0014903
بیست free 0.0044709
خالی free 0.0491803
جولای free 0.0014903
مارس free 0.0014903
نهم free 0.0014903
هستم free 0.1326379
چهارم free 0.0014903
به free 0.0014903
باشم free 0.0044709
عروج free 0.0014903
از free 0.0044709
من free 0.0089419
ازادی free 0.0059613
بود free 0.0014903
حال free 0.0014903
خواهم‌بود free 0.0074516
نسبتا free 0.0014903
NULL free 0.0417288
طول free 0.0014903
وقت free 0.0566319
تا free 0.0059613
خواهم free 0.0029806
ازادم free 0.0014903
سه‌شنبه free 0.0014903
هستی free 0.0074516
. free 0.0014903
دو free 0.0014903
فقط free 0.0014903
امروز free 0.0014903
شما free 0.0014903
راازاد free 0.0014903
وقتم free 0.0774963
یازدهم free 0.0014903
است free 0.0014903
نوامبر free 0.0014903
این person 0.2857143
شخص person 0.1428571
مسیول person 0.2857143
صحبت‌میکنم person 0.1428571
مربوطه person 0.1428571
را personal 0.2500000
بگذاریم personal 0.2500000
, personal 0.2500000
خصوصی personal 0.2500000
همراهی merely 0.3333333
طول merely 0.1666667
NULL merely 0.1666667
میکنم merely 0.1666667
میکشد merely 0.1666667
هستم disposal 0.2500000
اختیار disposal 0.5000000
دسترس disposal 0.2500000
فعالیتی company 0.0909091
شرکت company 0.3636364
NULL company 0.2727273
نیم company 0.0909091
به company 0.0909091
شرکتمان company 0.0909091
هستید towns 0.0714286
NULL towns 0.0714286
دانشگاهی towns 0.2857143
دانشگاههای towns 0.0714286
کرده towns 0.0714286
بروم towns 0.0714286
بودیم towns 0.0714286
به towns 0.2142857
تورشهرهای towns 0.0714286
نزول Whit-Monday 0.2500000
روح Whit-Monday 0.2500000
القدس Whit-Monday 0.2500000
عید Whit-Monday 0.2500000
دارم make 0.0044643
ما make 0.0044643
زمانها make 0.0044643
اینطور make 0.0044643
بگذاریم make 0.0669643
بدهم make 0.0133929
تعیین make 0.0178571
, make 0.0044643
اخر make 0.0044643
ژانویه make 0.0089286
با make 0.0044643
در make 0.0089286
بدهی make 0.0044643
بتوانیم make 0.0089286
‌بگذاریم make 0.0089286
بهتر make 0.0044643
فرق make 0.0044643
ماه make 0.0089286
نخواهد‌داشت make 0.0044643
نه make 0.0044643
بنابراین make 0.0044643
ساعت make 0.0044643
هستید make 0.0044643
میخواهم make 0.0133929
اعتراض make 0.0044643
پیشنهادی‌ make 0.0044643
اوت make 0.0044643
بگداریم make 0.0044643
داشته‌ make 0.0044643
جبران make 0.0044643
اولین make 0.0044643
روزه make 0.0044643
ان make 0.0044643
دهیم make 0.0178571
میخواستم make 0.0044643
برایمان make 0.0044643
بدهید make 0.0178571
یادداشت‌ make 0.0044643
درست make 0.0044643
میخواهید make 0.0044643
شوید make 0.0044643
اینکه make 0.0044643
روزهای make 0.0044643
بیست make 0.0044643
‌دهیم make 0.0044643
دهید make 0.0089286
ریزی make 0.0044643
چه make 0.0044643
بررسی make 0.0044643
شنبه make 0.0044643
موافق make 0.0044643
برداریم make 0.0044643
امتناع make 0.0044643
یک make 0.0044643
کوتاهی make 0.0044643
انموقع make 0.0044643
پیشنهاد make 0.0133929
تلفنی make 0.0044643
از make 0.0089286
قرار make 0.0535714
برنامه‌های make 0.0044643
بگذارم make 0.0401786
ملاقاتی make 0.0044643
چهارشنبه make 0.0044643
یکشنبه make 0.0044643
حتی make 0.0044643
تماس make 0.0044643
انجام make 0.0446429
را make 0.0937500
میگذارم make 0.0044643
NULL make 0.1116071
باشیم make 0.0044643
هجدهم make 0.0044643
نمیتوانیم make 0.0044643
کنم make 0.0044643
دقیقا make 0.0044643
برای make 0.0089286
. make 0.0044643
منرا make 0.0044643
دوست make 0.0044643
که make 0.0044643
پیشنهادی make 0.0312500
معنی make 0.0044643
گرفتم make 0.0044643
بهرحال make 0.0044643
دو make 0.0044643
فقط make 0.0044643
اخرهفته‌های make 0.0044643
شما make 0.0089286
تفاوت make 0.0044643
قبل make 0.0044643
خواهیم make 0.0044643
هشتم make 0.0044643
میتوانم make 0.0178571
براییم make 0.0044643
نمیتوانم make 0.0133929
بدهیم make 0.0089286
است make 0.0044643
کاری make 0.0044643
باید make 0.0044643
مقدمات make 0.0089286
بانش onsch 0.7500000
خانم onsch 0.2500000
سازمان‌ organize 0.5000000
بدهیم organize 0.5000000
هیچ assuming 0.3333333
ندارید assuming 0.3333333
وقتی assuming 0.3333333
تعهدات obligations 0.2500000
تعهدهای obligations 0.2500000
وظایف obligations 0.2500000
ابدا obligations 0.2500000
تجدید‌قوا regeneration 0.5000000
کنم regeneration 0.5000000
باشد big 0.3333333
مشکلی big 0.3333333
کافی big 0.3333333
خودشان themselves 0.5000000
باشند themselves 0.5000000
میشوم happy 0.3333333
خرسند happy 0.3333333
خوشحال happy 0.3333333
انجام workday 0.2500000
‌بدهم workday 0.2500000
ساعات workday 0.2500000
کاراداری workday 0.2500000
دهید allow 0.0666667
را allow 0.2666667
اجازه allow 0.0666667
اختصاص allow 0.1333333
دفعات allow 0.0666667
زیادی allow 0.0666667
اختصاص‌ allow 0.0666667
بپذیریم allow 0.0666667
بدهیم allow 0.0666667
دهیم allow 0.1333333
خودبخود spontaneously 0.1666667
انجام spontaneously 0.1666667
هماهنگی spontaneously 0.1666667
میشود spontaneously 0.1666667
قبلی spontaneously 0.1666667
بدون spontaneously 0.1666667
هیچ nothing 0.2941176
چیزی nothing 0.1176471
خاصی nothing 0.0588235
شده‌ای nothing 0.0588235
بعدی nothing 0.0588235
برنامه‌ای nothing 0.1176471
ندارم nothing 0.0588235
چیز nothing 0.0588235
نیست nothing 0.0588235
امکان‌ nothing 0.0588235
اصلا nothing 0.0588235
مدت hour 0.0454545
NULL hour 0.0909091
باشیم hour 0.0909091
وقت hour 0.0454545
دوساعته hour 0.0454545
, hour 0.0454545
مورد hour 0.0454545
داشته hour 0.0909091
موقع hour 0.0454545
اینصورت hour 0.0454545
محدود hour 0.0454545
ساعت hour 0.3181818
یک hour 0.0454545
اپیفنی Epiphany 1.0000000
NULL K 0.2307692
و K 0.0128205
کوپ K 0.0256410
پی K 0.0128205
کاچ K 0.0128205
کونیگستراسه K 0.0128205
, K 0.0128205
پلکس K 0.0128205
کی K 0.2692308
اقای K 0.0512821
ر K 0.0128205
پیلکس K 0.0128205
کوهن K 0.0256410
من K 0.0128205
کافر K 0.1282051
کاپ K 0.0641026
پلیکس K 0.0256410
میشود K 0.0128205
نوشته K 0.0128205
کیفر-پلکس K 0.0384615
‌کنم table 0.1111111
میز table 0.3333333
رزرو table 0.3333333
خواهد table 0.1111111
‌کرد table 0.1111111
گروه larger 0.5000000
بزرگتری larger 0.5000000
چیزی others 0.0909091
میگویم others 0.0909091
انهای others 0.0909091
گذاشته‌ام others 0.0909091
دیگر others 0.2727273
همراه others 0.0909091
دیگران others 0.0909091
بقیه others 0.0909091
کنید others 0.0909091
اسلاید slide 0.3333333
به slide 0.3333333
کوتاه slide 0.3333333
یکشنبه‌ی that 0.0004764
مناسب that 0.0009528
ما that 0.0009528
سرانجام that 0.0004764
بطوریکه that 0.0038113
زیاد that 0.0004764
دارد that 0.0019057
یعنی that 0.0104812
هست that 0.0014293
میکردیم that 0.0004764
زمان that 0.0004764
خراب that 0.0004764
نوبت that 0.0004764
زمان‌بندی that 0.0004764
نیست that 0.0033349
کاملا that 0.0028585
دراینصورت that 0.0004764
اگر that 0.0004764
امتحان that 0.0004764
انرا that 0.0047642
میشود that 0.0100048
چیست that 0.0057170
درصورتیکه that 0.0004764
بنظر‌ that 0.0004764
امکان‌پذیر that 0.0023821
به‌عبارت‌دیگر that 0.0004764
خاصی that 0.0004764
بنظر that 0.0004764
ان that 0.3268223
صرف that 0.0004764
همان that 0.0080991
دهیم that 0.0061934
خواهد‌بود that 0.0009528
اصلا that 0.0066698
ان‌ that 0.0004764
بر that 0.0004764
نظرم that 0.0004764
جالب that 0.0009528
میخواهید that 0.0004764
‌میکنم that 0.0023821
نباید that 0.0004764
امکان‌‌پذیر that 0.0004764
تاریخش that 0.0004764
بیست that 0.0004764
شنیدم that 0.0004764
جوری that 0.0009528
سریع that 0.0009528
داشتم that 0.0004764
نباشد that 0.0014293
متوجه‌ that 0.0004764
جمعه that 0.0004764
نمیشود that 0.0004764
انها that 0.0014293
بدین that 0.0033349
شدم that 0.0004764
شگفت‌انگیر that 0.0004764
امکان that 0.0004764
برداریم that 0.0009528
به that 0.0028585
ان‌هفته that 0.0004764
در‌نتیجه that 0.0004764
مینویسم that 0.0033349
من that 0.0028585
از that 0.0014293
امکان‌پذیراست that 0.0004764
واقعا that 0.0014293
بری that 0.0004764
انجامش that 0.0023821
منفی that 0.0004764
کار that 0.0014293
حتی that 0.0004764
میرسد that 0.0023821
ویلیام that 0.0004764
همین that 0.0080991
وقت that 0.0004764
ویترشیت that 0.0004764
‌پنج‌روزه that 0.0004764
کارها that 0.0004764
برای that 0.0142925
احتمالا that 0.0004764
همه‌اش that 0.0004764
خودم that 0.0004764
که that 0.1224393
قرارمان that 0.0009528
میتوانیم that 0.0009528
قرارملاقاتمان that 0.0004764
فراموش that 0.0004764
امروز that 0.0004764
برای‌اینکه that 0.0009528
بوده that 0.0004764
موجب that 0.0004764
ون that 0.0004764
موقع that 0.0004764
برویم that 0.0004764
اشکالی‌ that 0.0004764
شدید that 0.0004764
باید that 0.0004764
مواظب that 0.0004764
حیف that 0.0004764
ان‌زمان that 0.0004764
نوشتم that 0.0009528
لطف‌ that 0.0004764
اینطوری that 0.0014293
, that 0.0023821
هربار that 0.0004764
اینگونه that 0.0004764
یا that 0.0004764
الان that 0.0004764
با that 0.0004764
نوشته‌ that 0.0014293
فجیع that 0.0004764
موافقم that 0.0004764
خیلی that 0.0023821
بسیار that 0.0023821
ثبتش that 0.0023821
هیچ that 0.0009528
عبارت that 0.0004764
لنت that 0.0004764
هیج that 0.0004764
لطف that 0.0004764
میتواند that 0.0014293
اگای that 0.0004764
فهمیدم that 0.0004764
بنابراین that 0.0014293
انزمان that 0.0014293
مورد that 0.0004764
فکر that 0.0009528
باز that 0.0009528
ممکن that 0.0009528
غیر that 0.0004764
نمیبینم that 0.0004764
انقدرها that 0.0004764
باشه that 0.0004764
متوجه that 0.0042878
انقدر that 0.0023821
راحتید that 0.0004764
انکه that 0.0009528
ندارید that 0.0009528
این that 0.0848023
شهر that 0.0004764
‌میرسد that 0.0004764
ملاقاتهای that 0.0004764
درست that 0.0033349
کسی that 0.0004764
انهم that 0.0004764
نمیباشد that 0.0009528
میماند that 0.0004764
بعداز‌ان that 0.0004764
یاد‌دارم that 0.0004764
ندارد that 0.0019057
اینهم that 0.0004764
میشوم that 0.0004764
خوب that 0.0019057
هم that 0.0004764
راه‌حل that 0.0004764
باشد that 0.0004764
گفتید that 0.0004764
شدنمان that 0.0004764
مشکلی that 0.0052406
اشکالی that 0.0009528
انروز that 0.0004764
نداریم that 0.0004764
خواهد that 0.0100048
درنتیجه that 0.0014293
بعدازان that 0.0028585
خوشمزه‌ای that 0.0004764
بشود that 0.0009528
جشنهای that 0.0004764
پس that 0.0038113
‌ندارد that 0.0004764
ایا that 0.0014293
نمیدانید that 0.0004764
دراینباره that 0.0004764
شانسی that 0.0004764
NULL that 0.0995712
علامت that 0.0004764
بپیوندم that 0.0004764
بجز that 0.0004764
همگی that 0.0004764
دیگر that 0.0004764
حاضر that 0.0004764
. that 0.0004764
برا that 0.0004764
جاییست that 0.0004764
شایدان that 0.0004764
بله that 0.0023821
بستگی that 0.0004764
میبینید that 0.0004764
است that 0.1090996
ایده that 0.0057170
شد that 0.0028585
NULL Y 0.2631579
وای Y 0.7368421
ای E 0.3184932
NULL E 0.2705479
ایی E 0.3458904
, E 0.0034247
وای E 0.0205479
پ E 0.0034247
ار E 0.0205479
ر E 0.0034247
هجی E 0.0034247
کیو E 0.0034247
ل E 0.0034247
ال E 0.0034247
NULL Berlin 0.0588235
پیدا Berlin 0.0294118
هستم Berlin 0.0294118
برلین Berlin 0.6764706
. Berlin 0.0294118
طرح‌ریزی Berlin 0.0294118
یک Berlin 0.0294118
میخواستم Berlin 0.0294118
میکنیم Berlin 0.0294118
خواهم‌بود Berlin 0.0588235
باشد seminar 0.0181818
ان‌ seminar 0.0181818
میباشند seminar 0.0181818
سمینار seminar 0.8727273
میدهم seminar 0.0181818
سمینار‌هفتگی seminar 0.0181818
سمیناراخر seminar 0.0181818
ترجیح seminar 0.0181818
را choose 0.1304348
کنیم choose 0.0434783
NULL choose 0.0869565
انتخاب choose 0.1739130
کردیم choose 0.0434783
بدهم choose 0.0434783
میتوانی choose 0.0434783
گزینه choose 0.0434783
انتخاب‌ choose 0.1304348
لازم choose 0.0434783
میکنیم choose 0.0434783
بلکه choose 0.0434783
کنید choose 0.1304348
اینکه Whit 0.0588235
عیدگلریزان Whit 0.0588235
سفید Whit 0.0588235
ویت Whit 0.4705882
بیایید Whit 0.0588235
تعطیلاتی Whit 0.0588235
پنجاهه Whit 0.0588235
عید Whit 0.1764706
NULL compromise 1.0000000
ترک leaving 0.5000000
میکنم leaving 0.5000000
داریم agenda 0.1666667
چیزی agenda 0.1666667
چه agenda 0.1666667
دستور agenda 0.1666667
برنامه‌مان agenda 0.1666667
جلسه agenda 0.1666667
اوایل middle 0.1842105
NULL middle 0.0526316
وسط middle 0.1052632
از middle 0.0263158
, middle 0.0263158
اواسط middle 0.4473684
اوسط middle 0.0263158
هفته middle 0.0263158
نیمه middle 0.0526316
است middle 0.0263158
حوش middle 0.0263158
مشغولم occupied 0.0833333
برخی‌اوقات occupied 0.0833333
هستم occupied 0.3333333
اشغال occupied 0.0833333
شده occupied 0.0833333
مشغول occupied 0.3333333
اقای Stober 0.3333333
استوبر Stober 0.6666667
باشد whenever 0.1111111
هر whenever 0.2222222
هرزمان whenever 0.1111111
میتواند whenever 0.1111111
که whenever 0.3333333
زمانی whenever 0.1111111
مبالغه exaggerate 0.3333333
نمیخواهم exaggerate 0.3333333
کنم exaggerate 0.3333333
زدن pavilions 1.0000000
تنگ schedule 0.0163934
برنامه‌زمانی schedule 0.0163934
مطابقت schedule 0.0163934
فشرده‌ای schedule 0.0819672
هفتگی‌ام schedule 0.0163934
‌کنیم schedule 0.0163934
بروزرسانی schedule 0.0163934
روزانه schedule 0.0327869
زمان‌بندی schedule 0.0327869
ماهانه schedule 0.0655738
میاید schedule 0.0819672
برنامه schedule 0.4590164
زمانی schedule 0.0327869
بیاندازم schedule 0.0163934
برنامه‌ام schedule 0.0983607
سالاد salad 1.0000000
برنامه overlapping 0.5000000
مشترکمان overlapping 0.5000000
روزتزینگر Rutzinger 0.5000000
روزینگر Rutzinger 0.5000000
توبینگن applied 0.3333333
زبانشناسی applied 0.3333333
زبان‌شناسی applied 0.3333333
روزها some 0.0083333
برخی some 0.0416667
دارید some 0.0333333
چند some 0.0416667
تفاهم some 0.0083333
بلافاصله some 0.0083333
دیرتر some 0.0083333
در some 0.0166667
یک some 0.2583333
یک‌وقتی some 0.0083333
هیچ some 0.0166667
‌ان some 0.0166667
مقدار some 0.0083333
چندتا some 0.0666667
بعضی some 0.0083333
داشتید some 0.0083333
ملاقاتهایی some 0.0166667
دیدن some 0.0083333
ساعاتی some 0.0083333
واقعیتی some 0.0083333
میگذاریم some 0.0083333
ایا some 0.0083333
تدارکات some 0.0083333
زمانی some 0.0250000
را some 0.0083333
خواهید some 0.0083333
NULL some 0.0833333
گاهی some 0.0083333
خواهم some 0.0250000
احتمالا some 0.0083333
داشتی some 0.0083333
مقداری some 0.0083333
وقتی some 0.0416667
جدید some 0.0083333
بحث some 0.0083333
مدتی some 0.0083333
روزی some 0.0333333
قولهایی some 0.0083333
تاریخهای some 0.0083333
شما some 0.0083333
یک‌ some 0.0250000
موقع some 0.0166667
نیوبرانزویک some 0.0083333
هم some 0.0083333
نظم some 0.0083333
دارم with 0.0026316
ازمایش with 0.0026316
دارد with 0.0026316
چیزخوبی with 0.0026316
شام with 0.0026316
با with 0.3421053
نمیتوانند with 0.0026316
در with 0.0026316
اکتبر with 0.0026316
خراب with 0.0026316
افتخار with 0.0026316
همکاریتان with 0.0026316
قرارملاقات with 0.0026316
برسد with 0.0026316
اگر with 0.0026316
بهمراه with 0.0078947
امتحان with 0.0026316
انزمان with 0.0026316
میبرد with 0.0026316
مساعد with 0.0026316
همراهم with 0.0026316
باهم with 0.0026316
مشابه with 0.0026316
روبراه with 0.0026316
طی with 0.0026316
هفته with 0.0026316
صرف with 0.0026316
میخواستم with 0.0026316
محدودیتهایی with 0.0026316
همراهی with 0.0026316
میکنید with 0.0026316
میماند with 0.0052632
منظور with 0.0026316
اینده with 0.0026316
شوم with 0.0026316
ندهد with 0.0026316
اینکار with 0.0026316
تاریخهایم with 0.0026316
شرکت with 0.0026316
موافق with 0.0026316
یک with 0.0026316
باشم with 0.0026316
من with 0.0026316
? with 0.0026316
همراه with 0.0026316
یادداشتتان with 0.0026316
دردسر with 0.0026316
همراهتان with 0.0026316
را with 0.0026316
NULL with 0.0815789
راضی with 0.0026316
کارها with 0.0026316
برای with 0.3894737
داشته with 0.0026316
جهت with 0.0026316
رفت‌وامد‌های with 0.0026316
یادداشتم with 0.0026316
بهتری with 0.0026316
مشکل with 0.0026316
سفر with 0.0026316
صحبت with 0.0052632
وسواس with 0.0026316
یکی with 0.0026316
متعاقبا with 0.0052632
تجاری with 0.0026316
است with 0.0105263
صحبت partner 0.5000000
NULL partner 0.5000000
اشتباه fault 0.2500000
بربیایم fault 0.2500000
از fault 0.2500000
عهده‌اش fault 0.2500000
خاطر arrangement 0.1000000
قرار arrangement 0.1000000
‌‌‌میکنم arrangement 0.1000000
هفتگی arrangement 0.1000000
ممنونم arrangement 0.1000000
ملاقات arrangement 0.2000000
چیدمان arrangement 0.1000000
به arrangement 0.1000000
قرارملاقات arrangement 0.1000000
چیزی eat 0.1428571
نباید eat 0.1428571
در eat 0.1428571
صرف eat 0.1428571
غذاهای eat 0.1428571
غذا eat 0.1428571
بخورید eat 0.1428571
پیداکردم here 0.0322581
نیستم here 0.0645161
NULL here 0.0322581
, here 0.0322581
با here 0.0322581
نخواهم here 0.0645161
مواجه here 0.0645161
که here 0.0322581
اینجا here 0.4193548
گیر here 0.0322581
اینجاست here 0.0322581
ندرت here 0.0322581
گذاشته here 0.0322581
هستیم here 0.0322581
هم here 0.0322581
خلاصه here 0.0322581
فوق‌العاده‌ای wonderful 0.0450450
میشد wonderful 0.0090090
العاده wonderful 0.0090090
فوق wonderful 0.0090090
عالی wonderful 0.3333333
شگفت‌انگیر wonderful 0.0090090
فوق‌العاده wonderful 0.0990991
شگفت‌انگیز wonderful 0.0270270
است wonderful 0.4234234
خواهد‌بود wonderful 0.0090090
عالیست wonderful 0.0090090
بسیار wonderful 0.0090090
شگفت‌اوری wonderful 0.0090090
علاقه‌مند liked 0.3333333
هستم liked 0.3333333
به liked 0.3333333
شمارشگر counterproposal 0.2500000
هستم counterproposal 0.2500000
شخصی counterproposal 0.2500000
ودر counterproposal 0.2500000
مسیحی All-Saints-Day 0.0588235
تمامی All-Saints-Day 0.1176471
روز All-Saints-Day 0.2352941
کلیه All-Saints-Day 0.0588235
واقع All-Saints-Day 0.0588235
مقدس All-Saints-Day 0.0588235
انچنان All-Saints-Day 0.0588235
مقدسین All-Saints-Day 0.1764706
به All-Saints-Day 0.0588235
قدیسین All-Saints-Day 0.0588235
روزهای All-Saints-Day 0.0588235
میبینم tuition 0.2000000
تدریس tuition 0.8000000
کنیم motor 0.2500000
برنامه‌ریزی motor 0.2500000
نمایش motor 0.2500000
‌موتور motor 0.2500000
ان unpack 0.3333333
مانند unpack 0.3333333
بسته‌بندی unpack 0.3333333
‌دهیم somehow 0.0500000
جوری somehow 0.0500000
صورتی somehow 0.0500000
دادن somehow 0.0500000
NULL somehow 0.0500000
تاحدی somehow 0.0500000
ترتیبش somehow 0.0500000
یکم somehow 0.0500000
هست somehow 0.0500000
حدودی somehow 0.0500000
جای somehow 0.0500000
کاری somehow 0.0500000
نیز somehow 0.0500000
بطریقی somehow 0.3500000
ملی mourning 1.0000000
راه‌ solution 0.2000000
حل solution 0.4000000
راه solution 0.2000000
راه‌حل solution 0.2000000
برای choosing 0.2500000
انتخاب choosing 0.2500000
ازقبل choosing 0.2500000
میدانی choosing 0.2500000
NULL Benz 1.0000000
NULL partly 1.0000000
کنسرتی concert 1.0000000
گمان impression 0.3333333
میکنم impression 0.3333333
گمان‌ impression 0.3333333
ای L 0.0104712
ر L 0.0052356
NULL L 0.2356021
دو L 0.0104712
س L 0.0052356
ال L 0.7172775
لوبک L 0.0157068
درس teach 0.3333333
کند teach 0.3333333
میدهد teach 0.3333333
چیزی real 1.0000000
راه‌اندازی set 0.3333333
برای set 0.3333333
خب set 0.3333333
خود house 0.2500000
دعوت‌ house 0.2500000
خانه house 0.2500000
کنم house 0.2500000
سوبر Sauber 1.0000000
واضح obvious 0.3333333
این obvious 0.1666667
دفعات obvious 0.1666667
که obvious 0.1666667
باید obvious 0.1666667
تیلمن Tillmann 1.0000000
انجام job 0.2000000
شغلت job 0.2000000
میدهی job 0.2000000
که job 0.2000000
چیزهایی job 0.2000000
فلکس Mrs 0.0106383
NULL Mrs 0.0212766
پنج Mrs 0.0106383
, Mrs 0.0212766
ولاک Mrs 0.0106383
روزه Mrs 0.0106383
هستم Mrs 0.0106383
خانم Mrs 0.8723404
ان Mrs 0.0106383
سلام Mrs 0.0106383
ساندیز Mrs 0.0106383
با detail 0.1250000
مورد detail 0.2500000
NULL detail 0.1250000
شویم detail 0.1250000
جزییات detail 0.3750000
کنیم spread 0.1666667
NULL spread 0.0833333
طول spread 0.0833333
روز spread 0.0833333
چند spread 0.0833333
تقسیم spread 0.1666667
با spread 0.0833333
در spread 0.0833333
سپتامبر spread 0.0833333
به spread 0.0833333
بگیریم ahead 0.0909091
نظر ahead 0.0909091
از ahead 0.0909091
پیش ahead 0.0909091
این ahead 0.0909091
در ahead 0.1818182
ترتیب ahead 0.0909091
ان ahead 0.0909091
رو ahead 0.0909091
بعد ahead 0.0909091
روزه‌ها ones 0.1666667
باشند ones 0.1666667
NULL ones 0.1666667
یکروزه ones 0.1666667
جلسات ones 0.3333333
ده ' 0.0058824
مشفول ' 0.0058824
NULL ' 0.0411765
دید ' 0.0058824
ساعت ' 0.9176471
هشت ' 0.0117647
دوازده ' 0.0058824
بعد ' 0.0058824
دارم counting 0.2500000
میکنم counting 0.2500000
. counting 0.2500000
حساب counting 0.2500000
شراب glass 0.0909091
مشروب glass 0.1818182
فراهم glass 0.0909091
صرف glass 0.1818182
بیاوریم glass 0.0909091
لیوان glass 0.3636364
شود given 0.2500000
داده given 0.5000000
به given 0.2500000
دکتر Doctor 1.0000000
کنیم met 0.2000000
NULL met 0.2000000
ملاقات met 0.2000000
جلسه met 0.2000000
داشته‌باشیم met 0.2000000
کجاست yet 0.0416667
NULL yet 0.1250000
هنوز yet 0.4166667
هماهنگ yet 0.0416667
بیکار yet 0.0416667
نشده yet 0.0416667
داریم yet 0.0416667
دیگر yet 0.0416667
ترتیب yet 0.0416667
زمان yet 0.0416667
هم yet 0.0833333
تقاضای yet 0.0416667
تو need 0.0070423
NULL need 0.0422535
پنج need 0.0070423
تمام need 0.0070423
دیگر need 0.0352113
یک need 0.0070423
به need 0.1338028
‌داریم need 0.0070423
من need 0.0070423
نیاز need 0.2394366
احتیاج need 0.0633803
داریم need 0.3169014
میخواهیم need 0.0140845
لازم need 0.0985915
باید need 0.0070423
کافی need 0.0070423
NULL Walberg 0.4347826
من Walberg 0.0434783
والبرگ Walberg 0.3478261
, Walberg 0.0869565
است Walberg 0.0434783
شما Walberg 0.0434783
انجا delicious 0.5000000
شامپاینهای delicious 0.5000000
گفتی persist 0.2000000
روی persist 0.2000000
کنم persist 0.2000000
اصرار persist 0.2000000
پس‌فردا persist 0.2000000
حتما certainly 0.2758621
شدیدا certainly 0.0344828
یکباره certainly 0.0344828
قطعا certainly 0.1724138
عموما certainly 0.0344828
همسرم certainly 0.0344828
مطمینا certainly 0.2413793
کاملا certainly 0.1034483
مشکل certainly 0.0344828
میخواهند certainly 0.0344828
بیستم or 0.0026882
تو or 0.0026882
بیست or 0.0053763
اگوست or 0.0026882
را or 0.0026882
NULL or 0.0403226
و or 0.0510753
تا or 0.0080645
اوت or 0.0026882
یا or 0.8091398
بیایم or 0.0026882
برای or 0.0026882
چهارم or 0.0026882
. or 0.0053763
گرفتید or 0.0026882
عصر or 0.0026882
خیلی or 0.0026882
بسیار or 0.0026882
چهار or 0.0026882
یااینکه or 0.0107527
منزل or 0.0026882
مترقبه or 0.0026882
امروز or 0.0026882
شش or 0.0026882
وگرنه or 0.0080645
داریم or 0.0026882
اینصورت or 0.0026882
کمابیش or 0.0026882
خانه or 0.0026882
نمیتوانم or 0.0026882
روزهای or 0.0026882
ای wonder 0.4285714
در wonder 0.1428571
نمیدانم wonder 0.1428571
چطور wonder 0.1428571
استوکهولم wonder 0.1428571
اوایل could 0.0024752
ما could 0.0049505
راحتی could 0.0024752
, could 0.0024752
میتوان could 0.0049505
بتوانیم could 0.1089109
کاریمان could 0.0024752
میتواند could 0.0049505
نه could 0.0024752
اگر could 0.0024752
پیشنهاد‌میکنید could 0.0024752
مورد could 0.0024752
میتوانست could 0.0024752
فکر could 0.0024752
میشود could 0.0173267
ایجاد could 0.0024752
میتوانستیم could 0.0024752
بیستم could 0.0024752
کرده‌ایم could 0.0024752
شاید could 0.0024752
این could 0.0024752
ملاقات could 0.0024752
نتوانیم could 0.0024752
ششم could 0.0024752
برایمان could 0.0024752
اما could 0.0024752
سعی could 0.0024752
داد could 0.0024752
میتوانی could 0.0049505
لطفا could 0.0024752
توانستیم could 0.0024752
میتواتیم could 0.0024752
میتوانید could 0.0321782
هم could 0.0024752
بطریقی could 0.0024752
بیست could 0.0024752
مدت could 0.0024752
باشد could 0.0024752
نوزدهم could 0.0024752
بفرمایید could 0.0024752
مارس could 0.0024752
بتوانی could 0.0024752
جمعه could 0.0024752
به could 0.0049505
میدهیم could 0.0024752
کنیم could 0.0024752
پیشنهاد could 0.0099010
عصر‌ could 0.0024752
من could 0.0074257
? could 0.0024752
ایا could 0.0198020
نیمتوانستم could 0.0024752
بکنم could 0.0024752
را could 0.0123762
NULL could 0.0668317
نمیتوانیم could 0.0049505
داشته‌باشیم could 0.0024752
احتمالا could 0.0074257
قرارمان could 0.0024752
نمیشدم could 0.0024752
پیشنهادی could 0.0024752
بتوانید could 0.0123762
میتوانیم could 0.4257426
بدهد could 0.0024752
سی‌ام could 0.0024752
شما could 0.0049505
هشتم could 0.0024752
میتوانم could 0.1113861
بتوانم could 0.0074257
اشپزی could 0.0024752
برویم could 0.0024752
مناسب does 0.0366972
اینطور does 0.0091743
دارد does 0.0183486
, does 0.0183486
نباشد does 0.0091743
گفت does 0.0091743
هست does 0.0091743
با does 0.0091743
نکشد does 0.0091743
مهم does 0.0091743
زمان does 0.0091743
نیست does 0.3119266
هیچ does 0.0183486
از does 0.0091743
من does 0.0275229
ایا does 0.1559633
درنمیاید does 0.0091743
NULL does 0.0917431
نمیدهد does 0.0091743
راحتید does 0.0091743
برای does 0.0091743
چه‌هنگام does 0.0091743
ان does 0.0091743
وقتی does 0.0091743
مشکل does 0.0091743
اصلا does 0.0733945
‌میرسد does 0.0091743
مسیله‌ای does 0.0275229
هزینه‌ها does 0.0091743
شما does 0.0091743
همینطور does 0.0091743
ربطی does 0.0091743
نمیتوانم does 0.0091743
مغزم does 0.0091743
فنجان cup 0.8181818
قهوه cup 0.0909091
چای cup 0.0909091
NULL missed 1.0000000
وظایفتان duties 1.0000000
بازی playing 1.0000000
NULL else 0.0689655
من else 0.0344828
فکرکنیم else 0.0344828
هرچیز else 0.0689655
وگرنه else 0.1379310
دیگری else 0.2413793
چه‌چیزی else 0.0344828
دیگر else 0.1379310
اینکه else 0.0344828
چیز else 0.1379310
هفته‌ها else 0.0344828
یک else 0.0344828
میخواهیم networks 0.3333333
شبکه‌های networks 0.3333333
کامپیوتری networks 0.3333333
اگوست ninth 0.0056180
درنظرمیگیریم ninth 0.0056180
NULL ninth 0.0617978
‌نهم ninth 0.0112360
جولای ninth 0.0056180
من ninth 0.0112360
از ninth 0.0056180
, ninth 0.0056180
میماند ninth 0.0056180
جمعه ninth 0.0056180
ونهم ninth 0.0224719
نهم ninth 0.8426966
. ninth 0.0056180
هشت ninth 0.0056180
کاغذهایم collecting 0.5000000
دارم collecting 0.5000000
‌گرفتن whereas 0.1666667
با whereas 0.1666667
اینکه whereas 0.1666667
نظر whereas 0.1666667
نگهداشته whereas 0.1666667
درحالیکه whereas 0.1666667
کنفرانسها lectures 0.3333333
‌کنیم lectures 0.3333333
سخنرانیها lectures 0.3333333
کنیم everything 0.0571429
امشب everything 0.0285714
انجام‌بدهیم everything 0.0285714
انرمان everything 0.0285714
میتواند everything 0.0285714
همه‌چیز everything 0.0857143
هرچیز everything 0.0571429
پس everything 0.0571429
روبراه everything 0.0285714
در everything 0.0285714
چیز everything 0.2285714
همه everything 0.3142857
گذار everything 0.0285714
دو tomorrow 0.0081967
NULL tomorrow 0.0655738
تا tomorrow 0.0081967
فردای tomorrow 0.0163934
یعنی tomorrow 0.0081967
پنجم tomorrow 0.0081967
ان‌وقت tomorrow 0.0081967
واقع tomorrow 0.0163934
برای tomorrow 0.0081967
چگونه tomorrow 0.0081967
. tomorrow 0.0081967
ساعت tomorrow 0.0081967
به tomorrow 0.0081967
فردا tomorrow 0.8114754
بعد tomorrow 0.0081967
برگزار separate 0.3333333
جداازهم separate 0.6666667
خدمت families 0.3333333
خانواده‌هایمان families 0.3333333
باشیم families 0.3333333
را cancel 0.2592593
کنیم cancel 0.0740741
NULL cancel 0.0740741
لغو cancel 0.2962963
کنسل cancel 0.0370370
انرا cancel 0.0370370
کنم cancel 0.1851852
کنید cancel 0.0370370
رسمی official 1.0000000
مدت busy 0.0126582
هستید busy 0.0886076
ازمایش busy 0.0126582
NULL busy 0.0379747
, busy 0.0126582
هستم busy 0.1645570
خیلی busy 0.0126582
نگهدارم busy 0.0126582
سرم busy 0.0759494
ان‌ busy 0.0126582
دوشنبه‌ busy 0.0126582
شلوغ busy 0.1012658
روز busy 0.0126582
درگیر busy 0.0126582
میتوانم busy 0.0126582
گرفتارم busy 0.0126582
خانم busy 0.0126582
گرفتار busy 0.1012658
مشغول busy 0.2531646
خواهم‌بود busy 0.0253165
برای solve 0.5000000
حل solve 0.5000000
راغب NULL 0.0001318
مناسب NULL 0.0069829
تفنگ NULL 0.0001318
هست NULL 0.0011858
ب NULL 0.0011858
پیشنهاد‌ NULL 0.0001318
در NULL 0.0147563
اف NULL 0.0003953
بتوانیم NULL 0.0002635
زمان NULL 0.0034256
روی NULL 0.0001318
همه NULL 0.0002635
نیست NULL 0.0034256
صورت NULL 0.0007905
کاملا NULL 0.0011858
اشرافی NULL 0.0001318
تجربه NULL 0.0001318
بردن NULL 0.0001318
نه NULL 0.0026350
بعضی NULL 0.0002635
میایم NULL 0.0002635
تجارت NULL 0.0001318
داشته‌باشم NULL 0.0001318
میشود NULL 0.0052701
میشویم NULL 0.0001318
بیستم NULL 0.0007905
تو NULL 0.0013175
چی NULL 0.0003953
ممنون NULL 0.0003953
رفت NULL 0.0002635
و NULL 0.0129117
تاریخ NULL 0.0005270
میزنم NULL 0.0001318
ساجرر NULL 0.0002635
تایید NULL 0.0001318
دی NULL 0.0003953
روزه NULL 0.0010540
بگذاز NULL 0.0001318
میکنم NULL 0.0030303
بداند NULL 0.0001318
همان NULL 0.0002635
دهیم NULL 0.0021080
میخواستم NULL 0.0003953
بعد NULL 0.0046113
تعویق NULL 0.0001318
بدهید NULL 0.0005270
بر NULL 0.0002635
نیامیر NULL 0.0001318
مراسم NULL 0.0001318
همدیگر NULL 0.0013175
