taken انداختم 0.2000000
taken رفت 0.0666667
taken و 0.0004560
taken طولانی 0.0416667
taken نمیشود 0.0434783
taken سفرهای 1.0000000
William ویلیام 0.5000000
cinema سینما 0.5000000
serve انجا 0.0172414
luckily خوشبختانه 1.0000000
fourtnightly انجام 0.0054645
fourtnightly این 0.0014430
fourtnightly در 0.0006079
fourtnightly دوهفته‌ای 0.6000000
fourtnightly مذاکرات 0.1428571
fourtnightly دوهفته 0.5000000
fourtnightly داد 0.0526316
breakfast صبحانه‌کاری 0.5000000
breakfast با 0.0022779
breakfast همراه 0.0666667
breakfast میبینم 0.0232558
breakfast دایما 0.5000000
breakfast بدهم 0.0270270
breakfast خودم 0.0344828
breakfast صبحانه 0.9523810
what نظرت 0.0833333
what , 0.0003210
what ژانویه 0.0044053
what ‌کاری 0.3333333
what چیز 0.0263158
what در 0.0024316
what غیرممکن 0.0555556
what نظرتون 1.0000000
what چیزی 0.1304348
what نه 0.0036364
what مورد 0.0434783
what تاریخی 0.0384615
what امسال 0.0526316
what ساعت 0.0011299
what فکر 0.0026316
what چیست 0.0669291
what جلسه 0.0033784
what زمانی 0.0041667
what چطور 0.0580110
what نظر 0.0603015
what چی 0.3888889
what هفته 0.0011820
what حدودا 1.0000000
what راجع 0.0183486
what اسم 0.0034014
what برنامه 0.0145985
what بعد 0.0022173
what چه‌ 0.2000000
what لطفا 0.0303030
what بگویید 0.0625000
what اینکه 0.0204082
what خوب 0.0007710
what منظورتان 0.0666667
what دوشنبه 0.0055710
what نظرتان 0.2333333
what بیست 0.0019286
what چه‌ساعتی 0.3750000
what چه 0.2915254
what نوزدهم 0.0090090
what ساعتی 0.0645161
what امد 0.0588235
what جمعه 0.0029499
what مارس 0.0061350
what اوضاع 0.2000000
what ده 0.0086207
what درباره 0.0454545
what به 0.0041973
what فردا 0.0060241
what ببخشید 0.0192308
what پس 0.0015244
what ? 0.0012903
what NULL 0.0014332
what اول 0.0024938
what چه‌چیزی 0.3333333
what نظری 0.2000000
what انچه 0.3750000
what که 0.0010776
what چیزیست 0.3333333
what ‌ساعتی 0.3333333
what موضوع 0.0322581
what شما 0.0038388
what کدام 0.0434783
what یازدهم 0.0075188
what کاری 0.0125000
what است 0.0006456
what خبر 0.1666667
private مسیله 0.2000000
private درباره 0.0113636
private شخصی 0.2500000
private است 0.0003228
private خصوصی 0.3333333
eighth NULL 0.0014332
eighth همین 0.0058140
eighth تا 0.0010288
eighth , 0.0001605
eighth شاید 0.0039683
eighth . 0.0002798
eighth هشت 0.0291262
eighth صورت 0.0285714
eighth دوازدهم 0.0044053
eighth ‌یکم 0.1666667
eighth از 0.0005790
eighth من 0.0003095
eighth فوریه 0.0040650
eighth نه 0.0036364
eighth هشتم 0.5290102
eighth دهم 0.0050761
eighth است 0.0003228
tonight بقیه‌چیزها 1.0000000
tonight امشب 0.3333333
village المپیک 1.0000000
Beham بهم 0.3333333
Beham صحبت‌ 0.0416667
counted بودم 0.1666667
counted حساب 0.1000000
counted وارونه 0.5000000
counted کرده 0.0714286
experts کارشناسان 1.0000000
sounds میرسد 0.0857143
sounds نظر 0.0251256
sounds به 0.0041973
sounds بنظر 0.0833333
sounds میاید 0.0357143
hello NULL 0.0007644
hello والبرگ 0.0400000
hello , 0.0008026
hello لاجر 0.2500000
hello سلا 1.0000000
hello اقای 0.0173913
hello سلام 0.8702532
hello . 0.0016788
hello نایهمیر 0.1000000
Wednesday نظرتان 0.0166667
Wednesday NULL 0.0008599
Wednesday و 0.0004560
Wednesday تا 0.0020576
Wednesday , 0.0001605
Wednesday چاهرشنبه 0.2000000
Wednesday شدم 0.0222222
Wednesday برای 0.0004869
Wednesday این 0.0014430
Wednesday . 0.0001399
Wednesday که 0.0010776
Wednesday هفتم 0.0056497
Wednesday بعد 0.0044346
Wednesday سیزدهم 0.0049020
Wednesday ازاد 0.0021459
Wednesday کنیم 0.0013643
Wednesday لنت 0.2222222
Wednesday از 0.0005790
Wednesday ماه 0.0040161
Wednesday چهارشنبه‌ای 0.3333333
Wednesday امادگی 0.0625000
Wednesday مورد 0.0108696
Wednesday حرکت 0.1111111
Wednesday چهارشنبه 0.8328446
Wednesday جلسه 0.0033784
Wednesday پنجشنبه 0.0034965
happen اتفاقا 0.3333333
happen باشید 0.0185185
happen غیر‌منتظره‌ای 0.2500000
happen داد 0.0526316
happen رخ 0.1666667
happen هرچیز 0.1666667
again اوایل 0.0136986
again اول 0.0024938
again NULL 0.0009555
again , 0.0001605
again این 0.0014430
again دیگر 0.0062500
again بازهم 0.2727273
again زمان 0.0041152
again نیز 0.0285714
again دهیم 0.0063291
again جیز 1.0000000
again مجدد 1.0000000
again من 0.0003095
again ماه 0.0040161
again دوباره 0.7769231
again روز 0.0015456
again شما 0.0009597
again بودند 0.3333333
again بار 0.1428571
again دوبار 0.1250000
again مجددا 0.3333333
again یکبار 0.0238095
again سپتامبر 0.0074627
again هم 0.0173333
again بعدارظهر 0.1428571
again کنی 0.2000000
again باز 0.4193548
twenty بیست 0.5776278
twenty یعنی 0.0140845
twenty شنبه 0.0048077
twenty , 0.0008026
twenty یا 0.0027855
twenty ‌‌و 0.5000000
twenty ژانویه 0.0044053
twenty می 0.0046296
twenty بیست‌دوم 0.3333333
twenty به 0.0010493
twenty هفتم 0.0112994
twenty ازاد 0.0021459
twenty ‌یکم 0.1666667
twenty من 0.0003095
twenty از 0.0017371
twenty قطعی 0.0357143
twenty یکم 0.0129032
twenty ببینیم 0.0087719
twenty روز 0.0015456
twenty ? 0.0006452
twenty چهارشنبه 0.0029326
twenty فکر 0.0026316
twenty چطور 0.0027624
twenty دوم 0.0099502
twenty بیستم 0.0140187
twenty NULL 0.0041085
twenty اول 0.0024938
twenty و 0.2293662
twenty تا 0.0010288
twenty ولی 0.0285714
twenty این 0.0014430
twenty سه‌شنبه 0.0027027
twenty اولین 0.0086207
twenty ان 0.0007524
twenty میکنم 0.0021834
twenty . 0.0004197
twenty بیست‌ 0.5300000
twenty که 0.0021552
twenty ‌و 0.4566929
twenty معنا 1.0000000
twenty سوم 0.0051546
twenty پنجم 0.0076628
twenty میتوانم 0.0058140
twenty وقتم 0.0055866
twenty هشتم 0.0068259
twenty ‌و‌ 0.4142012
twenty است 0.0003228
twenty هم 0.0013333
twenty نوامبر 0.0071429
practical میشود 0.0031949
practical خیلی 0.0037736
practical بطور‌حتم 1.0000000
practical عملی 0.3333333
matters داشته 0.0082645
matters NULL 0.0000955
matters مسایل 0.1666667
matters باشیم 0.0116279
matters بررسی 0.1666667
matters موضوعات 0.4285714
matters موضوع 0.0322581
employees میتوانند 0.3333333
employees دارند 0.1111111
employees کارمندانی 0.1428571
employees کارکنان 0.2857143
employees کارمندان 0.3333333
employees از 0.0005790
employees بفرستیم 0.3333333
of زدید 1.0000000
of نوامبرچطور 0.3333333
of اگوست 0.2886598
of خاطر 0.1428571
of اغلب 0.2000000
of چه‌عجب 0.2000000
of بسازید 0.5000000
of ژانویه 0.2951542
of تمام 0.0061350
of می 0.2685185
of شورتاید 0.3333333
of در 0.0042553
of بتوانیم 0.0170940
of شانزدهم 0.0040650
of مجموعه 0.4285714
of هفته‌ای 0.0476190
of روز 0.0015456
of هین 1.0000000
of صحبت‌هایمان 0.4000000
of نفر 1.0000000
of شروتاید 0.2500000
of چیست 0.0236220
of دوم 0.0099502
of دوی 0.2142857
of تعطیلات‌اخرهفته 0.2222222
of بیستم 0.0046729
of فنجان 0.3846154
of روزاتحاد 0.2500000
of ازاد‌بودن 0.1666667
of و 0.0031920
of عنوان 0.1000000
of تکه 0.2000000
of هردوی 0.2500000
of پایان 0.0217391
of ملی 0.1666667
of طبیعتا 1.0000000
of موارد 0.5000000
of همان 0.0161290
of اصلا 0.0072993
of هنوز 0.0061728
of فوریه 0.3130081
of سوم 0.0051546
of وحدت‌المان 0.3333333
of خوشم 1.0000000
of گسترش 0.2500000
of سپتامبر 0.3134328
of دوشنبه 0.0027855
of بیست 0.0057859
of اتحاد 0.2857143
of بطور 0.0400000
of نوزدهم 0.0045045
of اخر‌ 0.3333333
of دنیای 0.1666667
of زیادی 0.1551724
of موافق 0.0303030
of درباره 0.0738636
of فکرش 0.2500000
of یک 0.0010299
of به 0.0073452
of باره‌ 0.3333333
of من 0.0009285
of از 0.0341633
of ? 0.0012903
of کار 0.0098039
of عمومی 0.0625000
of یکشنبه 0.0042918
of تماس 0.0235294
of اول 0.0099751
of داشتن 0.5000000
of هجدهم 0.0071429
of وقت 0.0034364
of دلیل 0.1818182
of المان 0.0625000
of برای 0.0009737
of نظری 0.0400000
of که 0.0010776
of سیزدهم 0.0049020
of ‌و 0.0078740
of مارچ 0.5000000
of تاسف 0.1666667
of سومین 0.1000000
of اغاز 0.0434783
of پنجم 0.0038314
of قبل 0.0051546
of وقتم 0.0055866
of میتوانم 0.0058140
of بیندازیم 0.0322581
of دسامبر 0.3354430
of کاری 0.0062500
of خلاص 0.2500000
of نوامبر 0.2714286
of مقدمات 0.0769231
of اوایل 0.0273973
of دارم 0.0018051
of اغار 0.1666667
of , 0.0006421
of دارید 0.0049020
of ژوین 0.2311558
of وقفه 0.5000000
of یا 0.0055710
of اوپرمن 0.2000000
of منحصرا 0.5000000
of بلوک 0.1818182
of بازدیدکننده 0.3333333
of اکتبر 0.3399015
of طولانی 0.0416667
of خیلی 0.0037736
of باقیمانده 0.2000000
of قهوه 0.0434783
of شراب 0.5000000
of استراحت 0.1250000
of لطف 0.1538462
of ماه 0.0682731
of اواسط 0.0208333
of مشروب 0.2857143
of مورد 0.0434783
of یکسانی 0.5000000
of اطلاعات 0.2500000
of داشت 0.0117647
of ساعت 0.0011299
of رو 0.2500000
of چطور 0.0055249
of ایجاد 0.1428571
of هستید 0.0161290
of بصورت 0.3333333
of نظر 0.0100503
of فکرم 0.3333333
of اوت 0.2809917
of البته 0.4067797
of این 0.0057720
of هفته 0.0177305
of شهر 0.1470588
of بقیه 0.0555556
of یادداشت‌ 0.0909091
of فشار 0.1428571
of اما 0.0031056
of دوازدهم 0.0044053
of میکردم 0.2142857
of یادداشتی 0.2500000
of فکرکنیم 0.2500000
of برنداشته‌اید 0.2500000
of اواخر 0.0400000
of بین 0.0222222
of خوب 0.0007710
of کمبود 1.0000000
of دوره 0.0967742
of گفتید 0.0158730
of خارج 0.0263158
of روزها 0.0754717
of ابتدای‌ 0.2000000
of جولای 0.3521127
of شنبه 0.0048077
of مارس 0.2699387
of خبر‌داشتید 0.5000000
of گزینه 0.0909091
of جای 0.1111111
of ماهانه 0.1666667
of هفتم 0.0112994
of کنیم 0.0013643
of وقفه‌ای 0.5000000
of موردش 0.3333333
of قسمتی 0.2000000
of متوالی 0.2500000
of بیایند 0.2500000
of ایامثل 1.0000000
of پس 0.0015244
of بسیاری 0.1000000
of فعال 0.2500000
of بهار 0.4285714
of حرکت 0.1111111
of چهارشنبه 0.0029326
of بخاطر 0.3333333
of را 0.0011594
of درس 0.1428571
of NULL 0.0161475
of ابتدای 0.0303030
of تا 0.0092593
of خواهم 0.0023753
of ژوییه 0.3362832
of زنگ 0.0588235
of نیایش 0.5000000
of اوریل 0.3057325
of حاضر 0.0526316
of سال 0.1111111
of . 0.0012591
of سری 0.0714286
of دعا 0.5000000
of کاغذم 0.3333333
of بله 0.0013736
of اخرهفته‌های 0.2500000
of کدام 0.0869565
of یازدهم 0.0075188
of قررار 0.5000000
of میبینید 0.0909091
of هفدهم 0.0055249
of ‌و‌ 0.0118343
of است 0.0003228
trust ‌دارم 0.3333333
trust اطمینان 0.1666667
relevant مربوط 0.0555556
relevant موضوعات 0.1428571
relevant به 0.0010493
X-Ray ایکس 0.1250000
X-Ray اشعه 1.0000000
still را 0.0005797
still خارج 0.0526316
still NULL 0.0007644
still و 0.0004560
still ذهن 0.2500000
still راضی 0.1428571
still الن 0.2500000
still احتمالا 0.0101010
still ثابت 0.0270270
still بازهم 0.3181818
still چهارم 0.0025907
still پنجاهه 0.3333333
still کنگره‌ای 0.0454545
still چیزی 0.0217391
still ازاد 0.0085837
still همچنان 0.6250000
still هنوز 0.7037037
still بابت 0.1250000
still امکانپذیر 0.0526316
still بیکار 0.0555556
still توجه 0.0666667
still متشکر 0.1111111
still دسترس 0.0250000
still هم 0.0333333
still رو 0.2500000
still نوامبر 0.0035714
still باز 0.0322581
still باید 0.0040323
previous گذشته 0.1111111
smoothly بگزرد 1.0000000
smoothly پیش 0.0357143
smoothly میرود 0.2500000
smoothly ارامی 0.6000000
recapulate بازگو 0.5000000
recapulate قرار 0.0021142
recapulate میخواهید 0.0204082
recapulate کنید 0.0138889
misunderstanding باشد 0.0027778
misunderstanding امده 1.0000000
misunderstanding پیش 0.0357143
misunderstanding . 0.0001399
misunderstanding سو‌تفاهم 1.0000000
will رفته‌ام 0.2000000
will نیستم 0.0909091
will ما 0.0012626
will دارد 0.0070922
will برمیگردم 0.1666667
will میرسم 0.2500000
will ‌میکنیم 0.2727273
will در 0.0018237
will زمان 0.0041152
will نوبت 0.1666667
will نیست 0.0139165
will فرق 0.0909091
will نمیرسیم 0.2500000
will نه 0.0036364
will روز 0.0015456
will اگر 0.0035336
will میایم 0.2000000
will اتاق 0.2500000
will میشود 0.0031949
will و 0.0004560
will قرارملاقات‌ها 0.5000000
will میرویم 0.1363636
will برخواهم 0.3333333
will بر‌میداریم 0.5000000
will پایان 0.0217391
will میکنم 0.0065502
will ان 0.0112867
will خواهد‌بود 0.0975610
will سرم 0.0588235
will کنگره‌ای 0.0454545
will نخواهد‌بود 0.3000000
will سعی 0.0833333
will هنوز 0.0061728
will جداگانه 0.1666667
will همدیگر 0.0233918
will نخواهیم 0.1666667
will میتوانید 0.0400000
will شوم 0.1250000
will کافیست 0.5000000
will سریع 0.1250000
will میترسم 0.0312500
will چشم‌انتظار 0.5000000
will موفقیت 0.2000000
will نمیشود 0.0869565
will ده 0.0172414
will یادداشت 0.0925926
will چهارم 0.0025907
will هر 0.0096154
will مفصل 0.2500000
will یک 0.0010299
will به 0.0062959
will دوهفته 0.2500000
will میکنیم 0.1538462
will میدهیم 0.0588235
will کرد 0.3600000
will خواهد‌ 0.5000000
will انموقع 0.0190476
will مینویسم 0.2424242
will من 0.0012380
will ‌میدهیم 0.5000000
will از 0.0046323
will تکالیف 0.5000000
will تماس‌ 0.2500000
will ازادی 0.1111111
will بود 0.0021834
will میگذارم 0.1666667
will همین 0.0116279
will وقت 0.0017182
will صحبت‌ها 0.5000000
will برای 0.0004869
will بازهم 0.0454545
will بفهمیم 0.1111111
will خواهی 0.1111111
will یقینا 0.2000000
will میروم 0.2307692
will که 0.0010776
will افرادم 0.5000000
will برخواهیم 0.2000000
will عجله 0.2000000
will میتوانیم 0.0018416
will روزی 0.0147059
will میکشد 0.1851852
will پنجم 0.0038314
will خواهیم‌بود 0.2500000
will هشتم 0.0034130
will کردن 0.0416667
will بزودی 0.2500000
will وقتم 0.0223464
will خواهیم 0.4400000
will موقع 0.0714286
will گرفت 0.1428571
will دسترس 0.0250000
will خلاص 0.2500000
will مشغول 0.1568627
will کافی 0.1076923
will باید 0.0067204
will هتم 0.5000000
will میشوند 0.3333333
will بر‌خواهم 0.5000000
will میبینم 0.1627907
will , 0.0001605
will بگیرید 0.2000000
will شده‌اند 0.1666667
will کرده‌ام 0.0384615
will میگردم 0.2500000
will با 0.0045558
will کلوگن 0.1250000
will نکشد 0.1333333
will براستی 1.0000000
will ترک 0.1000000
will میز 0.1428571
will سه 0.0070922
will بدینگونه 0.2000000
will بخوریم 0.0666667
will نخواهد‌داشت 0.2000000
will فهمیدم 0.0250000
will همسرم 0.1666667
will میگذاریم 0.1000000
will ماصرفا 1.0000000
will داشت 0.0941176
will ساعت 0.0011299
will هفته‌ها 0.0909091
will این‌بار 0.1666667
will ببینید 0.3333333
will رانندگی 0.2500000
will خواهید 0.2000000
will راینلند 0.1666667
will البته 0.0169492
will نخواهد 0.1860465
will این 0.0028860
will چهارشنبه‌هایی 0.3333333
will رسیدن 0.3333333
will برمیگردیم 0.1428571
will شهر 0.0294118
will ریتم 0.1428571
will یادداشت‌ 0.0909091
will بحث 0.0833333
will اسلایدها 0.2000000
will داد 0.0526316
will ندارد 0.0357143
will میشوم 0.0555556
will اینهم 0.2500000
will میگیرم 0.0833333
will گرفتارم 0.2500000
will ندارم 0.0122324
will نخواهم‌بود 0.2500000
will هم 0.0026667
will بطریقی 0.0714286
will ‌کرد 0.1666667
will قطار 0.1666667
will باشد 0.0027778
will عصبانی 0.2500000
will خارج 0.0263158
will روزها 0.0188679
will جزییات 0.0625000
will اینکار 0.2000000
will نهم 0.0057803
will شرکت 0.0952381
will هستم 0.0136674
will نخواهم 0.3333333
will مرخصی 0.2000000
will امکان‌ 0.2500000
will خواهد 0.0313316
will سازمان‌دهی 0.5000000
will سخت 0.0434783
will میرسیم 0.1428571
will بشود 0.1904762
will خواهند 0.2222222
will پس 0.0030488
will گلف 0.5000000
will بزنم 0.1428571
will تعهداتت 0.3333333
will ایا 0.0151515
will چهارشنبه 0.0029326
will خواهم‌بود 0.1500000
will جز 0.1428571
will را 0.0017391
will طول 0.0078740
will NULL 0.0147143
will تا 0.0010288
will خواهم 0.3087886
will ان‌را 0.2000000
will حسابی 0.2500000
will پیدا‌کردن 0.3333333
will مسیله‌ساز 0.2500000
will نمیکشد 0.2500000
will میچسبیم 0.5000000
will مقداری 0.2500000
will فصل 0.2500000
will . 0.0002798
will میبینیم 0.0769231
will تعطیل 0.0588235
will امیدواریم 0.1428571
will نداشته 0.1111111
will بسادگی 0.0833333
will کاغذم 0.3333333
will به‌موقع 0.5000000
will نباشم 0.3333333
will ناامید 1.0000000
will اخرهفته‌های 0.2500000
will شما 0.0009597
will دورم 0.5000000
will یازدهم 0.0075188
will هفدهم 0.0055249
will نمیتوانم 0.0468750
will خواهیم‌کرد 0.1666667
will منشی 0.0526316
will شد 0.0108696
will نظم 0.2000000
fatter این 0.0014430
fatter چاق 0.5000000
fatter زمان 0.0041152
fatter شوم 0.1250000
fatter میشود 0.0031949
fatter شما 0.0009597
fatter اگر 0.0035336
fatter باعث 0.1111111
platform سکوی 1.0000000
much مدت 0.0200000
much طول 0.0078740
much NULL 0.0004777
much ممنون 0.0714286
much زیاد 0.2142857
much انقدر 0.1250000
much بوجود 0.3333333
much نکشد 0.0666667
much هستم 0.0045558
much زیادی 0.2068966
much مال 0.1666667
much فکرش 0.2500000
much که 0.0010776
much خیلی 0.0113208
much بیشتری 0.0769231
much کلی 0.0769231
much تشکر 0.1666667
much فشار 0.1428571
much ترجیح‌ 0.0555556
much فرق 0.1818182
much سپاسگزارم 0.1111111
much از 0.0046323
much حد 0.1666667
much متشکرم 0.0683230
much درمیان 0.3333333
much ‌میکنم 0.0217391
much چقدر 0.1363636
much ندارم 0.0030581
much داشت 0.0117647
much افزایش 0.5000000
much تمایل 0.1000000
much اسانتر 0.1666667
interview مصاحبه 0.3333333
halves اواسط 0.0208333
neither خواهید 0.0400000
neither ندارم 0.0030581
neither نکرده‌ام 0.1250000
neither هم 0.0013333
settling های 0.0833333
settling حل 0.1666667
settling فصل 0.2500000
settling و 0.0004560
settling پرسش 1.0000000
mensa منسا 0.2000000
mensa داشته 0.0082645
mensa باشیم 0.0116279
mensa ملاقاتی 0.0175439
mensa همین 0.0058140
mensa الان 0.0084746
going باشد 0.0055556
going شنیده‌ام 0.1250000
going مطمینم 0.1428571
going گردش 0.0833333
going میرود 0.2500000
going دارد 0.0070922
going درسدن 0.1000000
going قرار‌است 0.2142857
going می 0.0046296
going مقدس 0.0666667
going با 0.0022779
going خوریم 0.2000000
going به 0.0041973
going گذار 0.2500000
going سخت 0.0434783
going رفتن 0.0833333
going ترک 0.1000000
going قرار 0.0021142
going میشود 0.0031949
going NULL 0.0011466
going توافق‌ 0.0714286
going بکشد 0.0909091
going ساز 0.1666667
going میکنم 0.0021834
going مشکل 0.0442478
going چهارتایی 0.2000000
going انجاییکه 0.0384615
going دلپذیری 0.2000000
going همراهی 0.2222222
going بر 0.0434783
going جالب 0.1111111
going مطمینا 0.0666667
going مسافرت 0.0416667
going برویم 0.0133333
going نتیجه 0.1111111
firm دارم 0.0018051
firm مشاوره 0.2000000
part بخش 0.5000000
part قسمتی 0.2000000
part ینصورت 0.5000000
part شد 0.0108696
superbly دفتر 0.0208333
superbly به 0.0010493
superbly فوق‌العاده‌ 0.3333333
superbly طرز 0.1428571
superbly مناسبی 0.0769231
hairdresser NULL 0.0000955
board مدیریتی 1.0000000
board هییت‌ 0.2500000
board هییت 0.1666667
board مدیره 0.5000000
beforehand قبل 0.0051546
beforehand داشته 0.0082645
beforehand ‌باشیم 0.2000000
beforehand از 0.0005790
beforehand پیشاپیش 0.0250000
beforehand تنظیم‌ 1.0000000
beforehand طرح‌ریزی‌ 0.1428571
beforehand کنید 0.0138889
beforehand نگهدارید 0.1666667
zur زور 0.5000000
zur پست 1.0000000
's دکتر 0.0666667
's امسال 0.0526316
's NULL 0.0003822
's از 0.0005790
's پدرم 0.1666667
's چهارشنبه 0.0029326
's فورت 0.2500000
's دانش 0.3333333
can بگذرانند 0.1666667
can ‌کنند 0.3333333
can وجودان 0.5000000
can ‌کاری 0.3333333
can نمیشود 0.0434783
can اطمینان 0.1666667
can میتوانند 0.3333333
can اختیار 0.0909091
can گزینه 0.0909091
can بتوانیم 0.0854701
can به 0.0010493
can کوتاهی 0.0526316
can منتهای‌مراتب 0.2500000
can من 0.0003095
can از 0.0005790
can بازبینی 0.2000000
can میتواند 0.0571429
can حل‌و‌فصل 0.5000000
can دوری 0.2500000
can بتواند 0.5000000
can ایا 0.0121212
can زمانی 0.0041667
can توانم 0.3333333
can را 0.0069565
can تریب 0.5000000
can ببینم 0.0161290
can NULL 0.0021976
can و 0.0004560
can بنویسید 0.2500000
can همین 0.0116279
can وقت 0.0017182
can تا 0.0010288
can فکرم 0.3333333
can نمیتوانیم 0.1739130
can سه‌شنبه 0.0027027
can هفته 0.0011820
can ملاقات 0.0026110
can . 0.0001399
can که 0.0021552
can دهیم 0.0063291
can کمکی 0.2500000
can بتوانید 0.1111111
can اجتناب 0.2222222
can صرف‌نظر 0.2500000
can میتوانیم 0.2173112
can هماهنگ 0.0178571
can همدیگر 0.0058480
can میشنوم 0.3333333
can میتوانی 0.2777778
can راحت 0.0833333
can هشتم 0.0034130
can میتوانم 0.0930233
can بتوانم 0.1500000
can انجا 0.0172414
can نمیتوانم 0.1250000
can نشود 0.1428571
can میتوانید 0.1200000
can خوابید 0.2000000
can چاره‌ای 0.2500000
where کجاست 0.4285714
where را 0.0005797
where کجا 0.7777778
where شما 0.0009597
where رستورانی 0.2000000
where ? 0.0006452
where بازهم 0.0454545
where ان‌موقع 0.0142857
where که 0.0021552
where جاییکه 0.2857143
HansTillmann تیلمن 0.5000000
etcetera وغیره 1.0000000
Oppenrieder هستم 0.0022779
Oppenrieder اوپنیدر 0.5000000
flight پرواز 0.5000000
flight میگویم 0.0050761
flight که 0.0010776
doctor دکتر 0.0666667
doctor دارم 0.0018051
doctor وقت 0.0017182
settle کنیم 0.0054570
settle بمانیم 0.0909091
settle تعیین 0.0252101
settle بعدش 0.5000000
settle حل‌و‌فصل 0.5000000
settle ‌برسیم 0.3333333
settle ‌نتیجه‌ای 0.5000000
settle انرا 0.0259740
settle همه 0.0129870
wait منتظر 0.0188679
wait NULL 0.0001911
wait صبرکن 0.3333333
wait صبر‌ 1.0000000
wait , 0.0001605
wait ‌کنید 0.6363636
wait صبر 0.4736842
wait یک 0.0010299
wait کنید 0.1944444
ai NULL 0.0000955
ubeck NULL 0.0000955
ubeck خواهم‌بود 0.0250000
ubeck لوبک 0.0769231
seeing ببینم 0.0161290
seeing منتظر 0.0377358
seeing دیدار 0.0196078
seeing بیمه 0.5000000
seeing هستم 0.0022779
seeing درجلسه 0.5000000
seeing کاربردی 0.2500000
seeing معماری 1.0000000
left بگذاریم 0.0084034
left باقی 0.1666667
left مذاکره 0.1428571
left به‌سادگی 0.5000000
left میماند 0.2608696
left سرجاش 1.0000000
left نهم 0.0057803
left برای 0.0004869
left باقی‌ 1.0000000
left بماند 0.2500000
network شبکه 0.5000000
network قرار 0.0021142
experiment ازمایش 0.2000000
experiment هستم 0.0022779
experiment مهم 0.0285714
experiment بسیار 0.0037175
dates قراری 0.0222222
dates تعیین 0.0084034
dates , 0.0001605
dates شده‌اند 0.1666667
dates واگذار 0.2500000
dates ملاقات‌هایی 0.2500000
dates تاریخهایم 0.2500000
dates تاریخها 0.4615385
dates ملاقات‌ها 0.5882353
dates در 0.0006079
dates تاریخهایی 0.5000000
dates از 0.0005790
dates قرار 0.0993658
dates تمامی 0.2500000
dates روز 0.0061824
dates ملاقاتهایی 0.1111111
dates پیش 0.0714286
dates تاریخی 0.0384615
dates های 0.0833333
dates قرارها 0.3750000
dates را 0.0057971
dates قرارهایی 0.4285714
dates وعده 0.1250000
dates NULL 0.0006688
dates تاریخ 0.1083333
dates زمانهایی 0.0625000
dates تا 0.0010288
dates کردیم 0.0204082
dates داشته‌اید 0.2000000
dates ملاقات‌های 0.2000000
dates دیگر 0.0062500
dates ندهیم 0.1666667
dates ملاقات 0.0443864
dates . 0.0001399
dates که 0.0010776
dates بدون 0.1000000
dates روزی 0.0147059
dates قرار‌ها 1.0000000
dates جداگانه 0.1666667
dates تاریخهای 0.3333333
dates تاریخ‌ها 0.2500000
dates قرارهای 0.2400000
dates ان‌هنگام 0.1111111
dates باید 0.0026882
bit ازاردهنده 0.2500000
bit NULL 0.0002866
bit راحتر 0.1428571
bit حضرت 0.3333333
bit نفهمیدم 0.3333333
bit کمی 0.3435115
bit . 0.0001399
bit رسیدیم 0.0909091
bit توافق 0.0166667
bit خرده 0.2500000
bit فشرده 0.0645161
bit بیشتری 0.0384615
fact درواقع 0.2105263
fact NULL 0.0001911
fact در‌نظر‌گرفتن 1.0000000
fact در‌حقیقت 0.2222222
fact واقع 0.5800000
fact در‌واقع 0.2307692
fact همان 0.0161290
fact به 0.0010493
fact حقیقت 0.6071429
Cologne میزنید 1.0000000
Cologne NULL 0.0004777
Cologne کلن 0.2500000
Cologne بروم 0.0740741
Cologne زنگ 0.0588235
Cologne کلوگن 0.6250000
Cologne هستم 0.0068337
Cologne کلانژ 0.9333333
Cologne کلون 0.5000000
Cologne کولون 1.0000000
Cologne به 0.0010493
Cologne بقیه 0.0555556
Cologne شهر 0.0294118
Cologne کلنی 1.0000000
lots زیادی 0.0344828
Mondays دوشنبه‌ها 0.5714286
Mondays دارم 0.0018051
Mondays دوشنبه 0.0334262
seen میرسد 0.0285714
seen نظر 0.0050251
seen متوجه 0.0153846
seen دیدیم 0.2000000
seen قبل 0.0051546
seen شدم 0.0222222
seen کمی 0.0076336
seen که 0.0010776
future سفری 0.0833333
future نیاز 0.0277778
future نزدیک 0.0869565
address را 0.0005797
address ادرس 0.3333333
address مگر 0.0136986
address دارید 0.0049020
Walter والتر 1.0000000
teacher درخواست 0.1666667
teacher معلم 1.0000000
teacher بخواهید 0.1666667
teacher کنم 0.0042373
teacher بیاید 0.1666667
cause موجب 0.5000000
cause پیش 0.0357143
cause امدن 1.0000000
cause شبیه 0.2500000
cause مشکلاتی 0.3333333
cause مسیله 0.2000000
cause چندتا 0.0714286
cause انهایی 1.0000000
cause باعث 0.1111111
quite هیجانزده 0.5000000
quite تعداد 0.2000000
quite مناسب 0.0050761
quite NULL 0.0002866
quite باندزبان 0.3333333
quite با 0.0022779
quite زیادی 0.0689655
quite میروم 0.0769231
quite مهم 0.0571429
quite یقینا 0.1000000
quite قرارملاقاتهای 0.3333333
quite تقریبا 0.0740741
quite دوست 0.0135135
quite مشکل 0.0088496
quite کاملا 0.3586207
quite خیلی 0.0301887
quite بسیار 0.0074349
quite نشدم 0.1000000
quite پیچیده 0.3333333
quite هماهنگ 0.0178571
quite بی‌موقع 0.2500000
quite فوریه 0.0040650
quite واقعا 0.0227273
quite کامل 0.0769231
quite جور 0.0416667
quite هم 0.0013333
quite دلچسب 0.1428571
quite درنمیاید 0.3333333
quite یکشنبه‌های 0.5000000
knows میداند 0.5000000
upon بیست 0.0009643
upon تعهداتی 0.1428571
upon دو 0.0032895
upon بر 0.1304348
upon برسر 1.0000000
upon برسیم 0.1000000
upon ‌نتیجه‌ای 0.5000000
upon میتوانید 0.0200000
upon ساعت 0.0011299
upon روی 0.1315789
upon به 0.0020986
upon توافق 0.0333333
very انتهای 0.2000000
very تنگ 0.3333333
very لطف‌ 0.1666667
very دارید 0.0049020
very ژانویه 0.0044053
very در 0.0006079
very به 0.0010493
very خیلی 0.2150943
very بسیار 0.1338290
very واقعی 0.3333333
very لطف 0.0769231
very متشکرم 0.0062112
very خیلی‌خوب 0.2000000
very اگر 0.0035336
very ? 0.0006452
very عضو 1.0000000
very خوبی 0.0380952
very راپیشنهاد 0.5000000
very میرسد 0.0285714
very قابلیتهای 0.3333333
very NULL 0.0009555
very ممنون 0.0357143
very حسابی 0.2500000
very کازینو 0.3333333
very که 0.0010776
very اصلا 0.0145985
very باشی 0.1428571
very شما 0.0009597
very زودتر 0.0200000
very راحت 0.0833333
very ایتدا 0.5000000
very محدوداست 0.3333333
very است 0.0006456
very مشغول 0.0196078
very ایده 0.0163934
very علاقمند 0.2500000
only بیست 0.0009643
only دارم 0.0036101
only ژانویه 0.0044053
only نکشد 0.0666667
only خواهد 0.0052219
only هفتم 0.0056497
only فقظ 1.0000000
only من 0.0009285
only از 0.0011581
only بگیرد 0.2500000
only ساعت 0.0011299
only یکشنبه 0.0042918
only NULL 0.0012421
only همین 0.0058140
only وقت 0.0051546
only نیازمندیم 1.0000000
only کوتاه 0.0384615
only البته 0.0169492
only احتمالا 0.0202020
only درعوض 0.3333333
only این 0.0014430
only که 0.0010776
only محدودیتهایی 0.3333333
only بعد 0.0022173
only تنها 0.6442308
only فقط 0.6010929
only سی‌ام 0.0104167
only خواهم‌ 0.1428571
only فوریه 0.0040650
only قبل 0.0051546
only وقتم 0.0111732
only کمی 0.0076336
only روزهای 0.0088496
only پنجشنبه 0.0034965
A- تو 0.0069930
A- ازاد 0.0021459
A- NULL 0.0013377
A- صبح 0.1126761
A- تا 0.0010288
A- نه 0.0036364
A- بین 0.0111111
A- قبل‌ازظهر 0.2380952
A- ده 0.0258621
A- یادداشت 0.0185185
A- زمان 0.0041152
A- ساعت 0.0011299
A- بعدازظهر 0.0027473
A- دوازده 0.0147059
A- دوم 0.0049751
A- قبل‌از 0.5000000
me دارم 0.0018051
me مناسب 0.0063452
me , 0.0008026
me یا 0.0027855
me تذکر 0.2500000
me میتوان 0.0833333
me زمان 0.0041152
me بگذار 0.1333333
me نیست 0.0019881
me معرفی 0.0476190
me بهتر 0.0067114
me لنت 0.1111111
me ماه 0.0080321
me اگر 0.0035336
me نه 0.0072727
me شروتاید 0.2500000
me همراهم 0.1818182
me گوش 0.1666667
me باز 0.0645161
me بیستم 0.0093458
me ‌کنم 0.0666667
me میپذیرم 0.1666667
me بگذارید 0.0046729
me این 0.0057720
me ملاقات 0.0026110
me هجی 0.1500000
me دچار 1.0000000
me بدهید 0.1048387
me هجی‌اش 0.1666667
me دوازدهم 0.0088106
me هماهنگ 0.0178571
me بنظرم 0.2500000
me میخواهید 0.0408163
me میماند 0.0434783
me اینکه 0.0204082
me بگویید 0.0625000
me خوب 0.0015420
me سپتامبر 0.0074627
me هم 0.0080000
me میاید 0.0357143
me دهید 0.0172414
me بیست 0.0028930
me مرا 0.4285714
me بفرمایید 0.2000000
me مارس 0.0061350
me نهم 0.0057803
me امکان 0.0111111
me یک 0.0010299
me بیندازم 0.1538462
me بخشید 0.5000000
me اجازه 0.0717131
me من 0.2376973
me یکم 0.0064516
me واقعا 0.0075758
me توجه 0.0666667
me ببخشید 0.1923077
me ? 0.0006452
me هفت 0.0188679
me موردی 0.1666667
me چهارشنبه 0.0029326
me ببینم 0.2096774
me را 0.0011594
me خودتان 0.1666667
me اول 0.0024938
me NULL 0.0053507
me بده 0.2000000
me تا 0.0020576
me ا 0.0068966
me سه‌شنبه 0.0027027
me برای 0.0038948
me خودم 0.0689655
me . 0.0009793
me مشکل 0.0088496
me روزی 0.0147059
me فقط 0.0054645
me طرز 0.1428571
me شما 0.0019194
me نمیتوانم 0.0312500
me ‌و‌ 0.0118343
me است 0.0009684
me شد 0.0108696
Gottschalk هستم 0.0022779
Gottschalk گوتشاک 1.0000000
Bielefeld میبینمت 0.0526316
Bielefeld هنگام 0.0625000
Bielefeld NULL 0.0000955
Bielefeld انزمان 0.0227273
Bielefeld داشته 0.0082645
Bielefeld باشید 0.0185185
Bielefeld ان 0.0007524
Bielefeld بیلفلد 0.6666667
by دراول 0.2000000
by NULL 0.0005733
by نظر 0.0201005
by برگردم 0.1000000
by تا 0.0020576
by اتفاقی 0.2500000
by شرکت 0.0476190
by برای 0.0019474
by بحال 0.5000000
by به 0.0052466
by دیده 0.3333333
by امیدواریم 0.1428571
by ملاقاتهای 0.0833333
by بیشتری 0.0384615
by راستی 0.3333333
by در‌نظر‌داشتم 0.3333333
by شود 0.0172414
by اسلایدها 0.2000000
by از 0.0028952
by امکانی 0.2000000
by صدا 0.5000000
by طرف 0.0869565
by منظورت 1.0000000
by کوچک 0.1666667
by مساعد 0.0322581
by باشید 0.0370370
by میزنیم 0.5000000
by منظورتان 0.1333333
preparations تهیه‌وتدارک 0.5000000
preparations NULL 0.0001911
preparations شما 0.0009597
preparations نهایی 0.2500000
preparations تدارک 0.0625000
preparations با 0.0022779
preparations جهت 0.0666667
preparations ‌کنیم 0.0185185
preparations سازی 0.0769231
preparations یک 0.0010299
preparations به 0.0010493
preparations مقدمات 0.3846154
ill میشوند 0.3333333
ill مریض 0.2857143
thank گذاشتید 0.2000000
thank NULL 0.0000955
thank سپاسگزارم 0.3333333
thank ممنون 0.2500000
thank من 0.0006190
thank از 0.0115808
thank متشکرم 0.4347826
thank ممنونم 0.5384615
thank خوب 0.0007710
thank . 0.0001399
thank هم 0.0013333
thank خیلی 0.0113208
reckon گمان 0.0714286
reckon ‌میکنم 0.0217391
usually معمولا 0.5000000
usually دوشنبه 0.0027855
motivated مردم 0.1666667
U ر 0.0169492
U NULL 0.0030575
U یو 0.3666667
U و 0.0004560
U ت 0.0769231
U . 0.0001399
U کیو 0.0256410
fair نمایشگاهی 0.5714286
fair یک 0.0010299
fair هانور 0.5000000
fair نمایشگاه 0.5555556
fair مشغول 0.0196078
calmly نگاه 0.0555556
calmly ارام 0.2500000
calmly کنیم 0.0013643
calmly ان 0.0007524
calmly به 0.0010493
Bl بلوم 0.3333333
interesting ابتدای‌ 0.2000000
interesting دلچسب 0.1428571
tragic فجیع 0.5000000
tragic نیست 0.0019881
tragic هم 0.0013333
project مااست 0.1666667
project بگذاریم 0.0084034
project درباره 0.0056818
project طرح‌ریزی 0.2500000
project پروژه 0.6666667
project میاید 0.0357143
project همچنین 0.0117647
worked اغلب 0.2000000
worked همین 0.0058140
worked طورکه 0.3333333
Ina اینا 0.5000000
nice فنجان 0.1153846
nice NULL 0.0001911
nice چه 0.0033898
nice چه‌عجب 0.2000000
nice عالی 0.0069930
nice , 0.0001605
nice اشنا‌شدن 0.2000000
nice این 0.0014430
nice داشته 0.0165289
nice خیلی 0.0037736
nice بسیار 0.0037175
nice جالبی 0.3333333
nice چیزی 0.0217391
nice دلپذیری 0.2000000
nice صحبت 0.0051020
nice میشد 0.0714286
nice دلپذیر 0.2000000
nice زیبایی 0.1666667
nice قشنگی 0.5000000
nice لطف 0.0769231
nice جالب 0.3333333
nice باشی 0.1428571
nice زیبا 0.8000000
nice باشید 0.0185185
nice خوب 0.0200463
nice است 0.0003228
nice میشود 0.0095847
nice خوبی 0.0571429
ended شروع 0.0104167
ended میکنیم 0.0096154
problem باشد 0.0027778
problem NULL 0.0003822
problem مشکلی 0.2569444
problem میکند 0.0113636
problem اشکالی 0.3333333
problem نخواهد 0.1162791
problem این 0.0101010
problem وجود 0.0192308
problem نیست 0.0238569
problem نبود 0.1666667
problem مشکل 0.3097345
problem هیچ 0.0104167
problem نخواهد‌بود 0.0500000
problem ‌ان 0.2500000
problem ندارد 0.0476190
problem هرقدرهم 0.3333333
problem ایجاد 0.1428571
check دهید 0.0172414
check را 0.0023188
check NULL 0.0002866
check بررسی 0.1666667
check نگاهی 0.0151515
check کنم 0.0296610
check لطفا 0.0303030
check چک 0.5000000
means NULL 0.0000955
means اینکه 0.0204082
means از 0.0005790
means که 0.0032328
means یعنی 0.1267606
means معنی 0.7000000
means بدین 0.2941176
absolutely اول 0.0024938
absolutely غیر 0.0769231
absolutely خاصی 0.0714286
absolutely و 0.0004560
absolutely واقعا 0.0075758
absolutely مطلقا 0.6666667
absolutely الان 0.0084746
absolutely قطعا 0.0714286
absolutely هستند 0.0161290
absolutely دیگر 0.0062500
absolutely بود 0.0021834
absolutely کاملا 0.0620690
recorded یکبار 0.0238095
definite پیشنهاد 0.0021505
definite قطعی 0.0714286
farther دور 0.1111111
farther راه 0.0833333
farther امده‌اند 0.5000000
Backe بک 1.0000000
Johne جان 0.3333333
situation اوضاع 0.2000000
situation شریط 0.5000000
situation چطور 0.0055249
laundry لباسهای 0.2000000
laundry شسته 0.5000000
unexpected چیز 0.0263158
unexpected غیر‌منتظره‌ای 0.2500000
unexpected اگر 0.0035336
tight باشد 0.0083333
tight هنگام 0.0625000
tight تنگ 0.3333333
tight NULL 0.0000955
tight فشرده‌تر 0.2500000
tight میکند 0.0227273
tight فشرده‌ای 0.2941176
tight خیلی 0.0037736
tight برنامه 0.0072993
tight مشکل 0.0088496
tight خواهد 0.0026110
tight بسیار 0.0037175
tight سرم 0.0588235
tight ای 0.0011682
tight سخت 0.1304348
tight بشود 0.0476190
tight شلوغ 0.0666667
tight کمی 0.0076336
tight میشود 0.0095847
tight فشرده 0.4838710
tight شد 0.0108696
thoroughly کاملا 0.0068966
note بیست 0.0009643
note یادداشت‌ 0.2727273
note نوشت 0.6666667
note را 0.0028986
note متوجه 0.0153846
note خواهم 0.0023753
note یادداشتی 0.2500000
note الان 0.0084746
note شدم 0.0222222
note یادداشت 0.0740741
note میکنم 0.0065502
note کنید 0.0138889
there سیوالهایی 0.2500000
there عصبانی 0.2500000
there مواد 0.5000000
there دارد 0.0425532
there سو 1.0000000
there ان‌وقت 0.1000000
there هست 0.1805556
there با 0.0022779
there وجود 0.2884615
there بعد‌‌از 0.5000000
there یک 0.0020597
there نیاید 0.1666667
there انموقع 0.0095238
there بعدازان 0.0476190
there هییت‌ 0.2500000
there قرار 0.0021142
there راه 0.0833333
there روز 0.0015456
there پس 0.0030488
there انزمان 0.0227273
there برگشت 0.5000000
there کوچک 0.1666667
there بود 0.0021834
there شامل 0.0434783
there عمومی 0.1875000
there امکان‌پذیر 0.0047393
there انجاست 0.4000000
there NULL 0.0035353
there غیراینصورت 0.0909091
there نسبتی 0.2500000
there ولی 0.0285714
there یکدفعه 0.5000000
there برای 0.0004869
there این 0.0028860
there برنامه 0.0072993
there خواهد‌بود 0.0243902
there جانشینی 0.1250000
there درست 0.0054054
there داده‌اید 0.5000000
there هنوز 0.0432099
there شش 0.0169492
there داریم 0.0070423
there گروه 0.2000000
there سخنرانی 0.0681818
there بگذاریدببینیم 0.3333333
there اشتباه 0.0370370
there انجا 0.6724138
there همایش 0.0909091
there غلط 0.3333333
there امر 0.2500000
there روزهای 0.0176991
eye جلب 0.2500000
eye کرده 0.0714286
R روبن‌اشمیت 0.3333333
R NULL 0.0051596
R ون‌رومر 0.2500000
R ار 0.6450000
R ر 0.0508475
R ان 0.0007524
R ت 0.0769231
R نوشته‌میشود 1.0000000
R رومر 0.3333333
coincides با 0.0022779
coincides بطرز 0.5000000
coincides انچه 0.1250000
coincides منطبق 0.5000000
coincides حد 0.1666667
coincides میشود 0.0031949
coincides هم 0.0013333
keeping به 0.0010493
patches دست 0.1000000
patches رفت‌وامد‌های 0.5000000
patches میدهیم 0.0588235
Bonn NULL 0.0001911
Bonn میشناسیم 1.0000000
Bonn پنج‌روزه 0.0222222
Bonn در‌نظر 0.5000000
Bonn حاضر 0.0526316
Bonn ‌بگیریم 0.5000000
Bonn شده 0.0222222
Bonn بن 0.6666667
Bonn میشویم 0.2000000
sometimes برخی‌اوقات 0.3333333
sometimes شنبه‌ها 0.1666667
Dortmund دورتموند 0.6666667
Dortmund از 0.0005790
Dortmund داشته‌باشم 0.3333333
confused میشوم 0.0555556
confused گیج 0.5000000
confused شده‌ام 0.2000000
confused کرده‌اید 0.0909091
confused توجه 0.0666667
Mifune میفون 0.3333333
owe چه‌چیزی 0.1666667
owe مدیون 0.5000000
owe را 0.0005797
owe این 0.0014430
owe به 0.0010493
owe افتخار 0.1666667
warm را 0.0005797
warm نگه 0.1666667
warm گرم 0.5000000
exactly NULL 0.0000955
exactly اما 0.0031056
exactly من 0.0003095
exactly شما 0.0009597
exactly دقیقا 0.7402597
exactly همان 0.0322581
exactly نمیدانید 0.1666667
exactly همین‌طور 0.3333333
exactly برنامه‌ام 0.0500000
Bayrischer NULL 0.0001911
appropriate باشد 0.0027778
appropriate مناسب 0.0012690
appropriate ادونت 0.0588235
appropriate تاجران 0.5000000
appropriate ساعت 0.0011299
appropriate مناسبی 0.0769231
gone رفته‌ام 0.2000000
gone دست 0.1000000
gone NULL 0.0000955
gone رفت 0.0666667
gone از 0.0005790
gone تعطیلاتتان 0.5000000
gone خواهم‌ 0.1428571
gone اندکی‌ 0.2500000
gone پیش 0.0357143
gone برود 0.3333333
gone که 0.0010776
theater NULL 0.0003822
matter انجاییکه 0.0384615
matter مطلب 1.0000000
matter مسیله‌ای 0.3333333
matter NULL 0.0000955
matter اوردن 0.5000000
matter از 0.0005790
matter همدیگر 0.0058480
matter نباشد 0.0212766
matter ندارد 0.0119048
matter بزنم 0.1428571
matter مهم 0.2000000
matter مسیله 0.2000000
matter به 0.0010493
matter ایرادی 0.2500000
matter موضوع 0.2258065
reasonable منطقی 0.6666667
reasonable معقولی 0.5000000
invited خود 0.0357143
invited کردید 0.0555556
invited دعوت 0.1111111
invited را 0.0005797
Kathrin کاترین 0.5000000
drag جلو 0.3333333
drag این 0.0014430
drag بیندازیم 0.0322581
drag بکشانیم 0.3333333
drag به 0.0010493
south . 0.0001399
rearrange کنیم 0.0013643
rearrange برنامه‌ریزی 0.0370370
rearrange را 0.0005797
rearrange دوباره 0.0076923
rearrange کنم 0.0042373
trouble را 0.0005797
trouble زیاد 0.0714286
trouble دردسر 0.2500000
trouble به 0.0010493
trouble بیندازید 1.0000000
or-Quell اشلور-کویل 0.2500000
or-Quell کند 0.1000000
or-Quell میکنید 0.0099010
or-Quell اشکلور-کویل 0.2857143
or-Quell شرول 0.3333333
or-Quell می 0.0046296
or-Quell اشلور 0.2000000
or-Quell کوییل 1.0000000
or-Quell کویل 0.1428571
or-Quell کیول 0.4285714
or-Quell -کویل 1.0000000
or-Quell شلور 0.3181818
Meyer هستند 0.0161290
Meyer مییر 0.9166667
Meyer ایشان 0.1176471
Meyer میکنم 0.0021834
Meyer که 0.0010776
Meyer صحبت‌ 0.0416667
partially این 0.0014430
partially از 0.0005790
partially قسمتی 0.2000000
Habicht صبح 0.0028169
Habicht سیلبرن‌هبیت 0.3333333
calendar تقویم 0.6666667
calendar هفتگی 0.1250000
Union اتحاد 0.1428571
Union داشت 0.0117647
Union نخواهید 0.3333333
people اطلاع‌ 0.2500000
people بتوانند 0.5000000
people تاانجاییکه 0.2500000
people NULL 0.0000955
people ‌کنند 0.3333333
people افراد 0.6666667
people از 0.0017371
people مردم 0.8333333
people تنظیم 0.0416667
afternoon NULL 0.0007644
afternoon تا 0.0010288
afternoon , 0.0001605
afternoon سه‌شنبه 0.0027027
afternoon عصر 0.0253807
afternoon ام 0.0119048
afternoon بعد 0.0310421
afternoon برگزار 0.0166667
afternoon بعد‌ازظهر 0.3500000
afternoon از 0.0081065
afternoon ظهر 0.0511811
afternoon دوباره 0.0076923
afternoon چطوراست 0.1000000
afternoon بعد‌از‌ظهر 0.1578947
afternoon بعداز‌ظهر 0.2500000
afternoon مصاحبه 0.1666667
afternoon است 0.0003228
afternoon ظهرها 0.5000000
afternoon بعدازظهر 0.1730769
afternoon بعدارظهر 0.2857143
Kr کرومل 0.3333333
Star استار 1.0000000
protection حفاظتی 0.4000000
protection حفاظت 0.5000000
protection داده 0.1250000
protection از 0.0011581
protection محافظت 0.3333333
front NULL 0.0001911
recover چیزی 0.0217391
recover اورده 0.5000000
recover باشید 0.0185185
recover روی‌هم‌رفته 0.1428571
recover بدست 0.3333333
recover باید 0.0013441
meet ‌خواهیم 1.0000000
meet بگذاریم 0.0084034
meet یکدیگر 0.7500000
meet ‌میکنیم 0.2727273
meet انروز 0.2000000
meet بتوانیم 0.0085470
meet سه‌بار 0.3333333
meet دوازده 0.0147059
meet میکنیم 0.0961538
meet ناهار 0.0185185
meet ‌داریم 0.5000000
meet قرارملاقات 0.0166667
meet کنیم 0.0886767
meet پیشنهاد 0.0021505
meet اگر 0.0035336
meet روز 0.0030912
meet ببینیم 0.3859649
meet اولین‌بار 0.3333333
meet ساعت 0.0011299
meet جلسه 0.0033784
meet را 0.0904348
meet هنگام 0.0625000
meet NULL 0.0018154
meet کنم 0.0169492
meet داشته‌باشیم 0.1818182
meet محدودیت‌های 0.5000000
meet برای 0.0004869
meet دیگر 0.0062500
meet سه‌شنبه 0.0027027
meet ملاقات 0.3133159
meet مایل 0.0188679
meet میبینیم 0.1538462
meet همدیگ 0.3333333
meet قراربود 0.2500000
meet کنید 0.0138889
meet میتوانیم 0.0036832
meet همدیگر 0.6725146
meet فرودگاه 0.3333333
meet خواهیم 0.0400000
meet خوب 0.0007710
meet ‌کنیم 0.1481481
meet متشکر 0.2222222
meet دید 0.3333333
meet ‌کرد 0.1666667
into میخواهم 0.0062893
into میرسیم 0.1428571
into تا 0.0010288
into بعداز‌ان 0.5000000
into انداختم 0.2000000
into برای 0.0004869
into گذشته 0.1111111
into بگنجانیم 0.3333333
into در 0.0036474
into جای‌ 0.2500000
into زمانی 0.0041667
into میاید 0.1071429
into برنامه‌ام 0.0500000
failed متوجه 0.0307692
failed من 0.0003095
failed نمیباشم 0.1666667
failed زمانی 0.0041667
failed نشدم 0.2000000
Oliver اولیور 1.0000000
seven NULL 0.0005733
seven امروز 0.0109890
seven ملاقات 0.0026110
seven هفت 0.7358491
seven . 0.0001399
seven ساعت 0.0011299
seven عصر 0.0050761
seven برنامه 0.0072993
certain NULL 0.0000955
certain خاصی 0.0714286
certain خاص 0.3333333
certain برای‌اینکه 0.1666667
Fathers-Day NULL 0.0000955
weekly هفته‌گی 0.5000000
weekly پایه 0.3333333
weekly صورت 0.0285714
weekly برنامه 0.0072993
weekly هفتگی‌ام 0.5000000
weekly هفتگی 0.5000000
indeed واقعا 0.0075758
Silberne سیلبرن‌هبیت 0.6666667
good NULL 0.0006688
good چیزخوبی 0.2500000
good خبر‌‌ 0.2500000
good بخیر 0.6666667
good جمعه 0.0029499
good موفق 0.1666667
good کازینو 0.3333333
good مادر 0.1428571
good جمعهخوب 0.5000000
good مقدس 0.5333333
good داشته 0.0165289
good معقولانه 0.2500000
good نیک 1.0000000
good خیلی 0.0415094
good بسیار 0.0037175
good عصر‌بخیر 0.5000000
good من 0.0003095
good بنظرم 0.2500000
good خیلی‌خوب 0.4000000
good روز 0.0015456
good چطوره 0.3333333
good خداحافظ 0.0373444
good خوب 0.0531997
good صبح‌بخیر 0.5000000
good است 0.0045190
good خوبی 0.3333333
making مورد 0.0108696
making در 0.0006079
making NULL 0.0000955
making میباشد 0.0158730
making قرار‌ 0.0909091
making چیست 0.0039370
making گذاشتن 0.1666667
making فشرده 0.0322581
really مهمی 0.1428571
really درواقع 0.0526316
really مناسب 0.0012690
really اینقدرها 1.0000000
really نمود 0.5000000
really NULL 0.0003822
really عاقلانه 0.5000000
really واقعا 0.5303030
really اشنا‌شدن 0.2000000
really خوشحالم 0.0952381
really میتوانید 0.0200000
really خیلی 0.0150943
really شد 0.0108696
really بسیار 0.0037175
bringing میاورید 0.5000000
bringing را 0.0005797
bringing هم 0.0013333
demand درخواست 0.1666667
demand حقوق 0.2000000
demand افزایش 0.5000000
demand هم 0.0013333
demand بلافاصله 0.0400000
overlap و 0.0004560
overlap نیمه 0.0344828
overlap نصفه 0.2500000
Meyer-L مییر 0.0833333
till بیست 0.0019286
till NULL 0.0004777
till من 0.0003095
till تا 0.0072016
till مارس 0.0061350
till پنجم 0.0038314
till هشتم 0.0034130
till ان 0.0007524
till است 0.0006456
education اضافی 0.5000000
education اموزش 0.1666667
matches دارد 0.0070922
matches قرارهای 0.0400000
matches مطابقت 0.1250000
meeting قراری 0.0222222
meeting را 0.0069565
meeting NULL 0.0006688
meeting مشکلی 0.0069444
meeting جلسه‌ 0.4516129
meeting شام 0.0121951
meeting نشست 0.6428571
meeting داشته 0.0082645
meeting جلسه‌ای 0.4761905
meeting بعدا 0.0666667
meeting جله 0.5000000
meeting ملاقات 0.0600522
meeting جلسات 0.2000000
meeting قرارمان 0.0500000
meeting باشم 0.0363636
meeting قرارملاقات 0.0333333
meeting دومی 0.0526316
meeting نشستی 0.5000000
meeting دو 0.0032895
meeting قرارملاقاتمان 0.2222222
meeting منتظرم 0.1111111
meeting جلسه‌مقدماتی 0.4285714
meeting قرار 0.0021142
meeting نشستمان 0.3333333
meeting اولیه 0.4375000
meeting رسمی 0.2000000
meeting جلسه 0.5439189
meeting دوروزه 0.0625000
rash عجول 0.3333333
Korn کرون 1.0000000
Korn کورن 1.0000000
solved حل 0.1666667
solved کرد 0.0200000
Mr دکتر 0.0666667
Mr NULL 0.0002866
Mr من 0.0003095
Mr گرتنر 0.0322581
Mr , 0.0003210
Mr بخیر 0.3333333
Mr اقای 0.8173913
Mr این 0.0014430
Mr کاپ 0.0500000
Mr است 0.0003228
Mr جانچ 0.0666667
fish یک 0.0010299
Robert روبرت 1.0000000
directly مستقیما 0.5000000
directly ترجیح 0.0113636
directly بلافاصله 0.0400000
prayer اعتراف 1.0000000
prayer دعا 0.4000000
prayer نیایش 0.5000000
prayer روز 0.0015456
then مناسب 0.0038071
then بگذاریم 0.0252101
then کلن 0.1250000
then روشن 0.3333333
then تمام 0.0184049
then چیز 0.0263158
then در 0.0012158
then زمان 0.0370370
then نوبت 0.1666667
then همه 0.0129870
then دوازده 0.0147059
then دراینصورت 0.2500000
then بهتر 0.0067114
then روز 0.0015456
then میایم 0.1333333
then انگاه 0.1250000
then دفترهای‌روزانه‌مان 0.3333333
then تو 0.0069930
then مشکل‌ساز 0.1428571
then عصرها 0.1666667
then و 0.0004560
then تاریخ 0.0083333
then پیدا 0.0333333
then دیدار 0.0098039
then شریط 0.5000000
then ان 0.0331076
then سراسر 0.1666667
then دهیم 0.0569620
then برنامه 0.0072993
then بعد 0.0997783
then بدهید 0.0080645
then هانوفر 0.2500000
then بابت 0.1250000
then رسید 0.2500000
then مخواهم 0.2000000
then باشید 0.0370370
then ‌دهیم 0.1666667
then مدت 0.0400000
then اخر‌هفته‌ها 0.1666667
then موافق 0.0303030
then بماند 0.2500000
then یک 0.0020597
then به 0.0020986
then میکنیم 0.0192308
then انجام‌دادن 0.3333333
then کرد 0.0200000
then میدهیم 0.0588235
then انموقع 0.7238095
then پیشنهاد 0.0021505
then امشب 0.3333333
then من 0.0012380
then ? 0.0012903
then انجامش 0.0526316
then همراه 0.0666667
then بخوابم 0.2500000
then بود 0.0021834
then خوبی 0.0095238
then بطری 0.5000000
then همین 0.0058140
then نسبتی 0.2500000
then وقت 0.0515464
then جا 0.2500000
then برای 0.0009737
then بیرون 0.0333333
then مناسبتر 0.1428571
then راحت‌تر 0.3333333
then که 0.0010776
then قرارمان 0.0500000
then عجله 0.2000000
then مانهیم 0.3333333
then لپزینگ 0.3750000
then روزی 0.0294118
then ورودی 0.3333333
then اینجا 0.0238095
then پنجم 0.0038314
then موافقت 0.0714286
then نشستمان 0.3333333
then وقتم 0.0111732
then خواهیم 0.0200000
then موقع 0.1964286
then کاری 0.0062500
then نوامبر 0.0035714
then مشغول 0.0196078
then میبینمت 0.0526316
then راحتی 0.0714286
then میبینم 0.0232558
then , 0.0022472
then ارایشگاه 0.5000000
then ان‌وقت 0.5000000
then کلوگن 0.1250000
then پیدا‌کردم 0.5000000
then بسیار 0.0037175
then قرارملاقات 0.0333333
then غیر‌ممکن 0.1000000
then ببینیم 0.0789474
then بنابراین 0.0526316
then انزمان 0.6136364
then دایر 1.0000000
then ساعت 0.0011299
then سپس 0.8095238
then جلسه 0.0033784
then باز 0.0322581
then رانندگی 0.2500000
then خواهید 0.0400000
then بعد‌از 0.2000000
then درزدن 0.3333333
then میاندازم 0.1666667
then البته 0.0169492
then این 0.0014430
then هفته 0.0011820
then لایپزینگ 0.2500000
then برلین 0.1142857
then شهر 0.0294118
then بن 0.0833333
then هفته‌مان 1.0000000
then ‌ 0.1666667
then اما 0.0031056
then کشور 0.0714286
then دورتموند 0.3333333
then عادی 0.5000000
then خدانگهدار 0.1666667
then پایانی 0.3333333
then ندارم 0.0030581
then گذاشته 0.1428571
then هم 0.0013333
then وقتتان 0.0666667
then ان‌هنگام 0.1111111
then معیین 0.2500000
then باشد 0.0138889
then ان‌‌وقت 0.5000000
then خارج 0.1315789
then مشکلی 0.0069444
then نگهداریم 0.1250000
then امد 0.0588235
then رخ 0.1666667
then ویژه 0.2500000
then خواهد 0.0052219
then مرخصی 0.2000000
then ناهار 0.0185185
then یرای 0.5000000
then کنیم 0.0150068
then بعدازان 0.0476190
then توبینگن 0.1250000
then قرار 0.0021142
then علاوه 0.2857143
then پس 0.4939024
then انوقت 0.7468354
then لیپزینگ 0.5000000
then موکول 0.1428571
then ان‌موقع 0.8428571
then را 0.0220290
then هنگام 0.6250000
then NULL 0.0168164
then رزور 0.5000000
then تا 0.0010288
then خواهم 0.0047506
then نباشیم 0.5000000
then میان 0.1000000
then داشته 0.0082645
then رایانه 0.3333333
then . 0.0016788
then میبینیم 0.0769231
then نصفه 0.2500000
then رایانه‌ 0.3333333
then تعهدات 0.3333333
then شرایط 0.3333333
then نیوبرانزویک 0.1111111
then شرق 0.3333333
then همچنین 0.0117647
then ان‌‌موقع 0.5000000
things برنامه‌ریزی 0.0185185
things NULL 0.0002866
things چه 0.0033898
things کنم 0.0042373
things کارها 0.0909091
things چیزهای 0.5000000
things با 0.0022779
things روبراه 0.2222222
things این 0.0014430
things اوضاع 0.2000000
things چیز 0.0789474
things یقینا 0.1000000
things همه 0.0129870
things از 0.0011581
things قرار 0.0021142
things فراهم 0.1666667
things چیزها 0.2000000
excuse را 0.0017391
excuse بخشید 0.5000000
excuse لحظه 0.0270270
excuse من 0.0003095
excuse , 0.0001605
excuse ببخشید 0.2307692
Schulz شولتز 1.0000000
fifteen پانزدهم 0.0060241
caretaker سرایدار 0.5000000
persuading ندارم 0.0030581
persuading شدن 0.1000000
persuading متقاعد 0.3333333
slides نصب 0.2500000
slides اسلایدها 0.2000000
slides شده 0.0222222
slides اسلایدهای 1.0000000
hear کامل 0.0769231
hear صدای 0.3750000
hear مرا 0.1428571
hear . 0.0001399
hear میشنوید 0.3333333
hear میکنی 0.0909091
hear گوش 0.1666667
hear میشنوم 0.3333333
marked را 0.0011594
marked NULL 0.0000955
marked دفتر 0.0208333
marked زدم 0.1666667
marked علامت 0.6666667
marked گذاشته‌ام 0.0909091
marked علامت‌ 0.5000000
marked انها 0.0212766
marked خورده‌اند 1.0000000
state مجتمع 1.0000000
artificial هوش 1.0000000
artificial مورد 0.0108696
artificial زمینه 0.2500000
fantastic ای 0.0011682
fantastic خوب 0.0007710
fantastic است 0.0003228
fantastic خارق‌العاده 0.6000000
probably ممکن 0.0125000
probably قضیه 0.3333333
probably باشیم 0.0116279
probably من 0.0003095
probably انقدر 0.0625000
probably شاید 0.0039683
probably احتمالا 0.2626263
probably مستلزم 0.3333333
probably در 0.0006079
probably کار 0.0098039
probably نداشته 0.1111111
few تعداد 0.2000000
few NULL 0.0000955
few چندتا 0.1428571
few راهم 0.2500000
few چند 0.3200000
few درگیر 0.0454545
few اتی 0.2000000
few کمی 0.0458015
few یقینا 0.1000000
few فراهم 0.1666667
whom صحبت 0.0051020
government ندهد 0.5000000
government اهمیت 0.2500000
government دولت 0.3333333
told NULL 0.0000955
told گفتم 0.0888889
told شده‌است 0.0833333
told گفت 0.3333333
told گفته 0.2142857
told بودم 0.1666667
told با 0.0022779
told همانطوریکه 0.1111111
told شده 0.0222222
told که 0.0053879
told همانطور 0.0666667
told به 0.0031480
show نمایش 0.4285714
sufficient احتمالا 0.0101010
sufficient خراب 0.1666667
sufficient ان‌هنگام 0.1111111
sufficient کافی 0.0615385
Ash NULL 0.0000955
Ash لنت 0.1111111
Ash اول 0.0049875
Ash تا 0.0010288
Ash مثلا 0.0181818
Ash ماه 0.0080321
Ash روز 0.0015456
Ash خاکستری 1.0000000
Ash روزه 0.0136986
Ash هم 0.0013333
Ash چهارشنبه 0.0087977
heard شنیدم 0.3333333
heard شنیده‌ام 0.3750000
heard هنوز 0.0061728
heard من 0.0003095
heard اید 0.2000000
heard . 0.0001399
heard که 0.0032328
heard درباره‌اش 0.2000000
heard باید 0.0013441
heard شنیده 0.5000000
occasionally اینکه 0.0204082
occasionally نشود 0.1428571
occasionally کنسل 0.1428571
occasionally مگر 0.0136986
occasionally کنم 0.0042373
price قیمتی 0.2500000
price چه 0.0033898
G اینطور 0.0731707
G NULL 0.0033442
G گ 0.0588235
G جیی 0.4782609
G گرتنر 0.1935484
G جی 0.2583333
G اقای 0.0086957
G ار 0.0050000
G ر 0.0338983
G گرن 0.3333333
G ت 0.0769231
G گونترصحبت 0.2000000
G گارتنر 0.3333333
G نوشته 0.0232558
Vienna واقع 0.0200000
Vienna برگزار 0.0333333
Vienna خواهیم 0.0100000
Vienna وین 0.8125000
Vienna میشود 0.0063898
Vienna کرد 0.0200000
reserved اتاق 0.2500000
suit مناسب 0.3718274
suit مشکلی 0.0069444
suit چه 0.0067797
suit عالی 0.0069930
suit , 0.0006421
suit یا 0.0027855
suit دادید 0.5000000
suit هست 0.0138889
suit مناسبی 0.1538462
suit با 0.0022779
suit خیلی 0.0188679
suit بهتر 0.0067114
suit لنت 0.1111111
suit رای 0.3333333
suit من 0.0021665
suit از 0.0017371
suit یکم 0.0064516
suit ? 0.0006452
suit جور 0.1666667
suit مساعد 0.0322581
suit NULL 0.0022931
suit تا 0.0010288
suit راحتید 0.2500000
suit برای 0.1908471
suit این 0.0014430
suit سه‌شنبه 0.0027027
suit . 0.0002798
suit مشکل 0.0088496
suit برنامه 0.0437956
suit دوازدهم 0.0044053
suit روزی 0.0294118
suit شما 0.0019194
suit خوب 0.0046261
suit اینده 0.0169492
suit نمیتوانم 0.0156250
suit سپتامبر 0.0074627
suit است 0.0009684
suit پنجشنبه 0.0069930
plenty زیادی 0.0172414
plenty داشت 0.0117647
plenty خواهم 0.0023753
plenty زمانهای 0.1428571
plenty بسیار 0.0037175
Italy ایتالیا 1.0000000
even عبارت 0.1428571
even ممکن 0.0062500
even بگیریم 0.0312500
even ‌باشیم 0.2000000
even NULL 0.0000955
even بیاندازید 0.1250000
even نصف 1.0000000
even داریم 0.0070423
even داشته 0.0082645
even هرچند 0.0714286
even حتی 0.6500000
even خیلی 0.0037736
finish تمام 0.0061350
finish حدود 0.0250000
finish دیگر 0.0062500
finish روز 0.0015456
finish چند 0.0200000
finish کنید 0.0138889
contact با 0.0045558
contact بگیرید 0.1000000
contact تماس 0.0235294
senior تاجران 0.5000000
immediately بعدازان 0.0476190
immediately اینکه 0.0204082
immediately NULL 0.0000955
immediately فورا 0.2500000
immediately بلافاصله 0.4400000
should باشد 0.0027778
should سیوالهایی 0.2500000
should ما 0.0025253
should بایستی 0.1111111
should بیفتیم 1.0000000
should غیر‌منتظره‌ای 0.2500000
should مشکلی 0.0277778
should پنج 0.0066225
should دارید 0.0196078
should اخر 0.0032051
should بتوانی 0.2500000
should در 0.0006079
should بهتراست 0.2500000
should هر 0.0096154
should قالب 1.0000000
should خواهد 0.0104439
should مجبور 0.0263158
should هرگز 0.1000000
should سفرمان 0.0256410
should بهتر 0.0939597
should سه 0.0070922
should حالا 0.0151515
should ببینیم 0.0175439
should مجبوریم 0.0113636
should انرا 0.0129870
should ایا 0.0030303
should میشود 0.0031949
should معمول 0.5000000
should جلسه 0.0033784
should حتی 0.0500000
should را 0.0005797
should ممکن 0.0125000
should NULL 0.0011466
should باشیم 0.0465116
should داشته 0.0247934
should این 0.0043290
should انچه 0.1250000
should نیز 0.0285714
should ساعت‌ها 0.2500000
should همینرا 0.2500000
should بعد 0.0022173
should سفر 0.0030030
should میتوانیم 0.0036832
should همچنان 0.0416667
should هنوز 0.0246914
should باشی 0.2857143
should امکانش 0.0303030
should میتوانی 0.0555556
should زودتر 0.0200000
should خواهدبود 0.1666667
should نباید 0.2758621
should لباسهای 0.2000000
should طوری 0.3333333
should باشید 0.0185185
should نمیتواند 0.2000000
should است 0.0003228
should لازم 0.0526316
should باید 0.2258065
should کافی 0.0307692
Lange لنگ 1.0000000
Lange لانج 1.0000000
Lange لانگ 1.0000000
instructed خواسته 1.0000000
instructed من 0.0003095
instructed طرف 0.0434783
consulting شرکت 0.0476190
consulting مشاوره 0.2000000
connected پس 0.0015244
connected NULL 0.0000955
connected درست 0.0054054
connected , 0.0001605
Ableitner البرت 1.0000000
Ableitner البیتنر 0.4285714
Ableitner الیتنر 0.3333333
Ableitner ابلینتر 0.3333333
Ableitner ابلیتنر 1.0000000
Ableitner البینتر 0.3333333
companions شرکتی 0.5000000
companions لازم 0.0263158
companions داشته‌باشیم 0.0909091
he بداند 0.1666667
he چهارشنبه 0.0029326
he او 0.0563380
he چهاردهم 0.0041494
.. تهیه 0.2000000
.. مقاله 1.0000000
.. برای 0.0004869
.. نیاز 0.0277778
ummel کرومل 0.3333333
fresh هستند 0.0161290
fresh تازه 0.1428571
fresh رولهای 1.0000000
fresh ذهن 0.2500000
fresh موجود 0.3333333
superstitious هستید 0.0161290
superstitious خرافاتی 0.3333333
involve ما 0.0012626
involve شامل 0.0869565
involve خواهد 0.0026110
involve برنامه 0.0072993
involve شد 0.0108696
return برمیگردیم 0.1428571
return روز 0.0015456
gather خاطره 0.5000000
gather برای 0.0004869
gather جمع‌اوری 1.0000000
intervals انجام 0.0054645
intervals بدهیم 0.0169492
intervals گفتگوها 0.3333333
intervals وقفه‌های 0.5000000
pertain ندارد 0.0119048
pertain ربطی 0.2500000
weeks استراحت 0.1250000
weeks NULL 0.0000955
weeks ‌تا 1.0000000
weeks هفته‌های 0.6666667
weeks خواهد‌‌بود 1.0000000
weeks داریم 0.0070423
weeks هفته 0.0283688
weeks روزه 0.0136986
weeks در 0.0006079
fly NULL 0.0001911
come هستید 0.0161290
come میگردیم 0.3333333
come صبح 0.0028169
come بیایی 0.2500000
come NULL 0.0012421
come دیدار 0.0196078
come امد 0.5882353
come اجازه‌دهید 0.3333333
come بیایم 0.3000000
come کارمندانی 0.1428571
come خواهی 0.1111111
come برمیگردیم 0.1428571
come میل 0.0769231
come به 0.0146905
come بیایید 0.0930233
come میایید 0.3333333
come شروع 0.0104167
come عصر‌ 0.2500000
come من 0.0003095
come اتاقهایمان 0.2500000
come بزنید 0.2500000
come میایم 0.2333333
come دیدن 0.2000000
come راحت 0.0833333
come قادر 0.1000000
come چرا 0.0500000
come دور 0.2222222
come وم 1.0000000
feasible بله 0.0013736
feasible است 0.0003228
feasible امکان‌پذیر 0.0094787
feasible هست 0.0138889
backwards وارونه 0.5000000
preparation زمینه‌ها 1.0000000
preparation امادگیها 0.2500000
preparation برپا 0.2000000
preparation تدارکاتی 1.0000000
preparation اماده‌سازی 1.0000000
preparation امادگی 0.0625000
preparation بماند 0.2500000
preparation هم 0.0026667
preparation همه 0.0129870
bar NULL 0.0000955
bar سالاد 0.3333333
bar صرف 0.0175439
cars تصادفی 1.0000000
least حداقل 0.3809524
least دست‌کم 0.3333333
least نهایت 0.2000000
least باشیم 0.0116279
least بودن 0.2500000
least دردسترس 0.2500000
least نه 0.0036364
least اقلا 0.3333333
least نداریم 0.1666667
least نخواهم‌بود 0.0625000
less کمابیش 0.3333333
less هزینه 0.3333333
fine مناسب 0.1319797
fine NULL 0.0005733
fine عالی 0.0209790
fine هست 0.0138889
fine برای 0.0009737
fine ‌خوبم 1.0000000
fine ان 0.0007524
fine زمان 0.0041152
fine . 0.0004197
fine به 0.0010493
fine خیلی 0.0075472
fine کاملا 0.0068966
fine بسیار 0.0855019
fine بهتر 0.0067114
fine بخوبی 0.0434783
fine درست 0.0054054
fine بله 0.0013736
fine من 0.0006190
fine توجه 0.0666667
fine بسیارخوب 0.2000000
fine خوبه 0.4000000
fine خب 0.0161290
fine جور 0.0416667
fine بسیارخب 0.0333333
fine مساعد 0.2903226
fine خوبند 1.0000000
fine خوب 0.3099460
fine هم 0.0013333
fine بود 0.0196507
fine است 0.1307295
fine خوبی 0.0095238
keep باشد 0.0027778
keep را 0.0069565
keep NULL 0.0003822
keep مشکلی 0.0069444
keep ویت 0.1111111
keep نگهداریم 0.1875000
keep طنین‌انداز 0.1428571
keep نگهداشته 0.2000000
keep همینگونه 0.1428571
keep نگه 0.1666667
keep همان 0.0161290
keep مربا 1.0000000
keep همینطوری 0.2500000
keep بدون 0.1000000
keep بداریم 1.0000000
keep هیچ 0.0104167
keep هماهنگ 0.0178571
keep نگه‌ 1.0000000
keep نگه‌داریم 0.5000000
keep میخواهید 0.0204082
keep محفوظ 1.0000000
keep طور 0.0454545
keep داریم 0.0140845
keep نگه‌‌داریم 0.3333333
keep همانطور 0.0222222
keep وقرار 0.2500000
keep بعدیرا 0.5000000
better باشد 0.0222222
better بهتر 0.2483221
better NULL 0.0002866
better نمیاید 0.1428571
better بیشتر 0.0277778
better مناسبترند 0.5000000
better بهتر‌است 0.3333333
better اجازه‌ 0.0204082
better شاید 0.0039683
better هشتم 0.0034130
better بهتراست 0.1666667
better مناسبتر 0.1428571
better بهترین 0.0208333
better . 0.0002798
better میشود 0.0031949
better است 0.0071014
better بود 0.0021834
depending بسته 1.0000000
depending بستگی 0.0588235
Ministry وزیران 0.5000000
Ministry هییت 0.1666667
yours هجی‌ 0.1428571
yours شما 0.0009597
yours کنید 0.0138889
due دست 0.1000000
due سری 0.0714286
due NULL 0.0000955
due رسیده 0.3333333
due برقرار 0.3333333
due فرا 0.2000000
due هم 0.0013333
due یک 0.0010299
due قرارها 0.0312500
due باید 0.0013441
pen دیگر 0.0062500
pen خودکار 0.3333333
pen مغزم 0.3333333
frequently از 0.0005790
final پایانی 0.3333333
final پایان 0.0217391
final عنوان 0.1000000
final اخرین 0.0243902
final مذاکره 0.1428571
final که 0.0010776
Mooshammer موشامر 0.5000000
schoolchildren اموزان 1.0000000
schoolchildren پاییزی 1.0000000
tea بیاورید 0.2500000
tea صرف 0.1052632
tea تشریف 1.0000000
tea چای 0.6428571
and دارم 0.0018051
and ما 0.0012626
and ژانویه 0.0044053
and در 0.0024316
and بگذار 0.0333333
and همانجا 0.2000000
and ازاد 0.0021459
and حالا 0.0151515
and نه 0.0036364
and روز 0.0046368
and اگر 0.0106007
and خداحافظ 0.0082988
and ساندیز 0.0400000
and فکر 0.0026316
and سپس 0.0476190
and جلسه 0.0033784
and میخواهم 0.0062893
and تاریخ 0.0083333
and و 0.5294118
and درغیر‌اینصورت 0.5000000
and وبسیار 1.0000000
and میرویم 0.0454545
and دیدار 0.0098039
and بگویم 0.0086207
and این 0.0028860
and هفته 0.0011820
and واکتبر 0.4000000
and ملاقات 0.0026110
and بعد 0.0022173
and اهل 0.3333333
and چاق 0.5000000
and اما 0.0031056
and هانوفر 0.0625000
and شش 0.0169492
and همدیگر 0.0058480
and انهم 0.2000000
and جدا 0.1428571
and وپنجشنبه 0.3333333
and سختی 0.2500000
and دیگرم 0.2500000
and روجر 0.3333333
and وقرار 0.2500000
and دوشنبه 0.0027855
and پنجشنبه 0.0034965
and روزهای 0.0088496
and شنیده‌ام 0.1250000
and عکسها 0.2000000
and زمانبندی 0.5000000
and خالی 0.0138889
and جولای 0.0070423
and شنبه 0.0048077
and از‌طرف‌دیگر 0.5000000
and هستم 0.0022779
and میباشد 0.0158730
and بروزرسانی 0.1666667
and موافق 0.0303030
and به 0.0010493
and فردا 0.0060241
and میگیریم 0.3333333
and 1995 0.1111111
and پیشنهاد 0.0064516
and امادگیها 0.2500000
and متشکرم 0.0062112
and من 0.0021665
and از 0.0011581
and قرار 0.0063425
and یکم 0.0064516
and پس 0.0030488
and ? 0.0006452
and فنی 1.0000000
and دوما 0.5000000
and را 0.0005797
and اول 0.0024938
and NULL 0.0068794
and باشیم 0.0116279
and هجدهم 0.0071429
and تا 0.0318930
and برای 0.0004869
and وسپس 0.5000000
and نظری 0.0400000
and بغیر 0.5000000
and . 0.0001399
and چک 0.1250000
and که 0.0032328
and کننده 0.2500000
and سیزدهم 0.0049020
and منتظرم 0.1111111
and شما 0.0009597
and ودوم 0.2500000
and پنجم 0.0038314
and یکی 0.0204082
and بعداز 0.0178571
and ودوشنبه 0.1666667
and برویم 0.0133333
and قبلا 0.0149254
and اینرو 0.5000000
and همچنین 0.0352941
virtually هیچ 0.0104167
virtually صورتیکه 0.2000000
virtually درحقیقت 0.0833333
virtually در‌واقع 0.0769231
virtually وقتی 0.0111111
virtually واقعا 0.0075758
Schottemeyer اسکات‌مه‌یر 1.0000000
Schottemeyer . 0.0001399
Schottemeyer صحبت‌ 0.0416667
six داشتیم 0.1666667
six NULL 0.0003822
six چهارم 0.0025907
six ساعت 0.0011299
six شش 0.7796610
anymore صفحه‌ام 0.3333333
anymore دیگر 0.0062500
anymore نمیبینم 0.1666667
anymore نمیدانم 0.0106383
anymore چیزها 0.1000000
anymore صورت 0.0285714
fixed قراری 0.0444444
fixed سرانجام 0.2000000
fixed صبح 0.0028169
fixed تعیین 0.0504202
fixed کرده 0.1428571
fixed ثبت 0.0642202
fixed درهر‌حال 0.5000000
fixed میکردیم 0.2500000
fixed محلی 0.3333333
fixed چیز 0.0263158
fixed ثبت‌ 0.0930233
fixed چیزی 0.0217391
fixed کنیم 0.0013643
fixed شوند 0.1428571
fixed قطعی 0.0357143
fixed تثبیت 0.0344828
fixed مورد 0.0108696
fixed داشتیم 0.1666667
fixed ملاقاتی 0.0175439
fixed انرا 0.0129870
fixed به‌این 0.5000000
fixed را 0.0081159
fixed کرده‌ایم 0.2105263
fixed NULL 0.0001911
fixed کردیم 0.1836735
fixed ایم 0.2000000
fixed چاهرشنبه 0.2000000
fixed ترتیب 0.0140845
fixed ثابت 0.1081081
fixed نکرده‌ام 0.1250000
fixed . 0.0001399
fixed شده 0.0444444
fixed قرارمان 0.0500000
fixed ثبت‌‌ 0.5000000
fixed ثابتی 0.3333333
fixed انتخاب 0.0333333
fixed تاریخ‌ها 0.2500000
fixed ‌کردیم 0.3333333
fixed گذاشته 0.1428571
fixed نتیجه 0.1111111
fixed تنظیم 0.0833333
fixed ‌شد 0.2500000
fixed روزهای 0.0088496
fixed شد 0.0108696
Leonhard لی‌انارد 1.0000000
Leonhard , 0.0001605
spend تمام 0.0061350
spend نمود 0.5000000
spend خواهیم 0.0100000
spend سپری 0.5000000
spend یکدیگر 0.0277778
spend از 0.0005790
spend شب 0.0555556
Eberle ایبرل 0.5000000
regularity داشته 0.0082645
regularity باشیم 0.0116279
regularity قرار 0.0021142
regularity چندتا 0.0714286
February کنیم 0.0013643
February NULL 0.0011466
February از 0.0005790
February هجدهم 0.0071429
February وقت 0.0017182
February ما‌بین 0.0714286
February فوریه 0.5772358
February یا 0.0027855
February مارس 0.0061350
February اخر 0.0032051
February ژانویه 0.0044053
February ? 0.0006452
February . 0.0001399
February چهاردهم 0.0041494
February ‌و 0.0078740
already قراری 0.0444444
already دارم 0.0216606
already صبح 0.0056338
already , 0.0001605
already کرده 0.0714286
already اید 0.2000000
already کرده‌ام 0.0769231
already در 0.0060790
already زمان 0.0041152
already خوردید 1.0000000
already داده 0.0625000
already روز 0.0015456
already داری 0.0454545
already حالا 0.0454545
already اکنون 0.3658537
already ساعت 0.0011299
already گرفتار 0.0476190
already تو 0.0069930
already کرده‌ایم 0.0526316
already نظر 0.0050251
already فعلا 0.5555556
already حاضرکاملا 0.3333333
already درحال‌حاضر 0.6000000
already این 0.0014430
already بگوییم 0.0156250
already شده 0.0222222
already تاکنون 0.5000000
already برنامه 0.0072993
already دوازدهم 0.0044053
already کشور 0.0714286
already بعدی 0.0114943
already گرفتارم 0.2500000
already هم 0.0226667
already قبل‌ازان 0.3333333
already بیست 0.0009643
already برنامه‌هایی 0.1111111
already گذاشته‌ام 0.1818182
already دوساعته 0.2500000
already پیشاپیش 0.7500000
already انها 0.0212766
already یک 0.0010299
already هفتم 0.0056497
already گذاشتم 0.1111111
already قرار 0.0021142
already من 0.0003095
already از 0.0098437
already متاسفانه 0.0084034
already درحال 1.0000000
already حرکت 0.1111111
already حال 0.1538462
already یکشنبه 0.0042918
already را 0.0005797
already اول 0.0024938
already ازقبل 0.4000000
already NULL 0.0022931
already ‌شده‌است 1.0000000
already همین 0.0174419
already خواهم 0.0071259
already ژوییه 0.0088496
already در‌حال 1.0000000
already حاضر 0.3157895
already . 0.0001399
already که 0.0021552
already اخیرا 0.2000000
already همچنان 0.0416667
already درگیر 0.1818182
already پنجم 0.0038314
already قبل 0.0721649
already مشغولیتی 0.3333333
already قبلا 0.4626866
already لیپزیگ 0.1250000
already پر 0.0163934
already حال‌حاضر 0.5000000
already باید 0.0013441
lucky هستید 0.0161290
lucky خانواده 0.5000000
lucky من 0.0003095
lucky شانس 0.6666667
lucky ندارید 0.0370370
lucky هستم 0.0022779
lucky که 0.0010776
lucky خوش 0.2500000
think نظرتان 0.0166667
think اوایل 0.0136986
think گفتید 0.0158730
think بگذاریم 0.0084034
think چه 0.0033898
think گمان 0.0714286
think کرده‌ام 0.0384615
think ‌میکنید 1.0000000
think در 0.0012158
think فکرش 0.2500000
think خیلی 0.0037736
think فکرنمیکنم 0.2000000
think ? 0.0019355
think طور 0.0454545
think فکری 0.8181818
think ایا 0.0030303
think ساعت 0.0011299
think فکر‌ 0.6410256
think چیست 0.0393701
think فکر 0.5210526
think چطور 0.0027624
think تو 0.0069930
think فکر‌میکنم 0.5000000
think نمیکنم 0.2142857
think ‌کنم 0.0666667
think نظر 0.0050251
think NULL 0.0016243
think ازاد‌بودن 0.1666667
think اول 0.0024938
think فکرم 0.3333333
think کنم 0.0805085
think پانزدهم 0.0030120
think نظری 0.1600000
think میکنم 0.3231441
think میکنمک 0.2500000
think . 0.0001399
think گمانم 0.4000000
think میکنی 0.1818182
think میکنید 0.2178218
think فکرکنیم 0.2500000
think شما 0.0019194
think ‌میکنم 0.4347826
think چقدر 0.0454545
think فکرکنم 0.4444444
think هفدهم 0.0055249
think برگزاری 0.2000000
differently هجی 0.0166667
differently متفاوت 0.3333333
differently شدن 0.1000000
cuisine دارند 0.1111111
cuisine کازینو 0.3333333
unfortunately NULL 0.0006688
unfortunately و 0.0004560
unfortunately من 0.0006190
unfortunately , 0.0003210
unfortunately متاسفانه 0.8235294
unfortunately روز 0.0015456
unfortunately اخر 0.0032051
unfortunately متاسفم 0.0133333
unfortunately این 0.0028860
unfortunately ان 0.0007524
unfortunately زمان 0.0041152
unfortunately بود 0.0021834
unfortunately دوازده 0.0147059
subsequent متعاقبا 0.3333333
subsequent سفر 0.0030030
subsequent و 0.0004560
knowledge دارم 0.0018051
knowledge خبر 0.1666667
last اینجوری 0.3333333
last طول 0.0551181
last NULL 0.0004777
last متوجه 0.0153846
last میکشد 0.1481481
last , 0.0001605
last نهایی 0.2500000
last الان 0.0084746
last اخر 0.0448718
last چهارمین 0.2000000
last رادرست 0.3333333
last اخرین 0.4634146
suited مناسب 0.0012690
suited برای 0.0004869
suited بودید 0.2000000
suited است 0.0003228
suited گفته 0.0714286
inform اطلاع‌ 0.2500000
inform میترسم 0.0312500
inform به‌موقع 0.5000000
inform بدهم 0.0270270
inform خبر‌‌ 0.2500000
inform اطلاع 0.5000000
inform میدهم 0.0196078
inform ان‌موقع 0.0142857
inform به 0.0031480
inform باید 0.0013441
inform افرادم 0.5000000
food میدهم 0.0098039
food ترتیب 0.0140845
food غذای 0.1250000
food هم 0.0013333
food صورت 0.0285714
food غذا 0.1250000
vacation تعطیلات 0.0108696
vacation بود 0.0043668
vacation خواهم 0.0047506
often چندبار 0.3333333
often شود 0.0172414
often NULL 0.0000955
often لغو 0.0909091
often از 0.0011581
often اینجا 0.0238095
often اینها 0.1111111
often میروم 0.0769231
Heilmann هایمن 0.3333333
update بروزرسانی 0.1666667
update میکنیم 0.0096154
exchange اوردیم 0.5000000
exchange تبادل 0.3333333
exchange بپردازیم 0.5000000
exchange تاان‌موقع 0.5000000
exchange به 0.0010493
exchange تجربه‌هایی 0.5000000
exchange که 0.0010776
exchange بدست‌ 0.3333333
Vollstedt ولزتد 1.0000000
Vollstedt نولزتد 1.0000000
next بیست 0.0009643
next مناسب 0.0012690
next مااست 0.1666667
next بگذاریم 0.0084034
next NULL 0.0002866
next احتمالی 0.2000000
next برای 0.0004869
next اتی 0.2000000
next جنب 0.3333333
next نداریم 0.1666667
next سرم 0.0588235
next بعد 0.0199557
next چهار‌ 0.5000000
next از 0.0005790
next من 0.0003095
next ماه 0.0040161
next نه 0.0036364
next میدهید 0.0370370
next خوبه 0.2000000
next بعدی 0.2758621
next مناسبترین 0.0714286
next اینده 0.3389831
yourself رامعرفی 0.5000000
yourself خودتان 0.3333333
yourself دردسر 0.2500000
almost بهتراست 0.0833333
almost هرتاریخی 0.3333333
almost تقریبا 0.4074074
almost الان 0.0084746
proposed کردید 0.0555556
proposed NULL 0.0000955
proposed پیشنهاد 0.0043011
proposed نوامبر 0.0035714
um بلوم 0.3333333
twentieth بیست 0.0028930
twentieth بیستم 0.4299065
twentieth پیشنهاد 0.0021505
twentieth دوازدهم 0.0044053
twentieth NULL 0.0012421
twentieth و 0.0004560
twentieth تا 0.0010288
twentieth , 0.0003210
twentieth مارس 0.0061350
twentieth ? 0.0006452
twentieth برای 0.0004869
twentieth دوازده 0.0147059
twentieth دوم 0.0099502
off صرف‌نظر 0.2500000
off NULL 0.0000955
off از 0.0005790
off بیکار 0.0555556
off قطع 0.3333333
off تعطیل‌ 0.5000000
off کنم 0.0042373
off انها 0.0212766
off هستم 0.0022779
off در 0.0006079
off خانه 0.0625000
off یک 0.0010299
off مرخصی 0.4000000
thus به‌‌این‌ 1.0000000
thus برگزار 0.0166667
thus NULL 0.0000955
thus بدینسان 1.0000000
thus بنابراین 0.0789474
thus پس 0.0015244
thus خواهیم 0.0100000
thus ترتیب 0.0281690
thus میتوانید 0.0200000
thus به‌این 0.5000000
restricted محدود 0.4285714
restricted فقط 0.0054645
restricted است 0.0003228
restricted میشویم 0.2000000
Steinlen استیلن 0.5000000
Steinlen استیتلن 0.5000000
offend رنجاندن 0.3333333
offend قصد 0.2000000
offend شما 0.0009597
offend اصلا 0.0072993
similar داشتیم 0.0833333
similar مشابه 0.1666667
lately چندبار 0.3333333
lately ببینیم 0.0087719
lately اخیرا 0.2000000
approximately NULL 0.0001911
approximately تقریبا 0.0370370
known بداند 0.1666667
consecutive سر 0.0588235
consecutive دو 0.0032895
consecutive متوالی 0.2500000
consecutive هم 0.0013333
consecutive پشت 0.1666667
Weiterscheit ویترشیت 0.7500000
Weiterscheit صحبت‌ 0.0416667
combine کنیم 0.0054570
combine بهم 0.3333333
combine را 0.0023188
combine ادغام‌ 1.0000000
combine ادغام 0.5000000
combine بعدی 0.0114943
combine انگاه 0.1250000
combine همراه 0.0666667
combine انرا 0.0129870
combine پیوند 0.5000000
combine بدهیم 0.0169492
combine ‌نمیکنیم 0.3333333
combine به 0.0010493
combine کوتاهی 0.0526316
Ostermann هستند 0.0161290
Ostermann استرمن 1.0000000
Ostermann که 0.0010776
finding ملاقات‌هایی 0.2500000
cooperation تاریخها 0.0769231
cooperation هستم 0.0022779
cooperation همکاری 0.5000000
cooperation در 0.0006079
cooperation همکاریتان 0.1666667
summer تابستانی 0.7142857
summer که 0.0010776
evening عصرها 0.1666667
evening دارم 0.0018051
evening NULL 0.0010510
evening ‌وقتی 0.1666667
evening پنجشنبه‌ 0.5000000
evening نمی‌توانم‌ 1.0000000
evening غروب 0.5625000
evening عصری 0.5000000
evening . 0.0001399
evening عصر 0.1522843
evening میکنیم 0.0096154
evening خواهد‌بود 0.0243902
evening کرد 0.0200000
evening بعد 0.0022173
evening میافتم 1.0000000
evening گذراند 0.5000000
evening عصر‌ 0.2500000
evening عصر‌بخیر 0.5000000
evening راه 0.0833333
evening اگر 0.0035336
evening میگذاریم 0.1000000
evening ساعت 0.0011299
evening بعدازظهر 0.0082418
waste زمان 0.0041152
stressful کنیم 0.0013643
stressful هماهنگ 0.0178571
stressful پیدا 0.0333333
stressful پر 0.0163934
stressful میکنیم 0.0096154
stressful مشکل 0.0088496
stressful استرسی 0.5000000
push کنم 0.0042373
rotating گردان 1.0000000
additional بایستی 0.0555556
additional دیگری 0.0125000
Wilhelmstra میرسد 0.0285714
Wilhelmstra درویل‌هلمستراسه 0.2000000
hold دست 0.1000000
hold را 0.0162319
hold بگذاریم 0.0084034
hold NULL 0.0008599
hold شدنمان 0.3333333
hold باشیم 0.0348837
hold نگهداریم 0.3125000
hold نگهدارید 0.1666667
hold می 0.0046296
hold برپاکنیم 1.0000000
hold داشته 0.0413223
hold برگزار‌ 0.8000000
hold دوست 0.0135135
hold سمیناراخر 0.3333333
hold میکنیم 0.0192308
hold قرارمان 0.0500000
hold باشم 0.0181818
hold کنید 0.0138889
hold برگزار 0.5333333
hold کنیم 0.0422920
hold صبرکن 0.3333333
hold دست‌کم 0.3333333
hold حالت 0.1111111
hold پیگیری 0.2000000
hold برگزار‌‌ 1.0000000
hold نگهدار 0.3333333
hold طور 0.0454545
hold همسرم 0.1666667
hold صبر 0.0526316
hold ‌کنیم 0.0740741
hold بر‌گزار‌ 1.0000000
hold بر‌گزار 1.0000000
hold صحبتی 0.2500000
hold جلسه 0.0270270
hold ‌کرد 0.1666667
building ساختمان 0.3333333
building قدیمی 0.2000000
twelve NULL 0.0005733
twelve تا 0.0010288
twelve ده 0.0086207
twelve هستم 0.0022779
twelve ساعت 0.0011299
twelve . 0.0001399
twelve دوازده 0.7352941
twelve ام 0.0119048
asleep موقع 0.0089286
asleep در 0.0006079
asleep ان 0.0007524
asleep خواب 0.5000000
precise دقیق 0.2000000
precise را 0.0005797
visits متقابل 1.0000000
visits بگزارم 1.0000000
Sagerer NULL 0.0001911
: موقع 0.0089286
: چه 0.0033898
: : 0.9375000
same را 0.0005797
same بطور 0.0400000
same NULL 0.0000955
same همین 0.0406977
same مشابه 0.3333333
same انها 0.0212766
same ترتیب 0.0140845
same چیز 0.0263158
same یک 0.0010299
same همان 0.0806452
same ساعت‌ها 0.2500000
same فرقی 0.3000000
same یکی 0.0408163
same ندارد 0.0119048
same یکسانی 0.5000000
same همینطور 0.0410959
same همزمان 0.5000000
same در‌واقع 0.0769231
same درهمان 1.0000000
same ساعت 0.0011299
same هم 0.0093333
same همانطور 0.0222222
same نمیکند 0.2222222
reporter خبرنگار 1.0000000
holding متوالی 0.2500000
holding درباره 0.0056818
holding برگزاری 0.6000000
deal واقع 0.0200000
deal مشکلی 0.0069444
deal معامله 0.5000000
named NULL 0.0000955
city نقشه 0.5000000
city عاشق 0.2500000
city هستم 0.0022779
city شهر 0.0294118
sner استرانسر 0.2000000
free نیستم 0.1212121
free دارم 0.0144404
free صبح 0.0028169
free , 0.0001605
free کی 0.0235294
free خواهید‌بود 0.2500000
free دارید 0.0147059
free تمام 0.0061350
free زمان 0.0041152
free بیکارم 0.5000000
free خواهید‌‌بود 0.5000000
free هیچ 0.0104167
free ازاد 0.6287554
free ماه 0.0040161
free روز 0.0030912
free ازادخواهم 0.5000000
free تو 0.0069930
free هستید 0.1612903
free پنچ 0.2500000
free ازاد‌بودن 0.1666667
free و 0.0013680
free خواهم‌‌‌بود 0.2500000
free ان 0.0007524
free تنها 0.0096154
free بیکار 0.4444444
free امکانی 0.2000000
free بین 0.0111111
free باشید 0.1111111
free ندارم 0.0030581
free دهم 0.0050761
free نخواهم‌بود 0.0625000
free میتوانید 0.0200000
free هم 0.0013333
free وقتتان 0.1333333
free دوشنبه 0.0027855
free پنجشنبه 0.0034965
free بیست 0.0028930
free خالی 0.4583333
free جولای 0.0070423
free مارس 0.0061350
free نهم 0.0057803
free هستم 0.2027335
free چهارم 0.0025907
free به 0.0010493
free باشم 0.0545455
free عروج 0.2000000
free از 0.0017371
free من 0.0018570
free ازادی 0.4444444
free بود 0.0021834
free حال 0.0384615
free خواهم‌بود 0.1250000
free نسبتا 0.0384615
free NULL 0.0026753
free طول 0.0078740
free وقت 0.0652921
free تا 0.0041152
free خواهم 0.0047506
free ازادم 0.3333333
free سه‌شنبه 0.0027027
free هستی 0.5555556
free . 0.0001399
free دو 0.0032895
free فقط 0.0054645
free امروز 0.0109890
free شما 0.0009597
free راازاد 0.3333333
free وقتم 0.2905028
free یازدهم 0.0075188
free است 0.0003228
free نوامبر 0.0035714
person این 0.0028860
person شخص 0.3333333
person مسیول 0.2222222
person صحبت‌میکنم 1.0000000
person مربوطه 1.0000000
personal را 0.0005797
personal بگذاریم 0.0084034
personal , 0.0001605
personal خصوصی 0.1111111
merely همراهی 0.2222222
merely طول 0.0078740
merely NULL 0.0000955
merely میکنم 0.0021834
merely میکشد 0.0370370
disposal هستم 0.0022779
disposal اختیار 0.1818182
disposal دسترس 0.0250000
company فعالیتی 0.2000000
company شرکت 0.1904762
company NULL 0.0002866
company نیم 0.0285714
company به 0.0010493
company شرکتمان 0.5000000
towns هستید 0.0161290
towns NULL 0.0000955
towns دانشگاهی 0.3636364
towns دانشگاههای 0.5000000
towns کرده 0.0714286
towns بروم 0.0370370
towns بودیم 0.3333333
towns به 0.0031480
towns تورشهرهای 1.0000000
Whit-Monday نزول 0.1666667
Whit-Monday روح 1.0000000
Whit-Monday القدس 1.0000000
Whit-Monday عید 0.0263158
make دارم 0.0018051
make ما 0.0012626
make زمانها 0.0526316
make اینطور 0.0243902
make بگذاریم 0.1260504
make بدهم 0.0810811
make تعیین 0.0336134
make , 0.0001605
make اخر 0.0032051
make ژانویه 0.0088106
make با 0.0022779
make در 0.0012158
make بدهی 0.5000000
make بتوانیم 0.0170940
make ‌بگذاریم 0.6666667
make بهتر 0.0067114
make فرق 0.0909091
make ماه 0.0080321
make نخواهد‌داشت 0.2000000
make نه 0.0036364
make بنابراین 0.0131579
make ساعت 0.0011299
make هستید 0.0161290
make میخواهم 0.0188679
make اعتراض 0.3333333
make پیشنهادی‌ 0.3333333
make اوت 0.0082645
make بگداریم 0.5000000
make داشته‌ 0.5000000
make جبران 0.5000000
make اولین 0.0086207
make روزه 0.0136986
make ان 0.0007524
make دهیم 0.0253165
make میخواستم 0.0088496
make برایمان 0.1666667
make بدهید 0.0322581
make یادداشت‌ 0.0909091
make درست 0.0054054
make میخواهید 0.0204082
make شوید 0.5000000
make اینکه 0.0204082
make روزهای 0.0088496
make بیست 0.0009643
make ‌دهیم 0.0833333
make دهید 0.0344828
make ریزی 0.0476190
make چه 0.0033898
make بررسی 0.1666667
make شنبه 0.0048077
make موافق 0.0303030
make برداریم 0.0250000
make امتناع 0.2500000
make یک 0.0010299
make کوتاهی 0.0526316
make انموقع 0.0095238
make پیشنهاد 0.0064516
make تلفنی 0.2000000
make از 0.0011581
make قرار 0.0253700
make برنامه‌های 0.1250000
make بگذارم 0.2432432
make ملاقاتی 0.0175439
make چهارشنبه 0.0029326
make یکشنبه 0.0042918
make حتی 0.0500000
make تماس 0.0117647
make انجام 0.0546448
make را 0.0121739
make میگذارم 0.0833333
make NULL 0.0023887
make باشیم 0.0116279
make هجدهم 0.0071429
make نمیتوانیم 0.0434783
make کنم 0.0042373
make دقیقا 0.0129870
make برای 0.0009737
make . 0.0001399
make منرا 1.0000000
make دوست 0.0135135
make که 0.0010776
make پیشنهادی 0.2187500
make معنی 0.1000000
make گرفتم 0.0476190
make بهرحال 0.0833333
make دو 0.0032895
make فقط 0.0054645
make اخرهفته‌های 0.2500000
make شما 0.0019194
make تفاوت 0.3333333
make قبل 0.0051546
make خواهیم 0.0100000
make هشتم 0.0034130
make میتوانم 0.0232558
make براییم 1.0000000
make نمیتوانم 0.0468750
make بدهیم 0.0338983
make است 0.0003228
make کاری 0.0062500
make باید 0.0013441
make مقدمات 0.1538462
onsch بانش 0.3333333
onsch خانم 0.0088496
organize سازمان‌ 1.0000000
organize بدهیم 0.0169492
assuming هیچ 0.0104167
assuming ندارید 0.0370370
assuming وقتی 0.0111111
obligations تعهدات 0.3333333
obligations تعهدهای 0.3333333
obligations وظایف 1.0000000
obligations ابدا 0.2500000
regeneration تجدید‌قوا 0.5000000
regeneration کنم 0.0042373
big باشد 0.0027778
big مشکلی 0.0069444
big کافی 0.0153846
themselves خودشان 1.0000000
themselves باشند 0.1666667
happy میشوم 0.0555556
happy خرسند 1.0000000
happy خوشحال 0.0344828
workday انجام 0.0054645
workday ‌بدهم 0.1666667
workday ساعات 0.2500000
workday کاراداری 0.5000000
allow دهید 0.0172414
allow را 0.0023188
allow اجازه 0.0039841
allow اختصاص 0.2857143
allow دفعات 0.2000000
allow زیادی 0.0172414
allow اختصاص‌ 1.0000000
allow بپذیریم 0.5000000
allow بدهیم 0.0169492
allow دهیم 0.0126582
spontaneously خودبخود 1.0000000
spontaneously انجام 0.0054645
spontaneously هماهنگی 0.3333333
spontaneously میشود 0.0031949
spontaneously قبلی 0.3333333
spontaneously بدون 0.1000000
nothing هیچ 0.0520833
nothing چیزی 0.0434783
nothing خاصی 0.0714286
nothing شده‌ای 0.2500000
nothing بعدی 0.0114943
nothing برنامه‌ای 0.1538462
nothing ندارم 0.0030581
nothing چیز 0.0263158
nothing نیست 0.0019881
nothing امکان‌ 0.2500000
nothing اصلا 0.0072993
hour مدت 0.0200000
hour NULL 0.0001911
hour باشیم 0.0232558
hour وقت 0.0017182
hour دوساعته 0.2500000
hour , 0.0001605
hour مورد 0.0108696
hour داشته 0.0165289
hour موقع 0.0089286
hour اینصورت 0.0714286
hour محدود 0.1428571
hour ساعت 0.0079096
hour یک 0.0010299
Epiphany اپیفنی 1.0000000
K NULL 0.0017199
K و 0.0004560
K کوپ 0.1250000
K پی 0.0131579
K کاچ 0.3333333
K کونیگستراسه 0.2000000
K , 0.0001605
K پلکس 0.5000000
K کی 0.2470588
K اقای 0.0347826
K ر 0.0169492
K پیلکس 1.0000000
K کوهن 0.3333333
K من 0.0003095
K کافر 0.4166667
K کاپ 0.2500000
K پلیکس 0.1818182
K میشود 0.0031949
K نوشته 0.0232558
K کیفر-پلکس 0.2727273
table ‌کنم 0.0666667
table میز 0.4285714
table رزرو 0.0333333
table خواهد 0.0026110
table ‌کرد 0.1666667
larger گروه 0.2000000
larger بزرگتری 0.5000000
others چیزی 0.0217391
others میگویم 0.0050761
others انهای 0.5000000
others گذاشته‌ام 0.0909091
others دیگر 0.0187500
others همراه 0.0666667
others دیگران 0.5000000
others بقیه 0.0555556
others کنید 0.0138889
slide اسلاید 0.5000000
slide به 0.0010493
slide کوتاه 0.0384615
that یکشنبه‌ی 0.5000000
that مناسب 0.0025381
that ما 0.0025253
that سرانجام 0.2000000
that بطوریکه 0.4705882
that زیاد 0.0714286
that دارد 0.0283688
that یعنی 0.3098592
that هست 0.0416667
that میکردیم 0.1250000
that زمان 0.0041152
that خراب 0.1666667
that نوبت 0.1666667
that زمان‌بندی 0.2000000
that نیست 0.0139165
that کاملا 0.0413793
that دراینصورت 0.2500000
that اگر 0.0035336
that امتحان 0.1000000
that انرا 0.1298701
that میشود 0.0670927
that چیست 0.0472441
that درصورتیکه 0.1250000
that بنظر‌ 0.1428571
that امکان‌پذیر 0.0236967
that به‌عبارت‌دیگر 0.5000000
that خاصی 0.0714286
that بنظر 0.0833333
that ان 0.5161776
that صرف 0.0175439
that همان 0.2741935
that دهیم 0.0822785
that خواهد‌بود 0.0487805
that اصلا 0.1021898
that ان‌ 0.1428571
that بر 0.0434783
that نظرم 0.1250000
that جالب 0.2222222
that میخواهید 0.0204082
that ‌میکنم 0.1086957
that نباید 0.0344828
that امکان‌‌پذیر 0.2500000
that تاریخش 0.5000000
that بیست 0.0009643
that شنیدم 0.3333333
that جوری 0.2000000
that سریع 0.2500000
that داشتم 0.0769231
that نباشد 0.0638298
that متوجه‌ 0.1250000
that جمعه 0.0029499
that نمیشود 0.0434783
that انها 0.0638298
that بدین 0.4117647
that شدم 0.0222222
that شگفت‌انگیر 0.5000000
that امکان 0.0111111
that برداریم 0.0500000
that به 0.0062959
that ان‌هفته 0.5000000
that در‌نتیجه 0.5000000
that مینویسم 0.2121212
that من 0.0018570
that از 0.0017371
that امکان‌پذیراست 0.3333333
that واقعا 0.0227273
that بری 0.5000000
that انجامش 0.2631579
that منفی 0.5000000
that کار 0.0294118
that حتی 0.0500000
that میرسد 0.1428571
that ویلیام 0.5000000
that همین 0.0988372
that وقت 0.0017182
that ویترشیت 0.2500000
that ‌پنج‌روزه 0.3333333
that کارها 0.0909091
that برای 0.0146056
that احتمالا 0.0101010
that همه‌اش 0.3333333
that خودم 0.0344828
that که 0.2769397
that قرارمان 0.1000000
that میتوانیم 0.0036832
that قرارملاقاتمان 0.1111111
that فراموش 0.1666667
that امروز 0.0109890
that برای‌اینکه 0.3333333
that بوده 0.1666667
that موجب 0.5000000
that ون 0.0175439
that موقع 0.0089286
that برویم 0.0133333
that اشکالی‌ 0.2000000
that شدید 0.1666667
that باید 0.0013441
that مواظب 0.3333333
that حیف 0.2000000
that ان‌زمان 0.1666667
that نوشتم 0.2857143
that لطف‌ 0.1666667
that اینطوری 0.3333333
that , 0.0008026
that هربار 0.2000000
that اینگونه 0.0769231
that یا 0.0027855
that الان 0.0084746
that با 0.0022779
that نوشته‌ 0.3333333
that فجیع 0.5000000
that موافقم 0.0232558
that خیلی 0.0188679
that بسیار 0.0185874
that ثبتش 0.3846154
that هیچ 0.0208333
that عبارت 0.1428571
that لنت 0.1111111
that هیج 0.5000000
that لطف 0.0769231
that میتواند 0.0857143
that اگای 0.3333333
that فهمیدم 0.0250000
that بنابراین 0.0394737
that انزمان 0.0681818
that مورد 0.0108696
that فکر 0.0052632
that باز 0.0645161
that ممکن 0.0125000
that غیر 0.0384615
that نمیبینم 0.1666667
that انقدرها 0.5000000
that باشه 0.0044248
that متوجه 0.1384615
that انقدر 0.3125000
that راحتید 0.2500000
that انکه 0.6666667
that ندارید 0.0740741
that این 0.2568543
that شهر 0.0294118
that ‌میرسد 0.3333333
that ملاقاتهای 0.0833333
that درست 0.0378378
that کسی 0.0312500
that انهم 0.2000000
that نمیباشد 0.1666667
that میماند 0.0434783
that بعداز‌ان 0.5000000
that یاد‌دارم 0.2500000
that ندارد 0.0476190
that اینهم 0.2500000
that میشوم 0.0555556
that خوب 0.0030840
that هم 0.0013333
that راه‌حل 0.3333333
that باشد 0.0027778
that گفتید 0.0158730
that شدنمان 0.3333333
that مشکلی 0.0763889
that اشکالی 0.1333333
that انروز 0.2000000
that نداریم 0.1666667
that خواهد 0.0548303
that درنتیجه 0.2000000
that بعدازان 0.2857143
that خوشمزه‌ای 1.0000000
that بشود 0.0952381
that جشنهای 0.1666667
that پس 0.0121951
that ‌ندارد 0.2000000
that ایا 0.0090909
that نمیدانید 0.1666667
that دراینباره 0.3333333
that شانسی 0.3333333
that NULL 0.0199694
that علامت 0.3333333
that بپیوندم 0.3333333
that بجز 0.0384615
that همگی 0.5000000
that دیگر 0.0062500
that حاضر 0.0526316
that . 0.0001399
that برا 1.0000000
that جاییست 1.0000000
that شایدان 0.3333333
that بله 0.0068681
that بستگی 0.0588235
that میبینید 0.0909091
that است 0.0739187
that ایده 0.1967213
that شد 0.0652174
Y NULL 0.0009555
Y وای 0.5000000
E ای 0.1086449
E NULL 0.0075483
E ایی 0.3423729
E , 0.0001605
E وای 0.1071429
E پ 0.0769231
E ار 0.0300000
E ر 0.0169492
E هجی 0.0166667
E کیو 0.0256410
E ل 0.0312500
E ال 0.0035088
Berlin NULL 0.0001911
Berlin پیدا 0.0333333
Berlin هستم 0.0022779
Berlin برلین 0.6571429
Berlin . 0.0001399
Berlin طرح‌ریزی 0.2500000
Berlin یک 0.0010299
Berlin میخواستم 0.0088496
Berlin میکنیم 0.0096154
Berlin خواهم‌بود 0.0500000
seminar باشد 0.0027778
seminar ان‌ 0.1428571
seminar میباشند 0.3333333
seminar سمینار 0.9230769
seminar میدهم 0.0098039
seminar سمینار‌هفتگی 0.2500000
seminar سمیناراخر 0.3333333
seminar ترجیح 0.0113636
choose را 0.0017391
choose کنیم 0.0013643
choose NULL 0.0001911
choose انتخاب 0.0666667
choose کردیم 0.0204082
choose بدهم 0.0270270
choose میتوانی 0.0555556
choose گزینه 0.0909091
choose انتخاب‌ 1.0000000
choose لازم 0.0263158
choose میکنیم 0.0096154
choose بلکه 0.3333333
choose کنید 0.0416667
Whit اینکه 0.0204082
Whit عیدگلریزان 0.2000000
Whit سفید 1.0000000
Whit ویت 0.8888889
Whit بیایید 0.0232558
Whit تعطیلاتی 0.5000000
Whit پنجاهه 0.3333333
Whit عید 0.0789474
compromise NULL 0.0000955
leaving ترک 0.1000000
leaving میکنم 0.0021834
agenda داریم 0.0070423
agenda چیزی 0.0217391
agenda چه 0.0033898
agenda دستور 0.5000000
agenda برنامه‌مان 1.0000000
agenda جلسه 0.0033784
middle اوایل 0.0958904
middle NULL 0.0001911
middle وسط 0.3333333
middle از 0.0005790
middle , 0.0001605
middle اواسط 0.3541667
middle اوسط 0.5000000
middle هفته 0.0011820
middle نیمه 0.0689655
middle است 0.0003228
middle حوش 0.5000000
occupied مشغولم 0.5000000
occupied برخی‌اوقات 0.3333333
occupied هستم 0.0091116
occupied اشغال 0.5000000
occupied شده 0.0222222
occupied مشغول 0.0784314
Stober اقای 0.0086957
Stober استوبر 0.6666667
whenever باشد 0.0027778
whenever هر 0.0192308
whenever هرزمان 0.3333333
whenever میتواند 0.0285714
whenever که 0.0032328
whenever زمانی 0.0041667
exaggerate مبالغه 0.2000000
exaggerate نمیخواهم 0.2000000
exaggerate کنم 0.0042373
pavilions زدن 0.3333333
schedule تنگ 0.3333333
schedule برنامه‌زمانی 0.5000000
schedule مطابقت 0.1250000
schedule فشرده‌ای 0.2941176
schedule هفتگی‌ام 0.5000000
schedule ‌کنیم 0.0185185
schedule بروزرسانی 0.1666667
schedule روزانه 0.2000000
schedule زمان‌بندی 0.4000000
schedule ماهانه 0.3333333
schedule میاید 0.1785714
schedule برنامه 0.2043796
schedule زمانی 0.0083333
schedule بیاندازم 0.2500000
schedule برنامه‌ام 0.3000000
salad سالاد 0.3333333
overlapping برنامه 0.0072993
overlapping مشترکمان 0.0588235
Rutzinger روزتزینگر 1.0000000
Rutzinger روزینگر 0.3333333
applied توبینگن 0.1250000
applied زبانشناسی 1.0000000
applied زبان‌شناسی 1.0000000
some روزها 0.0188679
some برخی 0.8333333
some دارید 0.0196078
some چند 0.1000000
some تفاهم 0.3333333
some بلافاصله 0.0400000
some دیرتر 0.0454545
some در 0.0012158
some یک 0.0319258
some یک‌وقتی 0.2000000
some هیچ 0.0208333
some ‌ان 0.5000000
some مقدار 1.0000000
some چندتا 0.5714286
some بعضی 0.1666667
some داشتید 0.5000000
some ملاقاتهایی 0.2222222
some دیدن 0.2000000
some ساعاتی 0.5000000
some واقعیتی 0.5000000
some میگذاریم 0.1000000
some ایا 0.0030303
some تدارکات 1.0000000
some زمانی 0.0125000
some را 0.0005797
some خواهید 0.0400000
some NULL 0.0009555
some گاهی 0.5000000
some خواهم 0.0071259
some احتمالا 0.0101010
some داشتی 0.3333333
some مقداری 0.2500000
some وقتی 0.0555556
some جدید 0.1666667
some بحث 0.0833333
some مدتی 0.1666667
some روزی 0.0588235
some قولهایی 0.3333333
some تاریخهای 0.0833333
some شما 0.0009597
some یک‌ 0.7500000
some موقع 0.0178571
some نیوبرانزویک 0.1111111
some هم 0.0013333
some نظم 0.2000000
with دارم 0.0018051
with ازمایش 0.2000000
with دارد 0.0070922
with چیزخوبی 0.2500000
with شام 0.0121951
with با 0.2961276
with نمیتوانند 1.0000000
with در 0.0006079
with اکتبر 0.0049261
with خراب 0.1666667
with افتخار 0.1666667
with همکاریتان 0.1666667
with قرارملاقات 0.0166667
with برسد 0.1428571
with اگر 0.0035336
with بهمراه 0.5000000
with امتحان 0.1000000
with انزمان 0.0227273
with میبرد 0.3333333
with مساعد 0.0322581
with همراهم 0.0909091
with باهم 0.0344828
with مشابه 0.1666667
with روبراه 0.1111111
with طی 0.1666667
with هفته 0.0011820
with صرف 0.0175439
with میخواستم 0.0088496
with محدودیتهایی 0.3333333
with همراهی 0.1111111
with میکنید 0.0099010
with میماند 0.0869565
with منظور 0.0625000
with اینده 0.0169492
with شوم 0.1250000
with ندهد 0.5000000
with اینکار 0.2000000
with تاریخهایم 0.2500000
with شرکت 0.0476190
with موافق 0.0303030
with یک 0.0010299
with باشم 0.0181818
with من 0.0003095
with ? 0.0006452
with همراه 0.0666667
with یادداشتتان 0.3333333
with دردسر 0.2500000
with همراهتان 0.0833333
with را 0.0005797
with NULL 0.0029620
with راضی 0.1428571
with کارها 0.0909091
with برای 0.0720545
with داشته 0.0082645
with جهت 0.0666667
with رفت‌وامد‌های 0.5000000
with یادداشتم 0.3333333
with بهتری 0.3333333
with مشکل 0.0088496
with سفر 0.0030030
with صحبت 0.0102041
with وسواس 0.2500000
with یکی 0.0204082
with متعاقبا 0.3333333
with تجاری 0.0119048
with است 0.0012912
partner صحبت 0.0051020
partner NULL 0.0000955
fault اشتباه 0.0370370
fault بربیایم 1.0000000
fault از 0.0005790
fault عهده‌اش 1.0000000
arrangement خاطر 0.0714286
arrangement قرار 0.0021142
arrangement ‌‌‌میکنم 0.2500000
arrangement هفتگی 0.1250000
arrangement ممنونم 0.0769231
arrangement ملاقات 0.0052219
arrangement چیدمان 0.2500000
arrangement به 0.0010493
arrangement قرارملاقات 0.0166667
eat چیزی 0.0217391
eat نباید 0.0344828
eat در 0.0006079
eat صرف 0.0175439
eat غذاهای 0.2500000
eat غذا 0.0625000
eat بخورید 0.5000000
here پیداکردم 0.2000000
here نیستم 0.0202020
here NULL 0.0000955
here , 0.0001605
here با 0.0022779
here نخواهم 0.0350877
here مواجه 0.5000000
here که 0.0010776
here اینجا 0.3095238
here گیر 0.3333333
here اینجاست 0.5000000
here ندرت 0.2500000
here گذاشته 0.1428571
here هستیم 0.0714286
here هم 0.0013333
here خلاصه 0.3333333
wonderful فوق‌العاده‌ای 0.4545455
wonderful میشد 0.0714286
wonderful العاده 0.3333333
wonderful فوق 0.5000000
wonderful عالی 0.2587413
wonderful شگفت‌انگیر 0.5000000
wonderful فوق‌العاده 0.6470588
wonderful شگفت‌انگیز 1.0000000
wonderful است 0.0151711
wonderful خواهد‌بود 0.0243902
wonderful عالیست 0.2500000
wonderful بسیار 0.0037175
wonderful شگفت‌اوری 0.5000000
liked علاقه‌مند 0.2000000
liked هستم 0.0022779
liked به 0.0010493
counterproposal شمارشگر 0.2500000
counterproposal هستم 0.0022779
counterproposal شخصی 0.2500000
counterproposal ودر 1.0000000
All-Saints-Day مسیحی 1.0000000
All-Saints-Day تمامی 0.5000000
All-Saints-Day روز 0.0061824
All-Saints-Day کلیه 0.5000000
All-Saints-Day واقع 0.0200000
All-Saints-Day مقدس 0.0666667
All-Saints-Day انچنان 0.5000000
All-Saints-Day مقدسین 1.0000000
All-Saints-Day به 0.0010493
All-Saints-Day قدیسین 1.0000000
All-Saints-Day روزهای 0.0088496
tuition میبینم 0.0232558
tuition تدریس 0.6666667
motor کنیم 0.0013643
motor برنامه‌ریزی 0.0185185
motor نمایش 0.1428571
motor ‌موتور 1.0000000
unpack ان 0.0007524
unpack مانند 0.2000000
unpack بسته‌بندی 0.5000000
somehow ‌دهیم 0.0833333
somehow جوری 0.1000000
somehow صورتی 0.3333333
somehow دادن 0.0909091
somehow NULL 0.0000955
somehow تاحدی 0.5000000
somehow ترتیبش 0.1666667
somehow یکم 0.0064516
somehow هست 0.0138889
somehow حدودی 1.0000000
somehow جای 0.0555556
somehow کاری 0.0062500
somehow نیز 0.0285714
somehow بطریقی 0.5000000
mourning ملی 0.1666667
solution راه‌ 1.0000000
solution حل 0.3333333
solution راه 0.0833333
solution راه‌حل 0.3333333
choosing برای 0.0004869
choosing انتخاب 0.0166667
choosing ازقبل 0.2000000
choosing میدانی 0.5000000
Benz NULL 0.0000955
partly NULL 0.0000955
concert کنسرتی 0.5000000
impression گمان 0.0714286
impression میکنم 0.0021834
impression گمان‌ 0.3333333
L ای 0.0023364
L ر 0.0169492
L NULL 0.0042996
L دو 0.0065789
L س 0.0454545
L ال 0.4807018
L لوبک 0.2307692
teach درس 0.1428571
teach کند 0.1000000
teach میدهد 0.1250000
real چیزی 0.0217391
set راه‌اندازی 0.5000000
set برای 0.0004869
set خب 0.0053763
house خود 0.0357143
house دعوت‌ 1.0000000
house خانه 0.0625000
house کنم 0.0042373
Sauber سوبر 1.0000000
obvious واضح 0.6666667
obvious این 0.0014430
obvious دفعات 0.2000000
obvious که 0.0010776
obvious باید 0.0013441
Tillmann تیلمن 0.5000000
job انجام 0.0054645
job شغلت 1.0000000
job میدهی 0.2500000
job که 0.0010776
job چیزهایی 0.2000000
Mrs فلکس 0.0384615
Mrs NULL 0.0001911
Mrs پنج 0.0066225
Mrs , 0.0003210
Mrs ولاک 0.1111111
Mrs روزه 0.0136986
Mrs هستم 0.0022779
Mrs خانم 0.7256637
Mrs ان 0.0007524
Mrs سلام 0.0031646
Mrs ساندیز 0.0400000
detail با 0.0022779
detail مورد 0.0217391
detail NULL 0.0000955
detail شویم 0.0833333
detail جزییات 0.1875000
spread کنیم 0.0027285
spread NULL 0.0000955
spread طول 0.0078740
spread روز 0.0015456
spread چند 0.0200000
spread تقسیم 0.6666667
spread با 0.0022779
spread در 0.0006079
spread سپتامبر 0.0074627
spread به 0.0010493
ahead بگیریم 0.0312500
ahead نظر 0.0050251
ahead از 0.0005790
ahead پیش 0.0357143
ahead این 0.0014430
ahead در 0.0012158
ahead ترتیب 0.0140845
ahead ان 0.0007524
ahead رو 0.2500000
ahead بعد 0.0022173
ones روزه‌ها 0.3333333
ones باشند 0.1666667
ones NULL 0.0000955
ones یکروزه 0.0666667
ones جلسات 0.1333333
' ده 0.0086207
' مشفول 0.3333333
' NULL 0.0006688
' دید 0.0666667
' ساعت 0.1762712
' هشت 0.0194175
' دوازده 0.0147059
' بعد 0.0022173
counting دارم 0.0018051
counting میکنم 0.0021834
counting . 0.0001399
counting حساب 0.1000000
glass شراب 0.1666667
glass مشروب 0.1428571
glass فراهم 0.1666667
glass صرف 0.0350877
glass بیاوریم 0.1250000
glass لیوان 0.5714286
given شود 0.0172414
given داده 0.1250000
given به 0.0010493
Doctor دکتر 0.3333333
met کنیم 0.0013643
met NULL 0.0000955
met ملاقات 0.0026110
met جلسه 0.0033784
met داشته‌باشیم 0.0909091
yet کجاست 0.1428571
yet NULL 0.0002866
yet هنوز 0.0617284
yet هماهنگ 0.0178571
yet بیکار 0.0555556
yet نشده 0.1666667
yet داریم 0.0070423
yet دیگر 0.0062500
yet ترتیب 0.0140845
yet زمان 0.0041152
yet هم 0.0026667
yet تقاضای 0.5000000
need تو 0.0069930
need NULL 0.0005733
need پنج 0.0066225
need تمام 0.0061350
need دیگر 0.0312500
need یک 0.0010299
need به 0.0199370
need ‌داریم 0.5000000
need من 0.0003095
need نیاز 0.9444444
need احتیاج 0.6000000
need داریم 0.3169014
need میخواهیم 0.0476190
need لازم 0.3684211
need باید 0.0013441
need کافی 0.0153846
Walberg NULL 0.0009555
Walberg من 0.0003095
Walberg والبرگ 0.3200000
Walberg , 0.0003210
Walberg است 0.0003228
Walberg شما 0.0009597
delicious انجا 0.0172414
delicious شامپاینهای 0.5000000
persist گفتی 0.1111111
persist روی 0.0263158
persist کنم 0.0042373
persist اصرار 0.1428571
persist پس‌فردا 0.3333333
certainly حتما 0.3200000
certainly شدیدا 0.5000000
certainly یکباره 0.1666667
certainly قطعا 0.3571429
certainly عموما 0.1428571
certainly همسرم 0.1666667
certainly مطمینا 0.4666667
certainly کاملا 0.0206897
certainly مشکل 0.0088496
certainly میخواهند 0.3333333
or بیستم 0.0046729
or تو 0.0069930
or بیست 0.0019286
or اگوست 0.0103093
or را 0.0005797
or NULL 0.0014332
or و 0.0086639
or تا 0.0030864
or اوت 0.0082645
or یا 0.8384401
or بیایم 0.0500000
or برای 0.0004869
or چهارم 0.0025907
or . 0.0002798
or گرفتید 0.1666667
or عصر 0.0050761
or خیلی 0.0037736
or بسیار 0.0037175
or چهار 0.0076923
or یااینکه 0.5714286
or منزل 0.0476190
or مترقبه 0.3333333
or امروز 0.0109890
or شش 0.0169492
or وگرنه 0.2727273
or داریم 0.0070423
or اینصورت 0.0714286
or کمابیش 0.3333333
or خانه 0.0625000
or نمیتوانم 0.0156250
or روزهای 0.0088496
wonder ای 0.0035047
wonder در 0.0006079
wonder نمیدانم 0.0106383
wonder چطور 0.0027624
wonder استوکهولم 0.0909091
could اوایل 0.0136986
could ما 0.0025253
could راحتی 0.0714286
could , 0.0001605
could میتوان 0.1666667
could بتوانیم 0.3760684
could کاریمان 0.2500000
could میتواند 0.0571429
could نه 0.0036364
could اگر 0.0035336
could پیشنهاد‌میکنید 0.5000000
could مورد 0.0108696
could میتوانست 0.2500000
could فکر 0.0026316
could میشود 0.0223642
could ایجاد 0.1428571
could میتوانستیم 0.1428571
could بیستم 0.0046729
could کرده‌ایم 0.0526316
could شاید 0.0039683
could این 0.0014430
could ملاقات 0.0026110
could نتوانیم 1.0000000
could ششم 0.0039683
could برایمان 0.1666667
could اما 0.0031056
could سعی 0.0833333
could داد 0.0526316
could میتوانی 0.1111111
could لطفا 0.0303030
could توانستیم 0.5000000
could میتواتیم 0.3333333
could میتوانید 0.2600000
could هم 0.0013333
could بطریقی 0.0714286
could بیست 0.0009643
could مدت 0.0200000
could باشد 0.0027778
could نوزدهم 0.0045045
could بفرمایید 0.2000000
could مارس 0.0061350
could بتوانی 0.2500000
could جمعه 0.0029499
could به 0.0020986
could میدهیم 0.0588235
could کنیم 0.0013643
could پیشنهاد 0.0086022
could عصر‌ 0.2500000
could من 0.0009285
could ? 0.0006452
could ایا 0.0242424
could نیمتوانستم 0.2500000
could بکنم 0.1000000
could را 0.0028986
could NULL 0.0025798
could نمیتوانیم 0.0869565
could داشته‌باشیم 0.0909091
could احتمالا 0.0303030
could قرارمان 0.0500000
could نمیشدم 0.2000000
could پیشنهادی 0.0312500
could بتوانید 0.5555556
could میتوانیم 0.3167587
could بدهد 0.3333333
could سی‌ام 0.0104167
could شما 0.0019194
could هشتم 0.0034130
could میتوانم 0.2616279
could بتوانم 0.1500000
could اشپزی 0.2000000
could برویم 0.0133333
does مناسب 0.0050761
does اینطور 0.0243902
does دارد 0.0141844
does , 0.0003210
does نباشد 0.0212766
does گفت 0.1666667
does هست 0.0138889
does با 0.0022779
does نکشد 0.0666667
does مهم 0.0285714
does زمان 0.0041152
does نیست 0.0675944
does هیچ 0.0208333
does از 0.0005790
does من 0.0009285
does ایا 0.0515152
does درنمیاید 0.3333333
does NULL 0.0009555
does نمیدهد 0.2500000
does راحتید 0.2500000
does برای 0.0004869
does چه‌هنگام 0.2500000
does ان 0.0007524
does وقتی 0.0111111
does مشکل 0.0088496
does اصلا 0.0583942
does ‌میرسد 0.3333333
does مسیله‌ای 0.3333333
does هزینه‌ها 0.5000000
does شما 0.0009597
does همینطور 0.0136986
does ربطی 0.2500000
does نمیتوانم 0.0156250
does مغزم 0.3333333
cup فنجان 0.3461538
cup قهوه 0.0434783
cup چای 0.0714286
missed NULL 0.0000955
duties وظایفتان 0.5000000
playing بازی 0.5000000
else NULL 0.0001911
else من 0.0003095
else فکرکنیم 0.2500000
else هرچیز 0.3333333
else وگرنه 0.3636364
else دیگری 0.0875000
else چه‌چیزی 0.1666667
else دیگر 0.0250000
else اینکه 0.0204082
else چیز 0.1052632
else هفته‌ها 0.0909091
else یک 0.0010299
networks میخواهیم 0.0238095
networks شبکه‌های 0.5000000
networks کامپیوتری 1.0000000
ninth اگوست 0.0103093
ninth درنظرمیگیریم 0.5000000
ninth NULL 0.0010510
ninth ‌نهم 1.0000000
ninth جولای 0.0070423
ninth من 0.0006190
ninth از 0.0005790
ninth , 0.0001605
ninth میماند 0.0434783
ninth جمعه 0.0029499
ninth ونهم 1.0000000
ninth نهم 0.8670520
ninth . 0.0001399
ninth هشت 0.0097087
collecting کاغذهایم 0.2000000
collecting دارم 0.0018051
whereas ‌گرفتن 1.0000000
whereas با 0.0022779
whereas اینکه 0.0204082
whereas نظر 0.0050251
whereas نگهداشته 0.2000000
whereas درحالیکه 1.0000000
lectures کنفرانسها 1.0000000
lectures ‌کنیم 0.0185185
lectures سخنرانیها 0.5000000
everything کنیم 0.0027285
everything امشب 0.3333333
everything انجام‌بدهیم 0.3333333
everything انرمان 0.3333333
everything میتواند 0.0285714
everything همه‌چیز 1.0000000
everything هرچیز 0.3333333
everything پس 0.0030488
everything روبراه 0.1111111
everything در 0.0006079
everything چیز 0.2105263
everything همه 0.1428571
everything گذار 0.2500000
tomorrow دو 0.0032895
tomorrow NULL 0.0007644
tomorrow تا 0.0010288
tomorrow فردای 0.4000000
tomorrow یعنی 0.0140845
tomorrow پنجم 0.0038314
tomorrow ان‌وقت 0.1000000
tomorrow واقع 0.0400000
tomorrow برای 0.0004869
tomorrow چگونه 0.1428571
tomorrow . 0.0001399
tomorrow ساعت 0.0011299
tomorrow به 0.0010493
tomorrow فردا 0.5963855
tomorrow بعد 0.0022173
separate برگزار 0.0166667
separate جداازهم 0.5000000
families خدمت 0.5000000
families خانواده‌هایمان 1.0000000
families باشیم 0.0116279
cancel را 0.0040580
cancel کنیم 0.0027285
cancel NULL 0.0001911
cancel لغو 0.7272727
cancel کنسل 0.1428571
cancel انرا 0.0129870
cancel کنم 0.0211864
cancel کنید 0.0138889
official رسمی 0.2000000
busy مدت 0.0200000
busy هستید 0.1129032
busy ازمایش 0.2000000
busy NULL 0.0002866
busy , 0.0001605
busy هستم 0.0296128
busy خیلی 0.0037736
busy نگهدارم 1.0000000
busy سرم 0.3529412
busy ان‌ 0.1428571
busy دوشنبه‌ 0.2000000
busy شلوغ 0.5333333
busy روز 0.0015456
busy درگیر 0.0454545
busy میتوانم 0.0058140
busy گرفتارم 0.2500000
busy خانم 0.0088496
busy گرفتار 0.3809524
busy مشغول 0.3921569
busy خواهم‌بود 0.0500000
solve برای 0.0004869
solve حل 0.1666667
NULL راغب 1.0000000
NULL مناسب 0.0672589
NULL تفنگ 1.0000000
NULL هست 0.1250000
NULL ب 1.0000000
NULL پیشنهاد‌ 0.0555556
NULL در 0.0680851
NULL اف 0.0254237
NULL بتوانیم 0.0170940
NULL زمان 0.1069959
NULL روی 0.0263158
NULL همه 0.0259740
NULL نیست 0.0516899
NULL صورت 0.1714286
NULL کاملا 0.0620690
NULL اشرافی 1.0000000
NULL تجربه 0.1666667
NULL بردن 1.0000000
NULL نه 0.0727273
NULL بعضی 0.3333333
NULL میایم 0.0666667
NULL تجارت 0.5000000
NULL داشته‌باشم 0.3333333
NULL میشود 0.1277955
NULL میشویم 0.2000000
NULL بیستم 0.0280374
NULL تو 0.0699301
NULL چی 0.1666667
NULL ممنون 0.1071429
NULL رفت 0.1333333
NULL و 0.0446876
NULL تاریخ 0.0333333
NULL میزنم 0.1250000
NULL ساجرر 1.0000000
NULL تایید 1.0000000
NULL دی 0.0206897
NULL روزه 0.1095890
NULL بگذاز 1.0000000
NULL میکنم 0.0502183
NULL بداند 0.1666667
NULL همان 0.0322581
NULL دهیم 0.1012658
NULL میخواستم 0.0265487
NULL بعد 0.0776053
NULL تعویق 0.0909091
NULL بدهید 0.0322581
NULL بر 0.0869565
NULL نیامیر 0.1111111
NULL مراسم 1.0000000
NULL همدیگر 0.0584795
