para
average
2.8613*1.69861 2.25732*1.64998 2.57738*1.79341 3.02805*2.14832 3.59371*2.55649 4.11675*2.9173 4.58881*3.18497 4.99635*3.46194 5.38277*3.7807 3.24536*2.08664 
variance
2.9339*1.70618 2.31919*1.51342 2.27759*1.55276 2.41906*2.00506 2.87328*2.55855 3.39575*3.0515 3.92573*3.49319 4.44535*3.96676 4.96542*4.44565 3.20106*2.33214 
non-para
1 ||| 1:0.549695*0.762521 , 2:0.0990391*0.077913 , 3:0.061055*0.0513497 , 4:0.0644329*0.0415328 , 5:0.0594804*0.0258883 , 6:0.0448307*0.0148475 , 7:0.0347604*0.00722951 , 8:0.0423717*0.00482872 , 9:0.0168544*0.00456251 , 10:0.00614954*0.0035621 , 11:0.0024992*0.00185169 , 12:0.00449693*0.000898757 , 13:0.00415863*0.00113472 , 14:0.00119114*0.0005595 , 15:0.00225386*0.00046459 , 16:0.0019868*0.000430972 , 17:0.00285*7.86552e-05 , 18:0*0.000251697 , 19:0*3.14621e-05 , 20:0*0 , 21:0*0 , 22:0*0 , 23:0.000947311*0 , 24:0.000947311*0 , 25:0*6.29241e-05 , 26:0*0 , 
2 ||| 1:0.606972*0.74019 , 2:0.138631*0.107404 , 3:0.0740796*0.0576724 , 4:0.0479366*0.0406928 , 5:0.0365604*0.0217592 , 6:0.0283644*0.0123685 , 7:0.0229554*0.00808262 , 8:0.0186826*0.00326483 , 9:0.00761018*0.00316093 , 10:0.00595255*0.00193574 , 11:0.00330829*0.001131 , 12:0.00305585*0.000637559 , 13:0.00050917*0.000741829 , 14:0.00162865*0.000280465 , 15:0.000478341*0.000284457 , 16:0.00105914*4.20379e-05 , 17:0.00154154*2.3667e-05 , 18:1.89476e-05*6.8353e-05 , 19:2.90126e-05*0.0001708 , 20:7.39649e-05*5.29612e-06 , 21:7.26538e-05*0 , 22:6.93985e-05*0 , 23:0.000137575*0 , 24:0.000272795*0 , 25:0*8.40759e-05 , 26:0*0 , 
3 ||| 1:0.44756*0.687779 , 2:0.201568*0.115977 , 3:0.121922*0.0714238 , 4:0.0761621*0.0533118 , 5:0.0515737*0.032379 , 6:0.0359297*0.0163091 , 7:0.0243803*0.0104113 , 8:0.0149956*0.00597095 , 9:0.00877381*0.00279937 , 10:0.00609757*0.00191296 , 11:0.00306932*0.000606946 , 12:0.00216436*0.000574239 , 13:0.000632598*0.000328677 , 14:0.0017864*7.92702e-05 , 15:0.000404839*3.38709e-05 , 16:0.00137672*1.4613e-08 , 17:0.000799196*0 , 18:2.67914e-05*0 , 19:6.27179e-05*7.40951e-05 , 20:0.000137207*2.83957e-05 , 21:0.000136001*0 , 22:6.38024e-05*0 , 23:0.000126481*0 , 25:0*0 , 26:0*0 , 24:0.000250798*0 , 
4 ||| 1:0.371715*0.632561 , 2:0.176396*0.10261 , 3:0.120448*0.0757932 , 4:0.108765*0.0624557 , 5:0.0743834*0.0454178 , 6:0.0509687*0.029774 , 7:0.03729*0.0214973 , 8:0.0234162*0.0125659 , 9:0.0152208*0.00779709 , 10:0.00942345*0.00450884 , 11:0.00507869*0.00210908 , 12:0.00261231*0.00143814 , 13:0.0014488*0.000789269 , 14:0.00116524*0.000319343 , 15:0.000824084*0.000159633 , 16:0.000338181*1.80586e-05 , 17:0.000193648*9.0496e-05 , 18:1.29931e-05*0 , 19:5.45698e-05*2.87762e-05 , 20:0.000103715*2.87762e-05 , 21:0.000124488*3.83682e-05 , 22:7.10426e-08*0 , 23:0*0 , 26:4.20682e-06*0 , 25:4.20682e-06*0 , 27:8.41363e-06*0 , 
5 ||| 1:0.332479*0.596892 , 2:0.145764*0.0913942 , 3:0.106436*0.0661865 , 4:0.102834*0.057801 , 5:0.0886315*0.0502891 , 6:0.062*0.038126 , 7:0.0539688*0.0344102 , 8:0.0368001*0.0225995 , 9:0.0264664*0.0163606 , 10:0.0166083*0.0106654 , 11:0.010585*0.00557016 , 12:0.00755409*0.00381962 , 13:0.00471337*0.00254589 , 14:0.00219516*0.00139778 , 15:0.00136021*0.000992868 , 16:0.000940549*0.000208958 , 17:0.000258788*0.000557719 , 18:8.59045e-05*1.12809e-05 , 19:0.000102223*1.0248e-05 , 20:5.80631e-05*1.78951e-07 , 21:6.02e-05*0.000159759 , 22:4.50218e-06*1.49137e-06 , 23:1.90903e-07*0 , 25:1.77641e-05*0 , 26:2.34163e-05*0 , 27:4.11804e-05*0 , 28:1.13044e-05*0 , 
6 ||| 1:0.316393*0.578293 , 2:0.130252*0.0840045 , 3:0.0879462*0.0582475 , 4:0.0932671*0.0496086 , 5:0.082442*0.0470461 , 6:0.0641538*0.0376131 , 7:0.0580125*0.0396712 , 8:0.0467686*0.0299976 , 9:0.0378224*0.0245764 , 10:0.026304*0.0171002 , 11:0.0183198*0.0115909 , 12:0.0143243*0.00844716 , 13:0.00994093*0.00513131 , 14:0.00489068*0.0037464 , 15:0.0039115*0.00218624 , 16:0.00247948*0.00102851 , 17:0.00109442*0.00139037 , 18:0.000556186*0.000114056 , 19:0.000465775*0.000103369 , 20:0.000240243*6.22694e-05 , 21:6.54261e-05*2.14227e-05 , 22:5.44859e-05*1.89152e-05 , 23:4.68369e-06*2.14149e-07 , 25:4.64038e-05*6.41285e-08 , 27:0.00011845*0 , 28:5.20942e-05*0 , 24:1.44998e-06*0 , 26:7.22755e-05*0 , 
7 ||| 1:0.305984*0.573831 , 2:0.122181*0.080863 , 3:0.0765577*0.0543845 , 4:0.0874207*0.0422153 , 5:0.0750247*0.0415193 , 6:0.0615504*0.0340185 , 7:0.0543838*0.0347817 , 8:0.0496946*0.0324657 , 9:0.040377*0.0286444 , 10:0.033601*0.0192615 , 11:0.0257374*0.0170933 , 12:0.0207552*0.0137152 , 13:0.0149827*0.00851477 , 14:0.00870076*0.00698684 , 15:0.00848728*0.00437159 , 16:0.00531002*0.00302756 , 17:0.00294732*0.00261849 , 18:0.00214227*0.000562887 , 19:0.00163844*0.000532068 , 20:0.00107727*0.00037831 , 21:0.000423435*9.1609e-05 , 22:0.000263343*0.000112745 , 23:5.70639e-05*5.41771e-06 , 24:2.61231e-05*5.74532e-07 , 25:9.95541e-05*3.2932e-06 , 26:0.000169494*0 , 27:0.000264667*0 , 28:0.000142759*0 , 29:0*0 , 
8 ||| 1:0.295105*0.571019 , 2:0.122956*0.078132 , 3:0.0742802*0.0498817 , 4:0.0836257*0.0372901 , 5:0.0702315*0.0387235 , 6:0.0541396*0.0319577 , 7:0.0493422*0.0303599 , 8:0.0459154*0.0289634 , 9:0.0373761*0.0289765 , 10:0.0375377*0.0201899 , 11:0.028335*0.0195551 , 12:0.0269224*0.0170959 , 13:0.0183942*0.0125729 , 14:0.0124635*0.010515 , 15:0.0134762*0.00774756 , 16:0.00834012*0.00629126 , 17:0.00577437*0.00500264 , 18:0.005175*0.00186712 , 19:0.00342417*0.00165582 , 20:0.0030755*0.00132687 , 21:0.00153388*0.000343824 , 22:0.000721079*0.000425302 , 23:0.000376566*5.81594e-05 , 24:0.000191294*1.03162e-05 , 25:0.000182083*3.79703e-05 , 26:0.000329265*6.34421e-07 , 27:0.000478004*0 , 28:0.000297476*0 , 29:0*0 , 
9 ||| 1:0.284072*0.558707 , 2:0.125269*0.0772333 , 3:0.0752678*0.0479471 , 4:0.0837712*0.0356553 , 5:0.0680498*0.0379371 , 6:0.0455536*0.0339908 , 7:0.0441828*0.0277252 , 8:0.0381119*0.0238256 , 9:0.0351234*0.0263747 , 10:0.0403421*0.0205017 , 11:0.0289153*0.0192896 , 12:0.0277675*0.0188556 , 13:0.0197332*0.015977 , 14:0.0156564*0.0130394 , 15:0.0170438*0.011061 , 16:0.0104737*0.0102544 , 17:0.00909549*0.00815269 , 18:0.0100546*0.0041911 , 19:0.00532446*0.00369872 , 20:0.00624291*0.00293974 , 21:0.00393396*0.000790244 , 22:0.00150566*0.00122156 , 23:0.00153436*0.000310507 , 24:0.000811172*8.21171e-05 , 25:0.000337526*0.000225814 , 26:0.000586392*1.09173e-05 , 27:0.000767915*0 , 28:0.000471958*0 , 29:0*0 , 33:0*1.7977e-06 , 
10 ||| 1:0.277068*0.538978 , 2:0.124156*0.0774743 , 3:0.0769714*0.0491693 , 4:0.0855403*0.0367053 , 5:0.0707601*0.0393578 , 6:0.0433302*0.0391825 , 7:0.0415437*0.026433 , 8:0.0315679*0.0206001 , 9:0.0314663*0.0241907 , 10:0.041537*0.0185122 , 11:0.0281913*0.0173626 , 12:0.0191659*0.0199453 , 13:0.0175737*0.0180978 , 14:0.0183033*0.0123977 , 15:0.0170555*0.0129688 , 16:0.0108266*0.0134165 , 17:0.0114853*0.0100787 , 18:0.0161146*0.0067738 , 19:0.00703154*0.00670859 , 20:0.0102972*0.00479889 , 21:0.0076474*0.00151908 , 22:0.00238619*0.00296665 , 23:0.00418554*0.00100714 , 24:0.0022827*0.00038659 , 25:0.000725286*0.000850996 , 26:0.00101699*8.51883e-05 , 27:0.00119058*0 , 28:0.00057866*0 , 33:0*3.23957e-05 , 
