
\data\
ngram 1=3521
ngram 2=23923
ngram 3=9515

\1-grams:
-1.516993	,	-0.7098171
-4.238669	-کویل	-0.1343337
-1.503475	.	-1.072953
-4.113178	1993	-0.1343337
-4.113178	1994	-0.1343337
-4.238669	1995	-0.1343337
-3.727249	:	-0.1343337
-2.312553	</s>
-99	<s>	-1.134055
-4.380214	<unk>
-1.945073	?	-1.353207
-4.238669	v	-0.1343337
-3.08916	ا	-0.2166862
-3.504741	ابتدا	-0.1343337
-3.217958	ابتدای	-0.3900776
-4.238669	ابتدای‌	-0.1343337
-4.238669	ابجو	-0.1343337
-4.113178	ابدا	-0.1343337
-4.113178	ابلیتنر	-0.1343337
-4.238669	ابلینتر	-0.1343337
-4.238669	اتاق	-0.1343337
-4.113178	اتاقها	-0.1343337
-4.238669	اتاقهایمان	-0.1343337
-4.238669	اتحاد	-0.1343337
-3.983843	اتفاق	-0.1343337
-4.238669	اتفاقا	-0.1343337
-4.238669	اتفاقی	-0.1343337
-3.983843	اتی	-0.1343337
-4.113178	اجاره	-0.1343337
-3.24903	اجازه	-0.515958
-3.567041	اجازه‌	-0.5001447
-4.113178	اجازه‌بدهید	-0.1343337
-4.238669	اجازه‌دهید	-0.1343337
-4.238669	اجاز‌ه	-0.1343337
-4.113178	اجتناب	-0.1343337
-4.238669	اجرایی	-0.1343337
-4.238669	اجمالی	-0.1343337
-4.113178	احتمال	-0.1343337
-2.989951	احتمالا	-0.1860481
-4.113178	احتمالی	-0.1343337
-3.504741	احتیاج	-0.437661
-4.238669	احتیاجی	-0.1343337
-4.238669	احتیاط	-0.1343337
-4.238669	احساس	-0.1343337
-4.113178	احساسی	-0.1343337
-4.238669	احوال	-0.1343337
-3.727249	اختصاص	-0.1838461
-4.238669	اختصاص‌	-0.1343337
-4.113178	اختیار	-0.1343337
-2.530731	اخر	-0.52837
-3.1362	اخرهفته	-0.1866183
-3.983843	اخرهفته‌ها	-0.1343337
-4.113178	اخرهفته‌های	-0.1343337
-4.238669	اخرهفته‌هایی	-0.1343337
-3.217958	اخرین	-0.2141045
-4.238669	اخر‌	-0.1343337
-3.188961	اخر‌هفته	-0.1952298
-4.113178	اخر‌هفته‌ها	-0.1343337
-4.238669	اخر‌هفته‌های	-0.1343337
-3.983843	اخیرا	-0.1343337
-4.113178	اداره	-0.1343337
-3.983843	اداری	-0.1343337
-3.504741	ادامه	-0.1897128
-4.238669	ادامه‌دهیم	-0.1343337
-4.113178	ادرس	-0.2706361
-3.983843	ادغام	-0.1343337
-4.113178	ادغام‌	-0.2706361
-4.238669	ادم	-0.1343337
-3.983843	ادوارد	-0.2202974
-4.238669	ادولمی	-0.1343337
-3.836865	ادونت	-0.1611411
-4.238669	ادینه	-0.1343337
-3.24903	ار	-0.2031867
-4.238669	ارام	-0.1343337
-4.238669	ارامی	-0.1343337
-4.238669	ارایشگاه	-0.1343337
-3.983843	ارتباط	-0.1343337
-3.983843	ارتباطات	-0.2202974
-4.113178	ارتباطی	-0.1343337
-4.238669	ارزش	-0.1343337
-4.238669	ارزشی	-0.1343337
-4.238669	ارزو	-0.1343337
-4.113178	ارزیابی	-0.1343337
-4.238669	ارفورت	-0.1343337
-4.238669	ارندت	-0.1343337
-1.992347	از	-0.5782555
-2.385454	ازاد	-0.581746
-4.238669	ازاداست	-0.1343337
-4.238669	ازادخواهم	-0.1343337
-4.113178	ازادم	-0.2706361
-4.113178	ازادی	-0.1343337
-4.238669	ازاد‌بودن	-0.1343337
-4.238669	ازاردهنده	-0.1343337
-4.238669	ازظهر	-0.1343337
-4.113178	ازقبل	-0.1343337
-4.238669	ازمایش	-0.1343337
-4.113178	از‌ان	-0.1343337
-4.238669	از‌طرف‌دیگر	-0.1343337
-4.238669	از‌قبل	-0.1343337
-4.238669	از‌‌	-0.1343337
-3.16178	اس	-0.2624274
-3.727249	اساسا	-0.1751921
-4.238669	اساسی	-0.1343337
-4.113178	اسامپشن	-0.2202974
-3.983843	اسان	-0.1343337
-4.238669	اسانتر	-0.1343337
-4.238669	اسانی	-0.1343337
-1.853145	است	-0.8833407
-4.238669	استار	-0.1343337
-4.238669	استثنایا	-0.1343337
-4.238669	استر	-0.1343337
-3.836865	استراحت	-0.1343337
-4.238669	استراحتگاه	-0.1343337
-4.238669	استراسی	-0.1343337
-4.238669	استرانسر	-0.1343337
-4.238669	استرایس	-0.1343337
-4.238669	استرس	-0.1343337
-4.238669	استرسی	-0.1343337
-4.113178	استرمن	-0.1343337
-4.238669	استعداد	-0.1343337
-3.983843	استفاده	-0.1343337
-4.238669	استفس	-0.1343337
-4.238669	استقبال	-0.1343337
-4.113178	استوبر	-0.1343337
-4.238669	استون	-0.1343337
-3.836865	استوکهولم	-0.1583847
-3.727249	استکهلم	-0.1343337
-4.238669	استیتلن	-0.1343337
-4.238669	استیلن	-0.1343337
-4.238669	اسرع	-0.1343337
-4.238669	اسشیندل	-0.1343337
-4.238669	اسلاید	-0.1343337
-4.238669	اسلایدها	-0.1343337
-4.238669	اسلایدهای	-0.1343337
-3.112044	اسم	-0.3711677
-4.238669	اسمان	-0.1343337
-4.238669	اسمت	-0.1343337
-3.567041	اسمتان	-0.5001446
-4.238669	اسمش	-0.1343337
-3.983843	اسمم	-0.3071802
-4.238669	اسممن	-0.1343337
-4.238669	اسمهایمان	-0.1343337
-4.238669	اسنابراخن	-0.1343337
-4.238669	اسنابراک	-0.1343337
-4.238669	اسوده‌خاطر	-0.1343337
-4.113178	اسکات‌مه‌یر	-0.1343337
-4.238669	اسکان	-0.1343337
-4.113178	اشاره	-0.2706361
-3.401871	اشتباه	-0.2280708
-4.113178	اشتباهی	-0.1343337
-4.113178	اشتوتگارت	-0.1343337
-4.238669	اشراف	-0.1343337
-4.238669	اشرافی	-0.1343337
-4.238669	اشعه	-0.1343337
-4.238669	اشغال	-0.1343337
-4.113178	اشلور	-0.1343337
-4.238669	اشلور-کویل	-0.1343337
-4.238669	اشلیچر	-0.1343337
-4.238669	اشماخ	-0.1343337
-3.727249	اشمیت	-0.1751921
-4.113178	اشمیتز	-0.1343337
-4.113178	اشمید	-0.1343337
-4.113178	اشنایدر	-0.1343337
-4.238669	اشنا‌شدن	-0.1343337
-4.238669	اشنیدل	-0.1343337
-4.113178	اشورین	-0.1343337
-4.113178	اشویکل	-0.1343337
-4.113178	اشپزی	-0.1343337
-4.238669	اشپزی‌	-0.1343337
-3.836865	اشکالی	-0.432119
-4.113178	اشکالی‌	-0.2706361
-4.113178	اشکلور-کویل	-0.1343337
-4.238669	اشیندل	-0.1343337
-3.983843	اصرار	-0.1343337
-4.238669	اصل	-0.1343337
-2.760946	اصلا	-0.4537619
-4.238669	اصلاح	-0.1343337
-4.238669	اصلاح‌کردن	-0.1343337
-4.238669	اصلی	-0.1343337
-4.113178	اصولا	-0.1343337
-4.238669	اصولی	-0.1343337
-3.983843	اضافه	-0.1343337
-4.238669	اضافی	-0.1343337
-4.113178	اطراف	-0.1343337
-4.113178	اطلاع	-0.1343337
-4.113178	اطلاعات	-0.1343337
-4.113178	اطلاع‌	-0.1343337
-3.983843	اطمینان	-0.1343337
-4.238669	اعتراض	-0.1343337
-4.238669	اعتراف	-0.1343337
-4.238669	اغار	-0.1343337
-3.504741	اغاز	-0.1990895
-4.113178	اغازین	-0.1343337
-4.238669	اغاز‌	-0.1343337
-4.238669	اغراق‌امیز	-0.1343337
-3.983843	اغلب	-0.1343337
-3.24903	اف	-0.2471381
-4.238669	افتاده	-0.1343337
-3.983843	افتخار	-0.1343337
-3.983843	افراد	-0.1343337
-4.238669	افرادم	-0.1343337
-4.113178	افزایش	-0.1343337
-4.238669	اقا	-0.1343337
-4.238669	اقامت	-0.1343337
-3.401871	اقای	-0.1976387
-3.983843	اقدام	-0.2202974
-4.238669	اقرا‌ر	-0.1343337
-4.238669	اقرا‌ر‌	-0.1343337
-4.238669	اقلا	-0.1343337
-3.008063	ال	-0.4456343
-4.238669	الا	-0.1343337
-4.238669	الااوف	-0.1343337
-3.24903	الان	-0.1798831
-3.450268	البته	-0.2085051
-4.113178	البرت	-0.1343337
-4.113178	البیتنر	-0.1343337
-4.238669	البینتر	-0.1343337
-3.836865	الساعه	-0.1343337
-4.238669	العاده	-0.1343337
-4.238669	الفبای	-0.1343337
-4.238669	القدس	-0.1343337
-3.504741	المان	-0.1343337
-4.238669	المانی‌ها	-0.1343337
-4.238669	المانی‌هاست	-0.1343337
-4.238669	المللی	-0.1343337
-4.238669	المپیک	-0.1343337
-4.113178	الن	-0.1343337
-4.238669	الیتنر	-0.1343337
-3.16178	ام	-0.3204194
-2.989951	اما	-0.2187659
-3.217958	اماده	-0.2356952
-4.238669	اماده‌ام	-0.1343337
-4.238669	اماده‌سازی	-0.1343337
-3.727249	امادگی	-0.3371529
-4.238669	امادگیها	-0.1343337
-3.836865	امتحان	-0.2296183
-4.238669	امتناع	-0.1343337
-3.727249	امد	-0.2001962
-4.238669	امدن	-0.1343337
-4.238669	امده	-0.1343337
-4.238669	امده‌اند	-0.1343337
-4.238669	امر	-0.1343337
-2.894758	امروز	-0.2153161
-3.450268	امسال	-0.1343337
-4.238669	امستردام	-0.1343337
-4.113178	امشب	-0.1343337
-4.113178	امنیتی	-0.1343337
-4.238669	امور	-0.1343337
-4.238669	اموزان	-0.1343337
-4.113178	اموزش	-0.1343337
-3.836865	اموزشی	-0.1343337
-2.972565	امکان	-0.5073553
-3.358331	امکانش	-0.4738432
-3.567041	امکانپذیر	-0.241621
-4.238669	امکانی	-0.1343337
-4.238669	امکان‌	-0.1343337
-2.740496	امکان‌پذیر	-0.6480287
-4.238669	امکان‌پذیراست	-0.1343337
-4.113178	امکان‌‌پذیر	-0.1343337
-4.238669	امکا‌ن‌پذیر	-0.1343337
-4.238669	امید	-0.1343337
-3.983843	امیدوارم	-0.1751921
-4.238669	امیدواریم	-0.1343337
-2.076738	ان	-0.3976219
-3.188961	انتخاب	-0.2476262
-3.983843	انتخاب‌	-0.1343337
-3.639799	انتظار	-0.1343337
-4.238669	انتظارش	-0.1343337
-4.238669	انتها	-0.1343337
-4.238669	انتهای	-0.1343337
-2.92423	انجا	-0.1932642
-4.113178	انجاست	-0.1343337
-2.524613	انجام	-0.4994326
-3.727249	انجامش	-0.3540166
-4.238669	انجامم	-0.1343337
-3.450268	انجام‌	-0.3665598
-4.238669	انجام‌بدهیم	-0.1343337
-4.238669	انجام‌دادن	-0.1343337
-4.113178	انجام‌دادیم	-0.1343337
-4.113178	انجام‌دهیم	-0.2706361
-4.113178	انجایی	-0.2706361
-4.113178	انجاییکه	-0.1542826
-4.238669	انداخت	-0.1343337
-4.238669	انداختم	-0.1343337
-4.238669	اندازم	-0.1343337
-4.113178	اندازه	-0.1343337
-4.238669	اندازیم	-0.1343337
-4.238669	اندره	-0.1343337
-4.238669	اندکی‌	-0.1343337
-2.894758	انرا	-0.2508024
-4.238669	انرمان	-0.1343337
-4.238669	انرو	-0.1343337
-4.113178	انروز	-0.1343337
-3.188961	انزمان	-0.2240096
-4.238669	انضمام	-0.1343337
-4.238669	انطور	-0.1343337
-4.113178	انعطاف	-0.1343337
-4.113178	انعطاف‌پذیر	-0.1343337
-3.401871	انقدر	-0.2304302
-4.113178	انقدرها	-0.2706361
-2.92423	انموقع	-0.2746136
-2.92423	انها	-0.3101745
-4.238669	انهای	-0.1343337
-4.238669	انهایی	-0.1343337
-4.113178	انهم	-0.1343337
-2.939752	انوقت	-0.2373014
-4.238669	انوقع	-0.1343337
-4.238669	انچنان	-0.1343337
-3.836865	انچه	-0.1751921
-4.113178	انکه	-0.1343337
-4.238669	انگار	-0.1343337
-3.983843	انگاه	-0.1751921
-3.450268	انگلیسی	-0.2873785
-3.983843	ان‌	-0.1343337
-4.238669	ان‌را	-0.1343337
-4.113178	ان‌زمان	-0.1343337
-3.026962	ان‌موقع	-0.2437817
-4.238669	ان‌هفته	-0.1343337
-4.113178	ان‌هنگام	-0.1343337
-3.639799	ان‌وقت	-0.1343337
-4.113178	ان‌‌موقع	-0.1343337
-4.113178	ان‌‌وقت	-0.1343337
-4.238669	اه	-0.1343337
-4.238669	اهان	-0.1343337
-4.238669	اهسته	-0.1343337
-4.238669	اهل	-0.1343337
-3.836865	اهمیت	-0.1343337
-3.983843	اهمیتی	-0.1343337
-3.282498	او	-0.1948449
-3.318761	اواخر	-0.171909
-4.238669	اواس	-0.1343337
-3.24903	اواسط	-0.2814033
-3.112044	اوایل	-0.2922229
-4.238669	اوبراوهنبرگر	-0.1343337
-2.939752	اوت	-0.3085358
-4.238669	اوردن	-0.1343337
-4.113178	اورده	-0.1343337
-4.238669	اوردیم	-0.1343337
-2.816725	اوریل	-0.3496765
-4.238669	اوسط	-0.1343337
-4.113178	اوضاع	-0.1343337
-4.113178	اوقات	-0.1343337
-2.562687	اول	-0.4110233
-4.238669	اولا	-0.1343337
-4.238669	اولش	-0.1343337
-4.113178	اولف	-0.1343337
-4.238669	اولمان	-0.1343337
-4.238669	اولویتی	-0.1343337
-3.983843	اولی	-0.1343337
-2.894758	اولین	-0.3948268
-4.238669	اولین‌بار	-0.1343337
-3.727249	اولیه	-0.1933087
-4.238669	اولیور	-0.1343337
-4.238669	اون	-0.1343337
-4.113178	اوه	-0.2397384
-3.983843	اوپرمن	-0.2202974
-4.113178	اوپنیدر	-0.1343337
-4.238669	اوگی	-0.1343337
-4.238669	اوی	-0.1343337
-4.238669	اپیفنی	-0.1343337
-3.504741	اچ	-0.2162369
-2.816725	اکتبر	-0.3362712
-4.238669	اکس	-0.1343337
-3.504741	اکنون	-0.1611411
-4.238669	اگ	-0.1343337
-4.238669	اگاه	-0.1343337
-4.238669	اگاه‌تر	-0.1343337
-4.238669	اگای	-0.1343337
-2.720967	اگر	-0.2944576
-4.238669	اگرامکان‌پذیر	-0.1343337
-4.238669	اگرعصر	-0.1343337
-4.113178	اگرچه	-0.1751921
-4.238669	اگر‌چه	-0.1343337
-4.113178	اگوسبرگ	-0.2706361
-2.955849	اگوست	-0.3061927
-2.634656	ای	-0.4260956
-3.16178	ایا	-0.2111239
-4.238669	ایام	-0.1343337
-4.238669	ایامثل	-0.1343337
-4.238669	ایبرل	-0.1343337
-4.238669	ایتالیا	-0.1343337
-4.238669	ایتدا	-0.1343337
-4.113178	ایجاد	-0.1343337
-3.836865	اید	-0.1838461
-3.318761	ایده	-0.2660297
-3.983843	ایده‌ال	-0.3071802
-4.113178	ایده‌ای	-0.1343337
-4.238669	ایرادی	-0.1343337
-4.238669	ایسان	-0.1343337
-3.836865	ایستر	-0.1343337
-4.113178	ایستگاه	-0.1343337
-4.113178	ایشان	-0.1343337
-3.639799	ایم	-0.3087996
-4.238669	ایمار	-0.1343337
-2.29074	این	-0.3811757
-3.983843	اینا	-0.2202974
-3.026962	اینجا	-0.2816642
-4.238669	اینجادور	-0.1343337
-4.238669	اینجاست	-0.1343337
-4.113178	اینجوری	-0.1343337
-4.238669	اینحال	-0.1343337
-3.358331	اینده	-0.1575877
-4.238669	اینرو	-0.1343337
-3.727249	اینست	-0.3540166
-3.836865	اینصورت	-0.1343337
-3.318761	اینطور	-0.1905041
-3.836865	اینطوری	-0.1971594
-4.238669	اینقدر	-0.1343337
-4.238669	اینقدرها	-0.1343337
-3.639799	اینها	-0.1646115
-4.113178	اینهم	-0.2706361
-4.238669	اینکار	-0.1343337
-3.067423	اینکه	-0.1834792
-3.836865	اینگونه	-0.1838461
-4.113178	این‌بار	-0.1343337
-4.238669	این‌صورت	-0.1343337
-3.567041	ایچ	-0.2093582
-3.983843	ایکس	-0.2571066
-3.1362	ایی	-0.3671134
-4.113178	ب	-0.1343337
-2.154845	با	-0.5486971
-4.238669	بااینکه	-0.1343337
-4.238669	بااین‌وجود	-0.1343337
-3.727249	بابت	-0.1343337
-3.450268	بار	-0.2143406
-4.113178	باره	-0.1343337
-4.238669	باره‌	-0.1343337
-4.238669	باری	-0.1343337
-3.24903	باز	-0.3049823
-4.113178	بازبینی	-0.1343337
-3.983843	بازدید	-0.1343337
-4.238669	بازدیدمان	-0.1343337
-4.238669	بازدیدهای	-0.1343337
-4.238669	بازدیدکننده	-0.1343337
-3.282498	بازهم	-0.151376
-4.238669	بازگو	-0.1343337
-4.238669	بازی	-0.1343337
-4.238669	باز‌هم	-0.1343337
-2.323885	باشد	-0.7906501
-3.1362	باشم	-0.6298013
-3.983843	باشند	-0.2706361
-3.639799	باشه	-0.245277
-3.836865	باشی	-0.1971594
-3.358331	باشید	-0.3053113
-3.112044	باشیم	-0.5284795
-3.836865	باعث	-0.1838461
-3.318761	باقی	-0.3337881
-3.836865	باقیمانده	-0.1343337
-4.238669	باقی‌	-0.1343337
-4.113178	بالاخره	-0.1343337
-4.238669	بامن	-0.1343337
-4.238669	بان	-0.1343337
-4.238669	باندزبان	-0.1343337
-4.113178	بانش	-0.2202974
-4.238669	بانضمام	-0.1343337
-3.16178	باهم	-0.1994333
-4.238669	باوجود	-0.1343337
-4.238669	باورتان	-0.1343337
-4.238669	باور‌	-0.1343337
-4.238669	باچه	-0.1343337
-2.376723	باید	-0.3405539
-4.238669	بایریچر	-0.1343337
-3.639799	بایستی	-0.1343337
-3.639799	با‌هم	-0.1751921
-3.836865	ببخشید	-0.2578273
-3.188961	ببینم	-0.3411091
-4.238669	ببینید	-0.1343337
-2.92423	ببینیم	-0.6062468
-4.238669	بتلینر	-0.1343337
-4.113178	بتواند	-0.1343337
-3.504741	بتوانم	-0.1343337
-4.238669	بتوانند	-0.1343337
-4.238669	بتوانی	-0.1343337
-4.113178	بتوانید	-0.1691145
-3.112044	بتوانیم	-0.2157257
-3.450268	بجز	-0.1343337
-4.238669	بحال	-0.1343337
-3.639799	بحث	-0.2409478
-4.238669	بحثی	-0.1343337
-4.238669	بحث‌	-0.1343337
-4.238669	بحث‌شود	-0.1343337
-3.318761	بخاطر	-0.2312947
-4.238669	بخاطراینکه	-0.1343337
-4.113178	بخرم	-0.2706361
-4.113178	بخش	-0.1343337
-4.238669	بخشید	-0.1343337
-4.113178	بخصوص	-0.1343337
-4.113178	بخوابم	-0.2706361
-4.238669	بخواهد	-0.1343337
-3.727249	بخواهم	-0.1343337
-3.836865	بخواهید	-0.1971594
-4.113178	بخواهیم	-0.1343337
-3.450268	بخوبی	-0.1715305
-4.238669	بخورم	-0.1343337
-4.238669	بخورید	-0.1343337
-3.450268	بخوریم	-0.3398306
-4.238669	بخیر	-0.1343337
-2.894758	بد	-0.4443138
-4.238669	بداریم	-0.1343337
-4.238669	بداز	-0.1343337
-4.238669	بداست	-0.1343337
-3.983843	بداند	-0.2202974
-3.727249	بدانم	-0.1971594
-4.238669	بدتر	-0.1343337
-4.113178	بدست	-0.1343337
-4.113178	بدست‌	-0.2706361
-4.238669	بدل	-0.1343337
-4.238669	بدلیل	-0.1343337
-4.238669	بدن	-0.1343337
-4.238669	بدنبال	-0.1343337
-4.238669	بده	-0.1343337
-4.238669	بدهد	-0.1343337
-3.282498	بدهم	-0.4552522
-4.113178	بدهی	-0.2706361
-3.318761	بدهید	-0.2347926
-3.188961	بدهیم	-0.3913921
-3.567041	بدون	-0.1691145
-4.238669	بدون‌	-0.1343337
-3.836865	بدی	-0.2706361
-3.639799	بدین	-0.3087995
-4.238669	بدینسان	-0.1343337
-4.113178	بدینگونه	-0.1343337
-3.24903	بر	-0.2684405
-4.238669	برا	-0.1343337
-4.238669	براحتی	-0.1343337
-4.238669	برادرزاده	-0.1343337
-4.238669	برادوف	-0.1343337
-4.238669	براساس	-0.1343337
-4.238669	براستی	-0.1343337
-4.238669	بران	-0.1343337
-1.84672	برای	-0.6070634
-4.238669	برایم	-0.1343337
-4.238669	برایمان	-0.1343337
-4.238669	براین	-0.1343337
-4.238669	براییم	-0.1343337
-4.238669	برای‌	-0.1343337
-4.238669	برای‌ان	-0.1343337
-3.836865	برای‌اینکه	-0.1343337
-4.113178	برای‌مثال	-0.1343337
-4.238669	بربیایم	-0.1343337
-4.238669	بربیاییم	-0.1343337
-4.238669	برخواهم	-0.1343337
-4.238669	برخواهی	-0.1343337
-4.238669	برخواهیم	-0.1343337
-4.238669	برخورد	-0.1343337
-3.727249	برخی	-0.1838461
-4.238669	برخی‌اوقات	-0.1343337
-4.238669	برد	-0.1343337
-4.238669	بردارید	-0.1343337
-3.567041	برداریم	-0.3220048
-3.983843	برداشتیم	-0.2202974
-4.238669	بردن	-0.1343337
-3.983843	بررسی	-0.1838461
-4.113178	برسانیم	-0.1343337
-4.238669	برسد	-0.1343337
-4.238669	برسر	-0.1343337
-3.983843	برسم	-0.1343337
-3.983843	برسیم	-0.2615698
-4.238669	برعکس	-0.1343337
-4.238669	برقرار	-0.1343337
-4.113178	برلین	-0.1729431
-4.238669	برمیداریم	-0.1343337
-3.836865	برمیگردم	-0.2571066
-3.727249	برمیگردیم	-0.2296183
-2.611786	برنامه	-0.3569089
-3.727249	برنامه‌ام	-0.1343337
-3.639799	برنامه‌ای	-0.1646115
-2.86716	برنامه‌ریزی	-0.2497159
-4.238669	برنامه‌ریزی‌	-0.1343337
-4.238669	برنامه‌زمانی	-0.1343337
-4.238669	برنامه‌مان	-0.1343337
-3.983843	برنامه‌های	-0.1343337
-3.836865	برنامه‌هایی	-0.2571066
-4.238669	برنامه‌‌مان	-0.1343337
-4.238669	برنداشته‌اید	-0.1343337
-4.238669	برود	-0.1343337
-4.238669	بروزرسانی	-0.1343337
-4.113178	برولر	-0.1343337
-3.112044	بروم	-0.6968797
-4.238669	بروکسل	-0.1343337
-4.238669	بروکی	-0.1343337
-3.836865	بروید	-0.1971594
-2.793547	برویم	-0.5883301
-3.836865	برپا	-0.4321189
-4.238669	برپاکنیم	-0.1343337
-4.238669	برکر	-0.1343337
-4.238669	برکمر	-0.1343337
-4.238669	برگذاری	-0.1343337
-3.836865	برگردم	-0.2571066
-3.639799	برگردیم	-0.4331979
-2.828796	برگزار	-0.6442241
-4.113178	برگزاری	-0.1343337
-3.567041	برگزار‌	-0.5001446
-4.238669	برگزار‌‌	-0.1343337
-4.238669	برگزینیم	-0.1343337
-4.238669	برگشت	-0.1343337
-4.238669	برگشته	-0.1343337
-4.238669	برگشتید	-0.1343337
-3.836865	برگه‌ها	-0.432119
-4.238669	برگه‌های	-0.1343337
-4.238669	بری	-0.1343337
-4.238669	بریستوی	-0.1343337
-4.238669	بریم	-0.1343337
-4.238669	بر‌خواهم	-0.1343337
-4.238669	بر‌روی	-0.1343337
-4.238669	بر‌میداریم	-0.1343337
-4.238669	بر‌گزار	-0.1343337
-4.238669	بر‌گزار‌	-0.1343337
-4.113178	بزرگ	-0.1343337
-4.238669	بزرگتری	-0.1343337
-4.238669	بزرگداشت	-0.1343337
-3.727249	بزنم	-0.529029
-4.113178	بزنید	-0.1343337
-4.113178	بزنیم	-0.1343337
-4.238669	بزودی	-0.1343337
-3.567041	بسادگی	-0.1343337
-4.238669	بسازید	-0.1343337
-4.238669	بسته	-0.1343337
-4.113178	بسته‌بندی	-0.1343337
-4.238669	بستگانم	-0.1343337
-3.727249	بستگی	-0.2921916
-4.113178	بسپاریم	-0.2706361
-2.804981	بسیار	-0.3843211
-3.983843	بسیارخب	-0.2409478
-4.113178	بسیارخوب	-0.1971594
-4.238669	بسیارعالی	-0.1343337
-3.639799	بسیاری	-0.1751921
-3.504741	بسیار‌خوب	-0.3723108
-4.238669	بشر	-0.1343337
-4.238669	بشردوستانه	-0.1343337
-4.238669	بشناسم	-0.1343337
-4.238669	بشناسیم	-0.1343337
-3.358331	بشود	-0.4372424
-4.113178	بشوم	-0.1343337
-4.238669	بشویم	-0.1343337
-4.113178	بصورت	-0.1343337
-4.238669	بطرز	-0.1343337
-4.238669	بطرف	-0.1343337
-4.238669	بطری	-0.1343337
-3.401871	بطریقی	-0.1561424
-3.358331	بطور	-0.2335109
-4.238669	بطوریکه	-0.1343337
-4.113178	بطور‌اساسی	-0.1343337
-4.238669	بطور‌ترسناکی	-0.1343337
-4.238669	بطور‌حتم	-0.1343337
-4.238669	بطور‌کلی	-0.1343337
-2.446936	بعد	-0.4691107
-3.401871	بعدا	-0.2093582
-4.113178	بعدارظهر	-0.1343337
-2.841211	بعداز	-0.3654692
-3.504741	بعدازان	-0.1343337
-2.804981	بعدازظهر	-0.3192299
-3.727249	بعدازظهرها	-0.1343337
-4.238669	بعدازظهرهای	-0.1343337
-4.238669	بعدازظهریک	-0.1343337
-4.238669	بعدازظهر‌ها	-0.1343337
-4.238669	بعداز‌ان	-0.1343337
-3.983843	بعداز‌ظهر	-0.1343337
-4.238669	بعدش	-0.1343337
-4.238669	بعدها	-0.1343337
-2.88074	بعدی	-0.2695559
-4.238669	بعدیرا	-0.1343337
-4.113178	بعد‌	-0.2706361
-3.504741	بعد‌از	-0.3883054
-3.504741	بعد‌ازظهر	-0.1583847
-3.639799	بعد‌از‌ظهر	-0.1691145
-4.238669	بعد‌‌از	-0.1343337
-3.983843	بعضی	-0.1343337
-4.238669	بعلاوه	-0.1343337
-4.113178	بعنوان	-0.1971594
-4.113178	بغیر	-0.2706361
-4.238669	بغیراز	-0.1343337
-4.238669	بفرستیم	-0.1343337
-4.238669	بفرض	-0.1343337
-4.113178	بفرمایید	-0.1343337
-4.113178	بفهمم	-0.1343337
-4.113178	بفهمید	-0.1343337
-4.113178	بفهمیم	-0.1343337
-4.238669	بقدر	-0.1343337
-3.504741	بقیه	-0.1583847
-4.238669	بقیه‌چیزها	-0.1343337
-4.238669	بل	-0.1343337
-3.24903	بلافاصله	-0.2777552
-3.567041	بله	-0.2014727
-4.238669	بلوم	-0.1343337
-3.983843	بلوک	-0.1343337
-4.238669	بلوکه	-0.1343337
-4.113178	بلکه	-0.2706361
-4.238669	بلیط	-0.1343337
-4.238669	بلیطها	-0.1343337
-3.983843	بماند	-0.1343337
-4.238669	بمانم	-0.1343337
-4.238669	بمانی	-0.1343337
-4.113178	بمانید	-0.1343337
-3.727249	بمانیم	-0.1838461
-4.238669	بموقع	-0.1343337
-3.983843	بن	-0.1343337
-4.238669	بنا	-0.1343337
-3.567041	بنابراین	-0.1816013
-4.238669	بنام	-0.1343337
-4.238669	بنجامین	-0.1343337
-4.238669	بندی	-0.1343337
-4.238669	بنز	-0.1343337
-3.983843	بنظر	-0.1343337
-4.238669	بنظرم	-0.1343337
-4.113178	بنظر‌	-0.2706361
-4.113178	بنویسم	-0.1343337
-4.238669	بنویسید	-0.1343337
-3.727249	بنویسیم	-0.529029
-4.238669	بنیامین	-0.1343337
-1.978307	به	-0.4280472
-3.983843	بهار	-0.1343337
-2.782406	بهتر	-0.6250679
-3.836865	بهتراست	-0.1343337
-4.238669	بهتری	-0.1343337
-3.08916	بهترین	-0.3097545
-4.238669	بهتر‌است	-0.1343337
-3.836865	بهرحال	-0.1343337
-3.983843	بهر‌حال	-0.1343337
-4.113178	بهم	-0.1343337
-3.983843	بهمراه	-0.1343337
-4.113178	به‌	-0.1343337
-4.238669	به‌امید	-0.1343337
-4.238669	به‌اندازه	-0.1343337
-4.238669	به‌انضمام	-0.1343337
-4.113178	به‌این	-0.2706361
-4.238669	به‌اینکه	-0.1343337
-4.238669	به‌این‌ترتیب	-0.1343337
-3.401871	به‌بعد	-0.2280708
-4.238669	به‌حساب	-0.1343337
-4.113178	به‌خاطر	-0.1343337
-4.238669	به‌سادگی	-0.1343337
-4.238669	به‌شرط	-0.1343337
-4.238669	به‌عبارت‌دیگر	-0.1343337
-4.238669	به‌موقع	-0.1343337
-4.113178	به‌نظر‌	-0.2706361
-4.238669	به‌هرحال	-0.1343337
-4.238669	به‌یاد	-0.1343337
-4.238669	به‌‌این‌	-0.1343337
-4.238669	بوجود	-0.1343337
-2.760946	بود	-0.5055189
-3.836865	بودم	-0.1971594
-4.113178	بودن	-0.1343337
-4.238669	بودند	-0.1343337
-3.836865	بوده	-0.1343337
-4.238669	بوده‌است	-0.1343337
-4.113178	بودید	-0.1343337
-4.113178	بودیم	-0.2202974
-4.238669	بویر	-0.1343337
-4.238669	بپذیریم	-0.1343337
-4.113178	بپردازیم	-0.1343337
-3.836865	بپرسم	-0.2122141
-4.238669	بپزم	-0.1343337
-4.238669	بپیوندم	-0.1343337
-4.238669	بچسبیم	-0.1343337
-4.238669	بک	-0.1343337
-4.238669	بکر	-0.1343337
-4.238669	بکشانیم	-0.1343337
-4.113178	بکشد	-0.1971594
-3.639799	بکنم	-0.3757464
-4.238669	بکنید	-0.1343337
-4.113178	بکنیم	-0.1343337
-4.238669	بگداریم	-0.1343337
-3.836865	بگذار	-0.1838461
-4.238669	بگذارد	-0.1343337
-3.318761	بگذارم	-0.7051203
-3.504741	بگذارید	-0.2095988
-4.238669	بگذاریدببینیم	-0.1343337
-2.6506	بگذاریم	-0.6513252
-4.238669	بگذاز	-0.1343337
-4.238669	بگذرانند	-0.1343337
-4.113178	بگذرانیم	-0.1343337
-4.238669	بگذراید	-0.1343337
-4.238669	بگزارم	-0.1343337
-4.238669	بگزرد	-0.1343337
-4.238669	بگنجانم	-0.1343337
-3.983843	بگنجانیم	-0.2202974
-3.836865	بگو	-0.2296183
-3.1362	بگویم	-0.4186399
-4.238669	بگویی	-0.1343337
-3.639799	بگویید	-0.1838461
-2.989951	بگوییم	-0.3086897
-4.238669	بگیر	-0.1343337
-4.113178	بگیرد	-0.2202974
-4.238669	بگیرم	-0.1343337
-3.983843	بگیرید	-0.2202974
-3.639799	بگیریم	-0.3644022
-3.401871	بی	-0.3038248
-3.727249	بیا	-0.1843774
-3.983843	بیاندازم	-0.3071802
-4.113178	بیاندازید	-0.1343337
-3.567041	بیاندازیم	-0.2977519
-3.983843	بیاورم	-0.3071802
-4.113178	بیاورید	-0.1343337
-3.639799	بیاوریم	-0.2409478
-3.836865	بیاید	-0.1343337
-3.401871	بیایم	-0.3674874
-4.238669	بیایند	-0.1343337
-4.113178	بیایی	-0.2706361
-3.24903	بیایید	-0.3015316
-3.836865	بیدرنگ	-0.1343337
-4.238669	بیرسدورف	-0.1343337
-3.046721	بیرون	-0.3266358
-4.238669	بیسار‌خوب	-0.1343337
-2.446936	بیست	-0.9798579
-2.894758	بیستم	-0.3281623
-3.08916	بیست‌	-0.9560766
-4.113178	بیست‌دوم	-0.1343337
-3.983843	بیش	-0.3071802
-2.989951	بیشتر	-0.2142029
-3.358331	بیشتری	-0.2500574
-3.983843	بیصبرانه	-0.3071802
-4.238669	بیطرف	-0.1343337
-4.238669	بیفتد	-0.1343337
-4.238669	بیفتیم	-0.1343337
-3.983843	بیلفلد	-0.1343337
-4.113178	بیلن	-0.1343337
-4.113178	بیمه	-0.2706361
-2.702278	بین	-0.2626863
-3.639799	بیندازم	-0.4337383
-4.238669	بیندازید	-0.1343337
-3.188961	بیندازیم	-0.3416087
-3.836865	بینیم	-0.1971594
-4.113178	بیهوده	-0.1343337
-3.504741	بیکار	-0.3371529
-4.113178	بیکارم	-0.2706361
-4.238669	بی‌تردید	-0.1343337
-3.983843	بی‌موقع	-0.3071802
-4.238669	ب‌خوبی	-0.1343337
-3.983843	ت	-0.1343337
-2.210074	تا	-0.5632044
-4.238669	تاالان	-0.1343337
-4.113178	تاانجاییکه	-0.1343337
-4.238669	تاان‌موقع	-0.1343337
-4.238669	تابستان	-0.1343337
-4.113178	تابستانی	-0.1343337
-4.238669	تاتر	-0.1343337
-4.238669	تاجران	-0.1343337
-4.113178	تاحدی	-0.1343337
-4.238669	تاخیر	-0.1343337
-2.793547	تاریخ	-0.2666519
-4.238669	تاریخش	-0.1343337
-3.727249	تاریخها	-0.2001962
-3.836865	تاریخهای	-0.1343337
-4.238669	تاریخهایم	-0.1343337
-4.238669	تاریخهایمان	-0.1343337
-4.238669	تاریخهایی	-0.1343337
-3.358331	تاریخی	-0.2716401
-4.238669	تاریخ‌ها	-0.1343337
-3.836865	تازه	-0.1343337
-4.238669	تازگی	-0.1343337
-4.238669	تاسف	-0.1343337
-4.238669	تامی	-0.1343337
-4.238669	تاهیجدهم	-0.1343337
-4.113178	تاکسی	-0.1343337
-4.238669	تاکنون	-0.1343337
-4.238669	تایسون‌شولت	-0.1343337
-4.238669	تایید	-0.1343337
-4.238669	تا‌حدی	-0.1343337
-4.238669	تبادل	-0.1343337
-3.282498	تثبیت	-0.8011746
-4.113178	تجارت	-0.2706361
-3.282498	تجاری	-0.221306
-4.238669	تجاریمان	-0.1343337
-4.238669	تجدید	-0.1343337
-4.238669	تجدیدنظر	-0.1343337
-4.238669	تجدید‌قوا	-0.1343337
-3.983843	تجربه	-0.2202974
-4.238669	تجربه‌های	-0.1343337
-4.238669	تجربه‌هایی	-0.1343337
-4.113178	تحت	-0.1343337
-4.238669	تداخل	-0.1343337
-3.401871	تدارک	-0.2280708
-4.238669	تدارکات	-0.1343337
-4.238669	تدارکاتی	-0.1343337
-3.727249	تدریس	-0.1343337
-4.113178	تدوین	-0.1343337
-4.238669	تذکر	-0.1343337
-3.983843	تر	-0.1343337
-2.88074	ترتیب	-0.2673685
-4.113178	ترتیبش	-0.2706361
-4.238669	ترتیبی	-0.1343337
-3.983843	ترتیب‌	-0.2202974
-3.358331	ترجیح	-0.4177554
-3.836865	ترجیحا	-0.1343337
-3.639799	ترجیح‌	-0.4383196
-4.238669	ترجیح‌‌	-0.1343337
-3.983843	ترک	-0.1971594
-4.238669	تری	-0.1343337
-4.238669	تریب	-0.1343337
-4.238669	تشریف	-0.1343337
-3.727249	تشکر	-0.3540166
-4.113178	تشکیل	-0.1343337
-4.238669	تصادفی	-0.1343337
-4.238669	تصحیح	-0.1343337
-3.639799	تصمیم	-0.1691145
-4.238669	تطابق	-0.1343337
-4.238669	تعبیری	-0.1343337
-3.836865	تعداد	-0.1971594
-4.238669	تعدادی	-0.1343337
-3.504741	تعطیل	-0.3230095
-2.894758	تعطیلات	-0.220832
-4.238669	تعطیلاتت	-0.1343337
-4.238669	تعطیلاتتان	-0.1343337
-4.113178	تعطیلاتی	-0.1343337
-3.836865	تعطیلات‌اخرهفته	-0.1343337
-4.113178	تعطیلی	-0.1343337
-4.238669	تعطیل‌	-0.1343337
-4.238669	تعهد	-0.1343337
-4.113178	تعهدات	-0.2706361
-4.238669	تعهداتت	-0.1343337
-3.983843	تعهداتی	-0.1343337
-4.238669	تعهدهای	-0.1343337
-4.113178	تعهدی	-0.2706361
-4.238669	تعویض	-0.1343337
-4.238669	تعویض‌	-0.1343337
-4.238669	تعویق	-0.1343337
-4.238669	تعویق‌	-0.1343337
-2.711522	تعیین	-0.5202901
-4.238669	تعیین‌کنیم	-0.1343337
-3.983843	تغییر	-0.2202974
-4.238669	تفاهم	-0.1343337
-4.238669	تفاوت	-0.1343337
-4.238669	تفریح	-0.1343337
-4.238669	تفنگ	-0.1343337
-4.238669	تقاضای	-0.1343337
-4.238669	تقاضایی	-0.1343337
-3.318761	تقریبا	-0.1461927
-4.113178	تقسیم	-0.2706361
-4.113178	تقویم	-0.1343337
-3.639799	تلفن	-0.1751921
-4.113178	تلفنی	-0.1343337
-3.026962	تماس	-0.3555703
-4.113178	تماس‌	-0.1343337
-4.238669	تماس‌میگیرم	-0.1343337
-2.693226	تمام	-0.3118019
-4.113178	تمامی	-0.1343337
-4.238669	تمام‌وقت	-0.1343337
-3.727249	تمایل	-0.2791609
-4.113178	تمرکز	-0.2706361
-4.238669	تمهیدات	-0.1343337
-4.238669	تنا	-0.1343337
-4.238669	تناقضی	-0.1343337
-3.282498	تنظیم	-0.257647
-4.238669	تنظیم‌	-0.1343337
-4.238669	تنظیم‌کرده‌ایم	-0.1343337
-3.026962	تنها	-0.1976875
-4.238669	تنهایی	-0.1343337
-4.238669	تنگ	-0.1343337
-4.113178	تهیه	-0.1343337
-4.238669	تهیه‌و	-0.1343337
-4.238669	تهیه‌وتدارک	-0.1343337
-4.238669	تهیه‌و‌تدارک	-0.1343337
-2.793547	تو	-0.2507378
-3.08916	توافق	-0.3662832
-4.238669	توافقی	-0.1343337
-3.567041	توافق‌	-0.5001446
-4.238669	توامبر	-0.1343337
-4.238669	توانسته	-0.1343337
-4.238669	توانستید	-0.1343337
-4.113178	توانستیم	-0.1343337
-4.238669	توانم	-0.1343337
-4.238669	توبه	-0.1343337
-4.238669	توبینگن	-0.1343337
-3.836865	توجه	-0.1343337
-4.238669	توجهی	-0.1343337
-4.113178	تور	-0.1343337
-4.238669	تورشهرهای	-0.1343337
-4.238669	توزیع	-0.1343337
-4.238669	توسط	-0.1343337
-4.238669	تکالیف	-0.1343337
-3.727249	تکرار	-0.2921916
-4.238669	تکرار‌	-0.1343337
-4.238669	تکلیف	-0.1343337
-4.238669	تکمیلی	-0.1343337
-4.113178	تکه	-0.1343337
-3.358331	تی	-0.217046
-4.113178	تیاتر	-0.1343337
-4.238669	تیره	-0.1343337
-4.113178	تیلمن	-0.1343337
-3.188961	ثابت	-0.4608791
-4.238669	ثابتی	-0.1343337
-2.804981	ثبت	-0.3815648
-3.727249	ثبتش	-0.3540166
-3.008063	ثبت‌	-0.620335
-4.238669	ثبت‌کنیم	-0.1343337
-4.113178	ثبت‌‌	-0.1343337
-4.238669	ثنظیم	-0.1343337
-3.727249	ج	-0.2296183
-3.983843	جا	-0.1343337
-4.238669	جاری	-0.1343337
-3.983843	جالب	-0.2706361
-4.238669	جالبی	-0.1343337
-4.238669	جامع	-0.1343337
-4.238669	جان	-0.1343337
-4.113178	جانش	-0.1343337
-3.983843	جانشینی	-0.2202974
-3.727249	جانچ	-0.1751921
-3.401871	جای	-0.1719089
-4.238669	جایگزین	-0.1343337
-3.836865	جایی	-0.1343337
-4.238669	جاییست	-0.1343337
-4.113178	جاییکه	-0.1343337
-4.238669	جای‌	-0.1343337
-4.238669	جبران	-0.1343337
-4.113178	جدا	-0.1343337
-4.238669	جدااز	-0.1343337
-3.836865	جداازهم	-0.1343337
-4.238669	جداگانه	-0.1343337
-3.727249	جدای	-0.4331978
-4.238669	جدی	-0.1343337
-3.727249	جدید	-0.1343337
-4.238669	جدیدمان	-0.1343337
-4.238669	جز	-0.1343337
-3.639799	جزییات	-0.1611411
-4.238669	جستجو	-0.1343337
-3.358331	جشن	-0.1751921
-4.238669	جشنهای	-0.1343337
-4.238669	جلب	-0.1343337
-3.504741	جلسات	-0.1646115
-4.238669	جلسات‌	-0.1343337
-4.238669	جلسف	-0.1343337
-4.238669	جلسمان	-0.1343337
-2.530731	جلسه	-0.3683195
-3.358331	جلسه‌	-0.7342278
-3.450268	جلسه‌ای	-0.236878
-3.983843	جلسه‌مقدماتی	-0.1343337
-4.238669	جله	-0.1343337
-4.113178	جلو	-0.1343337
-4.113178	جلوتر	-0.1343337
-4.238669	جلوترین	-0.1343337
-4.238669	جلو‌تر	-0.1343337
-4.238669	جلیوس	-0.1343337
-3.836865	جمع	-0.1751921
-2.543233	جمعه	-0.3786137
-4.238669	جمعهتا	-0.1343337
-4.238669	جمعهخوب	-0.1343337
-4.238669	جمعه‌ای	-0.1343337
-3.836865	جمعه‌ها	-0.1971594
-4.238669	جمع‌اوری	-0.1343337
-4.238669	جمع‌بندی	-0.1343337
-4.238669	جنب	-0.1343337
-4.238669	جنوب	-0.1343337
-4.238669	جهارم	-0.1343337
-3.567041	جهت	-0.1971594
-4.238669	جهرزیتان	-0.1343337
-4.238669	جو	-0.1343337
-3.983843	جواب	-0.1343337
-3.450268	جور	-0.2925894
-4.238669	جورج	-0.1343337
-4.238669	جورکردیم	-0.1343337
-4.238669	جورگن	-0.1343337
-4.113178	جوری	-0.1343337
-4.238669	جولا	-0.1343337
-2.989951	جولای	-0.3259927
-4.238669	جولیس	-0.1343337
-4.113178	جولیوس	-0.1343337
-3.504741	جی	-0.3138301
-4.238669	جیز	-0.1343337
-3.836865	جیی	-0.3540166
-3.567041	حاضر	-0.1502188
-4.238669	حاضرکاملا	-0.1343337
-4.238669	حافظ	-0.1343337
-3.983843	حال	-0.1343337
-3.217958	حالا	-0.2193017
-4.238669	حالت	-0.1343337
-4.238669	حالتان	-0.1343337
-4.113178	حال‌حاضر	-0.1343337
-3.450268	حتما	-0.1667071
-3.450268	حتی	-0.1527151
-3.983843	حد	-0.1343337
-3.401871	حداقل	-0.1583847
-4.238669	حدالامکان	-0.1343337
-4.238669	حداکثر	-0.1343337
-4.238669	حدس	-0.1343337
-4.238669	حدس‌	-0.1343337
-4.238669	حدس‌میزنم	-0.1343337
-3.112044	حدود	-0.3221323
-4.238669	حدودا	-0.1343337
-4.238669	حدودها	-0.1343337
-4.238669	حدودی	-0.1343337
-4.238669	حدی	-0.1343337
-4.238669	حد‌کافی	-0.1343337
-3.983843	حذف	-0.1971594
-4.238669	حذف‌	-0.1343337
-3.983843	حرف	-0.2202974
-4.113178	حرفها	-0.1343337
-3.639799	حرکت	-0.2122141
-3.567041	حساب	-0.1646115
-4.238669	حسابی	-0.1343337
-4.238669	حساب‌	-0.1343337
-4.238669	حسی	-0.1343337
-4.113178	حضرت	-0.1343337
-3.639799	حضور	-0.2122141
-4.238669	حفاظت	-0.1343337
-4.113178	حفاظتی	-0.2706361
-3.983843	حفظ	-0.1343337
-4.113178	حق	-0.2706361
-4.238669	حقوق	-0.1343337
-3.983843	حقیقت	-0.1627708
-3.727249	حقیقتا	-0.1343337
-3.639799	حل	-0.1751921
-4.238669	حل‌و‌فصل	-0.1343337
-4.238669	حواسم	-0.1343337
-4.238669	حواسمان	-0.1343337
-4.238669	حواسمان‌	-0.1343337
-3.983843	حوالی	-0.1343337
-4.238669	حوزه‌های	-0.1343337
-4.238669	حوش	-0.1343337
-4.238669	حول	-0.1343337
-4.113178	حیف	-0.1343337
-4.238669	حین	-0.1343337
-3.046721	خارج	-0.8129771
-4.238669	خارجی	-0.1343337
-3.983843	خارق‌العاده	-0.2202974
-3.983843	خاص	-0.1343337
-3.639799	خاصی	-0.1646115
-4.238669	خاط	-0.1343337
-4.238669	خاطر	-0.1343337
-4.238669	خاطرات	-0.1343337
-4.238669	خاطره	-0.1343337
-3.16178	خالی	-0.2075658
-4.238669	خالی‌	-0.1343337
-3.282498	خانم	-0.2209637
-4.113178	خانه	-0.2202974
-4.113178	خانواده	-0.1343337
-4.113178	خانواده‌ام	-0.1343337
-4.238669	خانواده‌هایمان	-0.1343337
-4.238669	خانوادگیمان	-0.1343337
-4.238669	خاکستری	-0.1343337
-3.567041	خب	-0.261197
-3.836865	خبر	-0.1343337
-4.238669	خبرنگار	-0.1343337
-4.113178	خبری	-0.1343337
-4.238669	خبر‌داشتید	-0.1343337
-4.238669	خبر‌‌	-0.1343337
-4.113178	خجسته	-0.2706361
-4.113178	خدا	-0.1343337
-3.836865	خداحافظ	-0.2873785
-4.113178	خداحافظی	-0.1343337
-4.238669	خداخافظ	-0.1343337
-3.983843	خدانگهدار	-0.3071802
-3.983843	خدا‌حافظ	-0.2706361
-3.983843	خدا‌حافظی	-0.1343337
-4.113178	خدا‌نگهدار	-0.1971594
-4.238669	خدمت	-0.1343337
-4.238669	خراب	-0.1343337
-4.238669	خرافاتی	-0.1343337
-4.238669	خرده	-0.1343337
-4.238669	خرسند	-0.1343337
-4.238669	خرسندم	-0.1343337
-4.238669	خرچنگهای	-0.1343337
-4.113178	خرید	-0.1343337
-4.238669	خسته	-0.1343337
-4.238669	خستگی	-0.1343337
-4.238669	خصوص	-0.1343337
-3.727249	خصوصی	-0.1838461
-3.983843	خط	-0.2202974
-4.238669	خلاص	-0.1343337
-4.113178	خلاصه	-0.1343337
-4.238669	خواب	-0.1343337
-4.238669	خوابید	-0.1343337
-4.238669	خواستم	-0.1343337
-4.238669	خواسته	-0.1343337
-2.489609	خواهد	-1.015447
-3.836865	خواهدبود	-0.1971594
-4.238669	خواهد‌	-0.1343337
-3.067423	خواهد‌بود	-0.601333
-4.113178	خواهد‌شد	-0.1343337
-4.238669	خواهد‌‌بود	-0.1343337
-3.983843	خواهش	-0.3071802
-2.408083	خواهم	-0.7348763
-3.836865	خواهم‌	-0.1343337
-3.16178	خواهم‌بود	-0.6550466
-4.238669	خواهم‌گذراند	-0.1343337
-4.238669	خواهم‌‌‌بود	-0.1343337
-3.504741	خواهند	-0.4321189
-4.238669	خواههید	-0.1343337
-3.567041	خواهی	-0.2001962
-3.639799	خواهید	-0.1913961
-4.238669	خواهید‌	-0.1343337
-4.113178	خواهید‌بود	-0.1343337
-4.238669	خواهید‌‌بود	-0.1343337
-2.720967	خواهیم	-0.4868722
-4.238669	خواهیم‌	-0.1343337
-3.836865	خواهیم‌بود	-0.2571066
-4.238669	خواهیم‌داشت	-0.1343337
-4.238669	خواهیم‌کرد	-0.1343337
-4.238669	خواهیم‌‌	-0.1343337
-2.417475	خوب	-0.5764194
-4.238669	خوبند	-0.1343337
-4.113178	خوبه	-0.2706361
-3.112044	خوبی	-0.3359123
-3.08916	خود	-0.2479309
-4.238669	خودبخود	-0.1343337
-3.836865	خودتان	-0.3540166
-4.238669	خودش	-0.1343337
-4.238669	خودشان	-0.1343337
-3.067423	خودم	-0.3970327
-3.450268	خودمان	-0.2425486
-4.238669	خودکار	-0.1343337
-4.113178	خورد	-0.2706361
-3.983843	خوردن	-0.1343337
-4.238669	خورده‌اند	-0.1343337
-4.238669	خوردید	-0.1343337
-4.238669	خوریم	-0.1343337
-3.983843	خوش	-0.2202974
-4.238669	خوشبختانه	-0.1343337
-3.450268	خوشحال	-0.3087995
-3.727249	خوشحالم	-0.2122141
-4.113178	خوشحالی	-0.1343337
-4.238669	خوشم	-0.1343337
-4.238669	خوشمزه‌ای	-0.1343337
-4.238669	خوشنود	-0.1343337
-4.238669	خوشنودم	-0.1343337
-4.113178	خیال	-0.1343337
-3.836865	خیر	-0.2921916
-2.524613	خیلی	-0.3469361
-4.113178	خیلی‌خوب	-0.1343337
-4.113178	د	-0.1343337
-3.836865	دابلیو	-0.2571066
-4.238669	داخلی	-0.1343337
-3.567041	داد	-0.2606494
-3.983843	دادن	-0.1343337
-3.450268	داده	-0.1791044
-4.238669	داده‌اید	-0.1343337
-4.113178	داده‌های	-0.1343337
-4.113178	دادید	-0.1343337
-4.113178	دار	-0.1343337
-2.972565	دارد	-0.3465815
-4.238669	داررید	-0.1343337
-2.320075	دارم	-0.6884026
-3.727249	دارند	-0.2069252
-3.567041	داری	-0.3500922
-2.750601	دارید	-0.6500059
-2.675671	داریم	-0.6035575
-4.238669	داسته	-0.1343337
-3.24903	داشت	-0.4941117
-3.504741	داشتم	-0.179368
-4.238669	داشتن	-0.1343337
-2.634656	داشته	-0.7556428
-4.113178	داشته‌	-0.2706361
-4.113178	داشته‌ام	-0.1343337
-4.238669	داشته‌اید	-0.1343337
-4.238669	داشته‌ایم	-0.1343337
-4.238669	داشته‌باشد	-0.1343337
-3.983843	داشته‌باشم	-0.2202974
-3.567041	داشته‌باشیم	-0.1971594
-4.113178	داشتی	-0.1343337
-4.238669	داشتید	-0.1343337
-3.639799	داشتیم	-0.1646115
-4.238669	دانش	-0.1343337
-4.113178	دانشگاه	-0.1343337
-4.113178	دانشگاههای	-0.1343337
-4.238669	دانشگاهی	-0.1343337
-4.238669	داوزدهم	-0.1343337
-4.238669	دایر	-0.1343337
-4.238669	دایما	-0.1343337
-4.113178	دباره	-0.1343337
-3.983843	دبلیو	-0.2706361
-4.238669	دخیل	-0.1343337
-1.830447	در	-0.5572442
-4.238669	دراغاز	-0.1343337
-4.238669	دراوت	-0.1343337
-4.113178	دراول	-0.1343337
-4.238669	دراکتبر	-0.1343337
-4.113178	درای	-0.1343337
-4.238669	دراینباره	-0.1343337
-4.238669	دراینثورت	-0.1343337
-3.983843	دراینصورت	-0.1343337
-2.634656	درباره	-0.2517097
-4.238669	درباره‌	-0.1343337
-3.983843	درباره‌اش	-0.1343337
-4.238669	دربر‌میگیرد	-0.1343337
-4.238669	درجلسه	-0.1343337
-4.113178	درحال	-0.2706361
-4.238669	درحالیکه	-0.1343337
-3.983843	درحال‌حاضر	-0.1971594
-3.836865	درحقیقت	-0.2202974
-4.238669	درحوالی	-0.1343337
-4.238669	درخشانی	-0.1343337
-3.836865	درخواست	-0.1971594
-4.238669	درخواستی	-0.1343337
-4.113178	دردسترس	-0.1343337
-4.238669	دردسر	-0.1343337
-4.238669	دررستوران	-0.1343337
-4.238669	درزدن	-0.1343337
-3.836865	درس	-0.1971594
-2.86716	درست	-0.2778363
-4.238669	درستی	-0.1343337
-4.238669	درست‌است	-0.1343337
-3.983843	درسدن	-0.1971594
-4.238669	درسی	-0.1343337
-4.113178	درصورتیکه	-0.1343337
-3.983843	درطول	-0.2202974
-4.113178	درعوض	-0.1343337
-3.983843	درغیر	-0.1343337
-3.727249	درغیراینصورت	-0.1876085
-4.238669	درغیر‌اینصورت	-0.1343337
-4.238669	درماه	-0.1343337
-3.836865	درمورد	-0.1343337
-4.113178	درمیان	-0.1343337
-3.727249	درنتیجه	-0.1343337
-4.238669	درنظر	-0.1343337
-4.238669	درنظرمیگیریم	-0.1343337
-4.238669	درنمیاید	-0.1343337
-4.238669	درهامبورگ	-0.1343337
-4.113178	درهرحال	-0.1343337
-4.238669	درهرصورت	-0.1343337
-4.238669	درهر‌حال	-0.1343337
-4.238669	درهمان	-0.1343337
-3.639799	درواقع	-0.1751921
-4.238669	درویل‌هلمستراسه	-0.1343337
-4.238669	درک	-0.1343337
-4.238669	درکل	-0.1343337
-3.450268	درگیر	-0.5474641
-4.238669	دریا	-0.1343337
-4.113178	دریایی	-0.1343337
-4.238669	دریک	-0.1343337
-4.238669	در‌	-0.1343337
-4.238669	در‌حال	-0.1343337
-4.238669	در‌حال‌حاضر	-0.1343337
-3.983843	در‌حقیقت	-0.1838461
-4.238669	در‌دسترس	-0.1343337
-4.113178	در‌طول	-0.1343337
-4.238669	در‌غیراینصورت	-0.1343337
-3.983843	در‌غیر‌اینصورت	-0.1343337
-4.238669	در‌نتیجه	-0.1343337
-4.113178	در‌نظر	-0.1343337
-4.238669	در‌نظر‌داشتم	-0.1343337
-4.238669	در‌نظر‌گرفتن	-0.1343337
-4.238669	در‌هر‌حال	-0.1343337
-4.238669	در‌هر‌حالت	-0.1343337
-3.983843	در‌واقع	-0.1691145
-2.88074	دسامبر	-0.3548455
-3.836865	دست	-0.1343337
-4.238669	دسترس	-0.1343337
-4.238669	دسترسم	-0.1343337
-4.238669	دستم	-0.1343337
-4.113178	دسته	-0.2706361
-4.238669	دستور	-0.1343337
-4.238669	دست‌کم	-0.1343337
-4.238669	دشت	-0.1343337
-4.113178	دشوار	-0.2706361
-4.113178	دعا	-0.1343337
-3.567041	دعوت	-0.2581882
-4.238669	دعوت‌	-0.1343337
-3.450268	دفتر	-0.2280509
-4.238669	دفترهای‌روزانه‌مان	-0.1343337
-3.639799	دفترچه	-0.1691145
-3.983843	دفترچه‌ام	-0.1343337
-4.238669	دفترکارتان	-0.1343337
-4.238669	دفتریادداشت‌روزانه‌ام	-0.1343337
-4.238669	دفعات	-0.1343337
-3.836865	دقیق	-0.1971594
-2.989951	دقیقا	-0.1982027
-4.113178	دقیقه	-0.1343337
-4.238669	دلخواه	-0.1343337
-3.836865	دلپذیر	-0.2296183
-4.238669	دلپذیری	-0.1343337
-4.113178	دلچسب	-0.1343337
-3.836865	دلیل	-0.1691145
-4.113178	دنبال	-0.1343337
-4.238669	دنبالتان	-0.1343337
-4.238669	دنجی	-0.1343337
-4.238669	دنیای	-0.1343337
-3.188961	ده	-0.2753575
-4.113178	دهد	-0.1343337
-2.894758	دهم	-0.3789411
-4.113178	دهی	-0.1343337
-3.639799	دهید	-0.1492088
-3.282498	دهیم	-0.452896
-2.467749	دو	-0.496397
-3.567041	دوازده	-0.196513
-2.92423	دوازدهم	-0.3619142
-4.238669	دوازه	-0.1343337
-4.113178	دوازهم	-0.1343337
-3.504741	دوبار	-0.1913961
-2.693226	دوباره	-0.2573125
-4.238669	دوباه	-0.1343337
-3.318761	دوتا	-0.2678496
-4.238669	دوتای	-0.1343337
-4.238669	دوتایی	-0.1343337
-3.504741	دور	-0.3371529
-4.113178	دورتموند	-0.1343337
-4.238669	دورم	-0.1343337
-3.318761	دوره	-0.225601
-3.983843	دورهم	-0.1343337
-4.238669	دوره‌ای	-0.1343337
-4.238669	دوره‌ها	-0.1343337
-4.238669	دوره‌های	-0.1343337
-4.238669	دوروبر	-0.1343337
-4.238669	دوروبرم	-0.1343337
-4.113178	دوروز	-0.1343337
-3.504741	دوروزه	-0.1646115
-4.238669	دوری	-0.1343337
-4.238669	دور‌هم	-0.1343337
-3.983843	دور‌وبر	-0.2202974
-4.238669	دور‌‌هم	-0.1343337
-4.238669	دوساعته	-0.1343337
-3.217958	دوست	-0.2866697
-4.238669	دوستان	-0.1343337
-3.983843	دوستانه	-0.1343337
-3.567041	دوست‌	-0.374127
-4.238669	دوسلدرف	-0.1343337
-4.238669	دوشتبه	-0.1343337
-4.238669	دوشنب	-0.1343337
-2.478542	دوشنبه	-0.4152945
-4.113178	دوشنبه‌	-0.1343337
-4.238669	دوشنبه‌ای	-0.1343337
-3.450268	دوشنبه‌ها	-0.200738
-4.238669	دوشنبه‌‌	-0.1343337
-4.238669	دوطرفه	-0.1343337
-4.238669	دولت	-0.1343337
-2.828796	دوم	-0.3940931
-4.238669	دوما	-0.1343337
-4.238669	دومان	-0.1343337
-4.113178	دوماهانه	-0.1343337
-4.238669	دوممان	-0.1343337
-3.504741	دومی	-0.3082591
-3.639799	دومین	-0.1751921
-3.983843	دوهفته	-0.1343337
-3.983843	دوهفته‌ای	-0.1343337
-4.238669	دوو	-0.1343337
-3.983843	دوی	-0.1971594
-4.238669	دو‌	-0.1343337
-4.113178	دو‌تا	-0.1343337
-4.238669	دو‌شنبه	-0.1343337
-4.238669	دو‌‌روزه	-0.1343337
-4.238669	دچار	-0.1343337
-3.727249	دکتر	-0.2245094
-4.238669	دگمه	-0.1343337
-3.358331	دی	-0.2084013
-4.113178	دید	-0.1691145
-3.358331	دیدار	-0.2021406
-3.983843	دیداری	-0.1971594
-4.113178	دیدار‌مشترک	-0.2706361
-3.983843	دیدم	-0.2202974
-3.983843	دیدن	-0.1971594
-4.238669	دیده	-0.1343337
-4.238669	دیدگاهم	-0.1343337
-4.113178	دیدیم	-0.2706361
-3.567041	دیر	-0.1897128
-3.401871	دیرتر	-0.1871855
-3.836865	دیروقت	-0.1343337
-4.238669	دیر‌وقت	-0.1343337
-2.583054	دیگر	-0.2858917
-4.238669	دیگران	-0.1343337
-4.113178	دیگرم	-0.1343337
-4.113178	دیگرمان	-0.1343337
-2.793547	دیگری	-0.3547475
-4.238669	دیگه	-0.1343337
-4.238669	ذهن	-0.1343337
-3.504741	ر	-0.2752056
-1.889584	را	-0.5270729
-4.113178	راازاد	-0.1343337
-4.113178	رابطه	-0.1343337
-4.238669	راتزنکانمرل	-0.1343337
-3.217958	راجع	-1.00615
-4.238669	راجع‌به	-0.1343337
-3.727249	راحت	-0.1343337
-4.238669	راحتتر	-0.1343337
-4.238669	راحتر	-0.1343337
-4.113178	راحتی	-0.1343337
-4.238669	راحتید	-0.1343337
-4.238669	راحت‌تر	-0.1343337
-4.238669	رادرست	-0.1343337
-3.727249	راس	-0.529029
-4.113178	راست	-0.1343337
-4.113178	راستش	-0.2202974
-4.113178	راستی	-0.1343337
-3.983843	راضی	-0.1343337
-4.238669	راغب	-0.1343337
-4.238669	رامعرفی	-0.1343337
-4.113178	راننده	-0.1343337
-4.238669	رانندگی	-0.1343337
-3.504741	راه	-0.1646115
-4.113178	راهم	-0.1343337
-4.238669	راهمان	-0.1343337
-4.238669	راهمین‌	-0.1343337
-4.238669	راه‌	-0.1343337
-4.238669	راه‌اندازی	-0.1343337
-4.238669	راه‌حل	-0.1343337
-4.238669	راه‌کارهای	-0.1343337
-4.238669	راپیشنهاد	-0.1343337
-4.238669	رای	-0.1343337
-4.238669	رایانه	-0.1343337
-4.238669	رایانه‌	-0.1343337
-4.238669	راینلند	-0.1343337
-4.113178	ربطی	-0.1343337
-4.113178	ربع	-0.1343337
-4.238669	رتبه	-0.1343337
-4.113178	رخ	-0.1343337
-4.238669	رخ‌	-0.1343337
-4.238669	رد	-0.1343337
-4.238669	ردکنم	-0.1343337
-4.238669	ردیف	-0.1343337
-3.067423	رزرو	-0.2940876
-4.238669	رزرو‌	-0.1343337
-4.238669	رزور	-0.1343337
-4.113178	رسانه‌های	-0.2706361
-3.450268	رستوران	-0.1475306
-3.983843	رستورانی	-0.1343337
-4.113178	رسمی	-0.1343337
-4.238669	رسید	-0.1343337
-4.238669	رسیدن	-0.1343337
-4.113178	رسیده	-0.1343337
-4.238669	رسیده‌است	-0.1343337
-4.113178	رسیدگی	-0.2706361
-4.113178	رسیدگی‌	-0.1343337
-4.113178	رسیدیم	-0.2706361
-4.238669	رغم	-0.1343337
-3.567041	رفت	-0.3870085
-4.238669	رفتار	-0.1343337
-3.727249	رفتن	-0.2122141
-4.238669	رفته	-0.1343337
-4.238669	رفته‌ام	-0.1343337
-4.238669	رفتوامد	-0.1343337
-4.238669	رفت‌وامد‌های	-0.1343337
-4.238669	رفقا	-0.1343337
-4.238669	رمانتیک	-0.1343337
-4.238669	رنجاندن	-0.1343337
-4.238669	رنر	-0.1343337
-4.238669	رها	-0.1343337
-4.238669	رو	-0.1343337
-4.238669	روانی	-0.1343337
-3.983843	روبراه	-0.2202974
-4.238669	روبرت	-0.1343337
-4.113178	روبروی	-0.1343337
-4.113178	روبن‌اشمیت	-0.1343337
-4.238669	روجر	-0.1343337
-4.238669	روح	-0.1343337
-4.238669	روح‌القدوس	-0.1343337
-2.263262	روز	-0.3828591
-4.238669	روزاتحاد	-0.1343337
-3.727249	روزانه	-0.1913961
-3.983843	روزانه‌ام	-0.1343337
-4.113178	روزانه‌تان	-0.1343337
-4.238669	روزانه‌مان	-0.1343337
-4.238669	روزاینده	-0.1343337
-4.238669	روزتزینگر	-0.1343337
-4.238669	روزش	-0.1343337
-3.504741	روزه	-0.1858673
-3.282498	روزها	-0.2221299
-2.894758	روزهای	-0.2575195
-3.401871	روزهایی	-0.2831837
-4.113178	روزه‌ای	-0.2706361
-4.238669	روزه‌ها	-0.1343337
-4.238669	روزپنجشنبه	-0.1343337
-4.238669	روزچهارشنبه	-0.1343337
-3.188961	روزی	-0.2507984
-4.238669	روزینگر	-0.1343337
-4.238669	روز‌ها	-0.1343337
-4.238669	روسنر	-0.1343337
-4.113178	روش	-0.1343337
-4.238669	روشن	-0.1343337
-4.238669	رولهای	-0.1343337
-4.238669	رومر	-0.1343337
-3.217958	روی	-0.1884307
-4.238669	رویال	-0.1343337
-4.238669	رویداد	-0.1343337
-4.113178	رویم	-0.2706361
-3.836865	روی‌هم‌رفته	-0.1343337
-4.238669	ریتم	-0.1343337
-4.238669	ریختیم	-0.1343337
-4.238669	ریز	-0.1343337
-4.238669	ریزی	-0.1343337
-4.238669	رییسه	-0.1343337
-4.113178	ز	-0.1343337
-4.238669	زاده	-0.1343337
-4.238669	زاده‌ای	-0.1343337
-3.983843	زبان	-0.3071802
-4.238669	زبانشناسی	-0.1343337
-4.238669	زبان‌شناسی	-0.1343337
-4.238669	زبان‌های	-0.1343337
-4.238669	زحمت	-0.1343337
-3.504741	زد	-0.2148919
-4.113178	زدم	-0.1971594
-4.238669	زدن	-0.1343337
-4.238669	زده‌ام	-0.1343337
-4.238669	زدید	-0.1343337
-4.113178	زشنال	-0.1343337
-4.238669	زلتور	-0.1343337
-4.238669	زلتوف	-0.1343337
-3.727249	زلتوفر	-0.2202974
-2.549621	زمان	-0.2690684
-4.238669	زمانبندی	-0.1343337
-3.639799	زمانها	-0.2001962
-3.836865	زمانهای	-0.1343337
-3.504741	زمانهایی	-0.1913961
-4.238669	زمانکوتاهی	-0.1343337
-2.771543	زمانی	-0.4019512
-4.238669	زمانیکه	-0.1343337
-4.238669	زمانی‌ات	-0.1343337
-3.983843	زمان‌بندی	-0.1343337
-4.238669	زمان‌ها	-0.1343337
-4.238669	زمان‌های	-0.1343337
-4.238669	زمان‌هایی	-0.1343337
-4.238669	زمین	-0.1343337
-4.113178	زمینه	-0.1343337
-4.238669	زمینه‌ها	-0.1343337
-4.113178	زمینه‌های	-0.1343337
-4.113178	زندگی	-0.1343337
-3.504741	زنگ	-0.2883061
-3.727249	زنگ‌	-0.3540166
-4.238669	زنگ‌‌	-0.1343337
-3.450268	زود	-0.1999402
-3.067423	زودتر	-0.2507313
-4.113178	زودترین	-0.1343337
-4.238669	زودی	-0.1343337
-4.113178	زور	-0.2706361
-4.238669	زوریخ	-0.1343337
-3.504741	زی	-0.3082591
-3.504741	زیاد	-0.1751921
-4.238669	زیاداست	-0.1343337
-3.1362	زیادی	-0.2090754
-3.983843	زیبا	-0.1343337
-4.238669	زیبای	-0.1343337
-4.238669	زیبایی	-0.1343337
-3.318761	زیرا	-0.2024126
-3.727249	س	-0.2001962
-4.238669	سابق	-0.1343337
-4.238669	ساجرر	-0.1343337
-4.238669	ساختاردهی	-0.1343337
-4.238669	ساختمان	-0.1343337
-4.238669	ساده	-0.1343337
-4.238669	سادگی	-0.1343337
-4.238669	سارا	-0.1343337
-4.238669	ساز	-0.1343337
-4.113178	سازماندهی	-0.1343337
-4.238669	سازمان‌	-0.1343337
-4.238669	سازمان‌دهی	-0.1343337
-4.238669	سازی	-0.1343337
-3.983843	ساعات	-0.1343337
-4.238669	ساعاتی	-0.1343337
-2.385454	ساعت	-0.6803715
-4.238669	ساعتها	-0.1343337
-3.639799	ساعتی	-0.1751921
-4.113178	ساعت‌ها	-0.2706361
-3.401871	سال	-0.1561424
-4.238669	سالاد	-0.1343337
-4.113178	سالانه	-0.1343337
-4.238669	سالگرد	-0.1343337
-3.983843	سالیانه	-0.1343337
-4.238669	سال‌نو	-0.1343337
-4.238669	سانتگ	-0.1343337
-3.836865	ساندیز	-0.1583847
-4.113178	سبیت	-0.2202974
-3.401871	سخت	-0.2578273
-4.238669	سختی	-0.1343337
-4.238669	سخت‌گیری	-0.1343337
-3.358331	سخنرانی	-0.1792299
-4.238669	سخنرانیها	-0.1343337
-3.639799	سر	-0.2001962
-3.727249	سراسر	-0.1343337
-3.727249	سراغ	-0.1343337
-4.113178	سرانجام	-0.2706361
-4.238669	سراپا	-0.1343337
-3.836865	سرایدار	-0.1971594
-4.113178	سرا‌سر	-0.1343337
-4.238669	سرباز	-0.1343337
-4.238669	سربازان	-0.1343337
-4.113178	سرتاسر	-0.1343337
-4.238669	سرجاش	-0.1343337
-4.238669	سررسیدم	-0.1343337
-4.113178	سرعت	-0.1343337
-3.504741	سرم	-0.437661
-4.238669	سرهم	-0.1343337
-4.113178	سری	-0.1343337
-3.836865	سریع	-0.1971594
-4.238669	سریعتر	-0.1343337
-4.238669	سریعی	-0.1343337
-4.238669	سر‌تاسر	-0.1343337
-4.113178	سر‌تا‌سر	-0.1343337
-4.238669	سر‌هم	-0.1343337
-4.238669	سعادتمند	-0.1343337
-3.727249	سعی	-0.3540166
-4.238669	سعیم	-0.1343337
-4.238669	سعی‌	-0.1343337
-2.658797	سفر	-0.3257508
-4.238669	سفرم	-0.1343337
-3.318761	سفرمان	-0.1895865
-4.238669	سفرهای	-0.1343337
-4.238669	سفرپنج	-0.1343337
-4.238669	سفرکاری	-0.1343337
-4.238669	سفرکاریمان	-0.1343337
-3.639799	سفری	-0.2001962
-4.113178	سفر‌	-0.2706361
-4.238669	سفید	-0.1343337
-4.238669	سلا	-0.1343337
-4.113178	سلام	-0.1971594
-3.008063	سمینار	-0.4077588
-4.238669	سمیناراخر	-0.1343337
-4.238669	سمینار‌هفتگی	-0.1343337
-2.841211	سه	-0.4165612
-4.238669	سه‌	-0.1343337
-4.238669	سه‌بار	-0.1343337
-2.473112	سه‌شنبه	-0.4432119
-4.238669	سه‌شنبه‌است	-0.1343337
-3.727249	سه‌شنبه‌ها	-0.1343337
-4.113178	سه‌شنبه‌های	-0.1343337
-4.238669	سه‌شنیه	-0.1343337
-4.238669	سو	-0.1343337
-4.238669	سوار‌شوم	-0.1343337
-3.504741	سوال	-0.1913961
-4.238669	سوبر	-0.1343337
-4.238669	سوزان	-0.1343337
-2.909244	سوم	-0.3278576
-4.113178	سومی	-0.2706361
-3.727249	سومین	-0.3540166
-4.238669	سو‌تفاهم	-0.1343337
-4.238669	سپاسگزار	-0.1343337
-3.836865	سپاسگزارم	-0.2571066
-2.841211	سپتامبر	-0.2907393
-4.238669	سپری	-0.1343337
-3.836865	سپس	-0.151376
-4.238669	سکوی	-0.1343337
-3.046721	سی	-0.5205577
-2.955849	سیزدهم	-0.272588
-4.113178	سیستم	-0.1343337
-4.238669	سیستمهای	-0.1343337
-4.113178	سیلبرن‌هبیت	-0.2706361
-4.113178	سیلک	-0.1343337
-3.567041	سیم	-0.1646115
-4.238669	سینما	-0.1343337
-3.836865	سیوال	-0.1343337
-4.238669	سیوالهای	-0.1343337
-4.238669	سیوالهایی	-0.1343337
-4.238669	سیوال‌	-0.1343337
-4.238669	سیکل	-0.1343337
-4.113178	سی‌	-0.2706361
-3.16178	سی‌ام	-0.2768499
-2.989951	شام	-0.2325381
-3.567041	شامل	-0.1527151
-4.238669	شامپاین	-0.1343337
-4.238669	شامپاینهای	-0.1343337
-4.238669	شام‌خوردن	-0.1343337
-3.008063	شانزدهم	-0.2981775
-4.238669	شانس	-0.1343337
-4.113178	شانسی	-0.2706361
-2.804981	شاید	-0.2656848
-4.238669	شایدان	-0.1343337
-4.238669	شایدهم	-0.1343337
-3.639799	شب	-0.1343337
-4.113178	شبانه	-0.2706361
-3.983843	شبکه	-0.2202974
-4.238669	شبکه‌های	-0.1343337
-3.983843	شبیه	-0.1343337
-4.113178	شخص	-0.1343337
-4.113178	شخصا	-0.1343337
-3.836865	شخصی	-0.1343337
-2.909244	شد	-0.5522434
-3.567041	شدم	-0.3345222
-3.983843	شدن	-0.1343337
-4.238669	شدنمان	-0.1343337
-3.1362	شده	-0.35564
-3.639799	شده‌است	-0.5001447
-3.983843	شده‌ام	-0.1343337
-4.113178	شده‌اند	-0.1343337
-4.238669	شده‌ای	-0.1343337
-4.238669	شده‌اید	-0.1343337
-4.238669	شده‌بود	-0.1343337
-4.238669	شده‌‌است	-0.1343337
-3.836865	شدید	-0.1838461
-4.238669	شدیدا	-0.1343337
-4.238669	شراب	-0.1343337
-4.238669	شرایتون	-0.1343337
-4.113178	شرایط	-0.1343337
-4.238669	شرح	-0.1343337
-4.238669	شرطی	-0.1343337
-4.238669	شرق	-0.1343337
-4.238669	شرمنده	-0.1343337
-4.238669	شرمنده-ام	-0.1343337
-4.238669	شروتاید	-0.1343337
-2.702278	شروع	-0.5490897
-3.983843	شروع‌	-0.1971594
-4.113178	شرول	-0.2706361
-4.238669	شرکا	-0.1343337
-3.401871	شرکت	-0.1542826
-4.238669	شرکتمان	-0.1343337
-4.238669	شرکتی	-0.1343337
-4.113178	شرکت‌	-0.1343337
-4.238669	شرکت‌کنندگان	-0.1343337
-4.238669	شریط	-0.1343337
-4.238669	شسته	-0.1343337
-3.112044	شش	-0.2942883
-3.008063	ششم	-0.3582188
-4.238669	ششمین	-0.1343337
-4.238669	شغلت	-0.1343337
-4.238669	شف	-0.1343337
-3.836865	شلور	-0.2296183
-3.727249	شلوغ	-0.2581881
-4.238669	شلوغ‌ترین	-0.1343337
-4.238669	شلینگ	-0.1343337
-4.238669	شم	-0.1343337
-2.246931	شما	-0.349557
-4.238669	شمارشگر	-0.1343337
-4.238669	شمارولها	-0.1343337
-4.238669	شماری	-0.1343337
-3.983843	شماست	-0.1343337
-4.238669	شمیدت	-0.1343337
-2.619276	شنبه	-0.4335821
-3.836865	شنبه‌ای	-0.2122141
-3.836865	شنبه‌ها	-0.1838461
-4.238669	شنبه‌ی	-0.1343337
-4.238669	شنیدر	-0.1343337
-4.113178	شنیدریت	-0.1343337
-4.113178	شنیدم	-0.2706361
-4.238669	شنیدن	-0.1343337
-4.113178	شنیده	-0.2706361
-3.836865	شنیده‌ام	-0.432119
-4.238669	شنیپنپیپل	-0.1343337
-3.401871	شهر	-0.2206614
-3.727249	شهرهای	-0.3540166
-3.026962	شود	-0.5541563
-4.113178	شورای	-0.2706361
-4.238669	شورتاید	-0.1343337
-4.238669	شورین	-0.1343337
-4.238669	شولتز	-0.1343337
-3.983843	شوم	-0.2202974
-4.238669	شوماچر	-0.1343337
-3.836865	شوند	-0.2706361
-4.113178	شوید	-0.1343337
-3.727249	شویم	-0.2475222
-4.113178	شک	-0.1343337
-4.238669	شکاری	-0.1343337
-4.238669	شگفت‌انگیر	-0.1343337
-4.113178	شگفت‌انگیز	-0.1343337
-4.238669	شگفت‌اوری	-0.1343337
-4.113178	شیل	-0.1343337
-4.238669	صادق	-0.1343337
-4.238669	صادقانه	-0.1343337
-2.675671	صبح	-0.345379
-3.504741	صبحانه	-0.2585493
-4.238669	صبحانه‌کاری	-0.1343337
-4.113178	صبحها	-0.1343337
-4.238669	صبحهای	-0.1343337
-4.238669	صبح‌بخیر	-0.1343337
-4.113178	صبح‌ها	-0.1343337
-3.567041	صبر	-0.3540166
-4.238669	صبرکن	-0.1343337
-4.113178	صبر‌	-0.2706361
-2.381067	صحبت	-0.6086925
-4.238669	صحبتتان	-0.1343337
-4.238669	صحبتهای	-0.1343337
-4.113178	صحبتی	-0.1343337
-3.08916	صحبت‌	-0.5568682
-4.238669	صحبت‌میکنم	-0.1343337
-4.113178	صحبت‌ها	-0.1343337
-4.238669	صحبت‌هایمان	-0.1343337
-4.238669	صحبت‌‌	-0.1343337
-3.983843	صحیح	-0.2859229
-4.238669	صدا	-0.1343337
-3.727249	صدای	-0.1751921
-3.282498	صرف	-0.2774233
-4.238669	صرف‌	-0.1343337
-4.238669	صرف‌نظر	-0.1343337
-4.113178	صعود	-0.2706361
-4.238669	صفحه‌ام	-0.1343337
-4.238669	صمیمانه	-0.1343337
-3.567041	صورت	-0.1520202
-4.238669	صورتی	-0.1343337
-4.238669	صورتیکه	-0.1343337
-4.113178	صورت‌	-0.2706361
-3.639799	ضروری	-0.2001962
-4.238669	طبعا	-0.1343337
-4.113178	طبق	-0.1343337
-4.238669	طبیعتا	-0.1343337
-4.238669	طبیعی	-0.1343337
-3.836865	طرح‌ریزی	-0.1343337
-3.727249	طرح‌ریزی‌	-0.4331978
-4.238669	طرز	-0.1343337
-3.727249	طرف	-0.1897128
-4.238669	طرفی	-0.1343337
-4.238669	طرف‌	-0.1343337
-4.238669	طنین‌انداز	-0.1343337
-3.836865	طور	-0.1343337
-4.238669	طورکلی	-0.1343337
-4.238669	طورکه	-0.1343337
-4.238669	طوری	-0.1343337
-2.989951	طول	-0.2677397
-3.16178	طولانی	-0.1813559
-3.983843	طول‌	-0.2202974
-4.113178	طول‌بکشد	-0.1343337
-3.983843	طی	-0.1971594
-4.238669	ظاهرا	-0.1343337
-3.112044	ظهر	-0.2122563
-4.238669	ظهرها	-0.1343337
-3.983843	ظهور	-0.1343337
-4.238669	ظهور‌و‌	-0.1343337
-4.238669	عادی	-0.1343337
-3.983843	عازم	-0.2202974
-4.238669	عاشق	-0.1343337
-4.238669	عاقلانه	-0.1343337
-2.989951	عالی	-0.5128114
-3.983843	عالیست	-0.2202974
-4.238669	عبارت	-0.1343337
-3.983843	عجله	-0.2202974
-4.238669	عجول	-0.1343337
-4.238669	عذر	-0.1343337
-4.238669	عروج	-0.1343337
-4.238669	عروسی	-0.1343337
-4.238669	عزاداری	-0.1343337
-4.238669	عزیز	-0.1343337
-4.238669	عزیمت	-0.1343337
-4.238669	عصبانی	-0.1343337
-2.841211	عصر	-0.2601661
-3.983843	عصرها	-0.1343337
-4.113178	عصری	-0.1343337
-4.238669	عصر‌	-0.1343337
-4.238669	عصر‌بخیر	-0.1343337
-4.238669	عضو	-0.1343337
-3.836865	عقب	-0.1838461
-4.113178	علاقمند	-0.1343337
-3.983843	علاقه‌مند	-0.2202974
-4.113178	علامت	-0.1343337
-4.238669	علامت‌	-0.1343337
-3.983843	علاوه	-0.2296183
-4.238669	علاوه‌براین	-0.1343337
-4.113178	علت	-0.2202974
-3.836865	عمل	-0.4321189
-4.113178	عملا	-0.1343337
-3.836865	عملی	-0.1971594
-4.238669	عملیاتی	-0.1343337
-4.113178	عموما	-0.1343337
-3.983843	عمومی	-0.2001962
-4.113178	عنوان	-0.1343337
-4.238669	عهده	-0.1343337
-4.238669	عهده‌اش	-0.1343337
-3.983843	عوض	-0.1751921
-4.238669	عکس	-0.1343337
-4.238669	عکسها	-0.1343337
-4.238669	عکسهای	-0.1343337
-3.16178	عید	-0.4366481
-3.836865	عیدپاک	-0.1611411
-3.727249	عیدگلریزان	-0.1343337
-3.983843	عیسی	-0.1343337
-4.238669	غافل	-0.1343337
-3.727249	غذا	-0.1343337
-4.238669	غذاهای	-0.1343337
-3.983843	غذای	-0.1751921
-4.238669	غذایمان	-0.1343337
-4.238669	غذایی	-0.1343337
-4.238669	غرفه	-0.1343337
-3.504741	غروب	-0.1343337
-4.113178	غلط	-0.1343337
-3.401871	غیر	-0.3096115
-4.238669	غیراین	-0.1343337
-4.238669	غیراینصورت	-0.1343337
-3.836865	غیرممکن	-0.432119
-4.238669	غیره	-0.1343337
-4.238669	غیر‌اینصورت	-0.1343337
-4.238669	غیر‌رسمی	-0.1343337
-3.836865	غیر‌ممکن	-0.432119
-4.238669	غیر‌منتظره‌ای	-0.1343337
-3.983843	ف	-0.2202974
-3.727249	فاصله	-0.1343337
-4.238669	فجیع	-0.1343337
-4.238669	فدرال	-0.1343337
-4.238669	فرا	-0.1343337
-4.238669	فراتر	-0.1343337
-4.238669	فرار	-0.1343337
-3.836865	فراموش	-0.1971594
-4.238669	فراموشی	-0.1343337
-4.238669	فرانک	-0.1343337
-3.983843	فرانکفورت	-0.1777195
-4.113178	فرانک‌فورت	-0.1343337
-3.836865	فراهم	-0.1343337
-4.113178	فراهم‌	-0.1343337
-2.88074	فردا	-0.2609162
-4.113178	فردای	-0.1343337
-4.238669	فردریک	-0.1343337
-3.727249	فرصت	-0.1343337
-4.113178	فرصتهای	-0.1343337
-4.113178	فرض	-0.1343337
-4.238669	فرض‌	-0.1343337
-3.983843	فرق	-0.1343337
-4.113178	فرقی	-0.1343337
-4.113178	فرودگاه	-0.1343337
-4.238669	فرود‌گاه	-0.1343337
-3.983843	فشار	-0.1343337
-3.401871	فشرده	-0.2285001
-3.983843	فشرده‌ای	-0.2069252
-4.238669	فشرده‌تر	-0.1343337
-3.983843	فصل	-0.1343337
-4.238669	فعال	-0.1343337
-4.238669	فعالیتی	-0.1343337
-3.639799	فعلا	-0.1343337
-2.750601	فقط	-0.2743385
-4.238669	فقظ	-0.1343337
-4.238669	فلسفه	-0.1343337
-4.238669	فلسفی	-0.1343337
-4.238669	فلمی	-0.1343337
-4.238669	فلوگ	-0.1343337
-3.836865	فلکس	-0.247372
-4.238669	فنجان	-0.1343337
-4.238669	فنی	-0.1343337
-4.238669	فهرست	-0.1343337
-3.450268	فهمیدم	-0.432581
-4.238669	فهمیدید	-0.1343337
-3.358331	فورا	-0.1808556
-4.238669	فورت	-0.1343337
-3.983843	فوری	-0.1343337
-2.782406	فوریه	-0.3573486
-4.113178	فوق	-0.2706361
-3.401871	فوق‌العاده	-0.3296988
-4.238669	فوق‌العاده‌	-0.1343337
-3.639799	فوق‌العاده‌ای	-0.1971594
-4.113178	فوهر	-0.1343337
-2.711522	فکر	-0.5192475
-4.238669	فکرش	-0.1343337
-4.238669	فکرم	-0.1343337
-4.238669	فکرنمیکنم	-0.1343337
-3.836865	فکرکنم	-0.432119
-4.238669	فکرکنیم	-0.1343337
-4.113178	فکری	-0.1343337
-3.24903	فکر‌	-0.3439551
-4.238669	فکر‌میکردیم	-0.1343337
-4.238669	فکر‌میکنم	-0.1343337
-3.727249	قابل	-0.1838461
-4.238669	قابلیتهای	-0.1343337
-4.238669	قابل‌توصیه	-0.1343337
-3.983843	قادر	-0.1343337
-4.238669	قاعدتا	-0.1343337
-4.238669	قالب	-0.1343337
-2.549621	قبل	-0.6144284
-3.1362	قبلا	-0.1940658
-4.238669	قبلش	-0.1343337
-3.983843	قبلی	-0.1343337
-4.113178	قبل‌از	-0.1343337
-4.113178	قبل‌ازان	-0.1343337
-3.983843	قبل‌ازظهر	-0.1343337
-3.836865	قبول	-0.2202974
-4.113178	قدر	-0.1343337
-4.238669	قدر‌دانی	-0.1343337
-4.238669	قدم	-0.1343337
-4.238669	قدیسین	-0.1343337
-4.238669	قدیمی	-0.1343337
-4.238669	قرا	-0.1343337
-2.210074	قرار	-0.5223626
-4.238669	قراراست	-0.1343337
-4.238669	قراربود	-0.1343337
-4.238669	قراردهیم	-0.1343337
-3.401871	قرارمان	-0.4340629
-3.16178	قرارملاقات	-0.1862639
-4.238669	قرارملاقاتمان	-0.1343337
-4.238669	قرارملاقاتهای	-0.1343337
-4.238669	قرارملاقاتهایی	-0.1343337
-3.983843	قرارملاقاتی	-0.1343337
-4.238669	قرارملاقات‌ها	-0.1343337
-3.282498	قرارها	-0.3038248
-3.08916	قرارهای	-0.2012138
-4.238669	قرارهایم	-0.1343337
-4.238669	قرارهایمان	-0.1343337
-3.639799	قرارهایی	-0.3071802
-3.217958	قراری	-0.3048287
-3.727249	قرار‌	-0.1751921
-3.727249	قرار‌است	-0.2397385
-4.113178	قرار‌ملاقات	-0.1343337
-4.238669	قرار‌ها	-0.1343337
-4.238669	قرار‌های	-0.1343337
-4.238669	قرار‌‌ها	-0.1343337
-4.238669	قررار	-0.1343337
-4.113178	قسمتی	-0.2706361
-4.238669	قشنگی	-0.1343337
-3.983843	قصد	-0.1343337
-4.238669	قضیه	-0.1343337
-3.983843	قطار	-0.1343337
-4.238669	قطارها	-0.1343337
-4.238669	قطع	-0.1343337
-3.567041	قطعا	-0.1343337
-4.238669	قطعاحق	-0.1343337
-3.358331	قطعی	-0.3435617
-4.238669	قطعیش	-0.1343337
-4.238669	قلم‌خورده	-0.1343337
-3.318761	قهوه	-0.1842375
-4.238669	قولهایی	-0.1343337
-4.238669	قیمتی	-0.1343337
-3.727249	ل	-0.1913961
-4.113178	لاجر	-0.1343337
-4.238669	لادومی	-0.1343337
-3.046721	لازم	-0.4937174
-4.238669	لانج	-0.1343337
-4.238669	لانگ	-0.1343337
-4.113178	لاورنج	-0.1343337
-4.238669	لایپزینگ	-0.1343337
-4.238669	لباسهای	-0.1343337
-4.113178	لحاظ	-0.1343337
-3.567041	لحظه	-0.1751921
-4.113178	لذت	-0.1343337
-4.238669	لرچ	-0.1343337
-4.238669	لزوم	-0.1343337
-3.727249	لطف	-0.1838461
-3.450268	لطفا	-0.2062217
-4.113178	لطف‌	-0.1343337
-4.238669	لعنتی	-0.1343337
-3.639799	لغو	-0.1751921
-4.113178	لنت	-0.1343337
-4.238669	لنگ	-0.1343337
-3.983843	لوبک	-0.1343337
-4.238669	لودنچدیت	-0.1343337
-4.113178	لودوگیشفن	-0.1343337
-3.983843	لودویگشفن	-0.1971594
-4.238669	لوسی	-0.1343337
-4.238669	لوف	-0.1343337
-4.113178	لپزینگ	-0.1343337
-4.238669	لی	-0.1343337
-4.238669	لیبر	-0.1343337
-4.238669	لیوان	-0.1343337
-3.727249	لیوبر	-0.2202974
-4.238669	لیپزینگ	-0.1343337
-4.113178	لیپزیک	-0.2706361
-4.238669	لیپزیگ	-0.1343337
-4.113178	لیپ‌زیگ	-0.1343337
-4.238669	لیپ‌‌زیگ	-0.1343337
-4.238669	لی‌انارد	-0.1343337
-4.238669	لی‌وبر	-0.1343337
-3.836865	م	-0.1343337
-2.29789	ما	-0.3842993
-4.238669	مااست	-0.1343337
-3.008063	مابین	-0.2240881
-4.238669	ماتای	-0.1343337
-4.238669	مادر	-0.1343337
-4.238669	مارا	-0.1343337
-2.841211	مارس	-0.324044
-4.113178	مارچ	-0.1343337
-4.238669	ماشین	-0.1343337
-4.238669	ماشینهای	-0.1343337
-4.238669	ماصرفا	-0.1343337
-4.238669	ماطلعاتی	-0.1343337
-4.238669	مال	-0.1343337
-3.983843	مان	-0.2202974
-4.238669	ماند	-0.1343337
-4.113178	مانده	-0.2202974
-3.983843	مانند	-0.1343337
-4.238669	مانهیم	-0.1343337
-2.626898	ماه	-0.4569993
-4.113178	ماهانه	-0.1343337
-4.238669	ماهانه‌ام	-0.1343337
-4.238669	ماههای	-0.1343337
-4.238669	ماهی	-0.1343337
-4.238669	ماهیانه	-0.1343337
-4.238669	ماکسیم	-0.1343337
-3.401871	مایل	-0.2760416
-3.504741	مایلم	-0.2309186
-4.113178	مایلی	-0.1343337
-4.238669	مایلید	-0.1343337
-4.238669	ماینز	-0.1343337
-3.504741	ما‌بین	-0.2093582
-4.238669	مبادا	-0.1343337
-4.238669	مبالغه	-0.1343337
-4.238669	مبنای	-0.1343337
-3.282498	متاسفانه	-0.2268863
-3.639799	متاسفم	-0.2389044
-4.238669	متذکر	-0.1343337
-4.238669	مترقبه	-0.1343337
-4.238669	متری	-0.1343337
-4.238669	متسفانه	-0.1343337
-4.238669	متشکر	-0.1343337
-3.639799	متشکرم	-0.4681329
-4.113178	متعاقبا	-0.2706361
-4.238669	متعددی	-0.1343337
-4.238669	متعهد	-0.1343337
-4.113178	متفاوت	-0.1343337
-4.238669	متفاوتی	-0.1343337
-4.238669	متقابل	-0.1343337
-4.238669	متقاعد	-0.1343337
-4.238669	متمرکز	-0.1343337
-4.238669	متناوبا	-0.1343337
-3.836865	متوالی	-0.1343337
-3.504741	متوجه	-0.2855362
-4.113178	متوجه‌	-0.2706361
-4.238669	متوچه	-0.1343337
-3.836865	مثال	-0.1709288
-3.318761	مثل	-0.2450747
-3.450268	مثلا	-0.1844929
-3.217958	مجبور	-0.3191833
-4.238669	مجبورت	-0.1343337
-3.836865	مجبورم	-0.1343337
-4.238669	مجبورید	-0.1343337
-3.358331	مجبوریم	-0.2021405
-4.238669	مجتمع	-0.1343337
-4.238669	مجدد	-0.1343337
-3.983843	مجددا	-0.1343337
-4.238669	مجردم	-0.1343337
-3.983843	مجزا	-0.1343337
-4.238669	مجموع	-0.1343337
-3.983843	مجموعه	-0.1343337
-4.238669	مجموعه‌ای	-0.1343337
-4.113178	محافظت	-0.2706361
-4.238669	محبوریم	-0.1343337
-3.567041	محدود	-0.2001962
-4.238669	محدوداست	-0.1343337
-4.238669	محدودیت	-0.1343337
-4.238669	محدودیتهایی	-0.1343337
-4.238669	محدودیت‌های	-0.1343337
-4.238669	محصول	-0.1343337
-4.238669	محض	-0.1343337
-4.238669	محفوظ	-0.1343337
-3.836865	محل	-0.2638187
-4.238669	محلی	-0.1343337
-3.836865	مخارج	-0.2706361
-3.983843	مخالفتی	-0.2397384
-4.113178	مختصرا	-0.1343337
-4.113178	مختصری	-0.1343337
-3.836865	مخصوصا	-0.1691145
-4.238669	مخصوصی	-0.1343337
-4.238669	مخواهم	-0.1343337
-3.836865	مد	-0.2571066
-4.238669	مداوم	-0.1343337
-3.188961	مدت	-0.2185149
-3.983843	مدتی	-0.2202974
-3.836865	مدرسه	-0.432119
-4.238669	مدنظر	-0.1343337
-4.113178	مدیران	-0.2706361
-4.113178	مدیره	-0.1343337
-4.113178	مدیریت	-0.1343337
-4.238669	مدیریتی	-0.1343337
-4.238669	مدیون	-0.1343337
-4.238669	مد‌نظر	-0.1343337
-3.836865	مذاکرات	-0.1343337
-3.983843	مذاکره	-0.1343337
-4.238669	مذاکره‌	-0.1343337
-4.113178	مذهبی	-0.1343337
-3.836865	مرا	-0.1971594
-4.238669	مراسم	-0.1343337
-4.238669	مراقب	-0.1343337
-4.238669	مربا	-0.1343337
-3.639799	مربوط	-0.2859229
-4.238669	مربوطه	-0.1343337
-3.983843	مرتب	-0.1343337
-4.113178	مرخصی	-0.1343337
-3.639799	مردم	-0.1751921
-4.238669	مرهون	-0.1343337
-4.113178	مرور	-0.1343337
-4.238669	مریدو	-0.1343337
-4.238669	مریض	-0.1343337
-4.238669	مریم	-0.1343337
-4.238669	مریون	-0.1343337
-4.238669	مزاحم	-0.1343337
-4.238669	مزرعه	-0.1343337
-3.504741	مساعد	-0.4337383
-3.450268	مسافرت	-0.2585493
-4.238669	مسافرتهای	-0.1343337
-4.238669	مسافرتی	-0.1343337
-4.238669	مسال	-0.1343337
-3.983843	مساله	-0.2202974
-3.836865	مسایل	-0.1751921
-4.238669	مسایلی	-0.1343337
-4.238669	مستقیما	-0.1343337
-4.238669	مستلزم	-0.1343337
-4.238669	مسرت	-0.1343337
-4.113178	مسیح	-0.1838461
-4.238669	مسیحی	-0.1343337
-4.238669	مسیر	-0.1343337
-3.983843	مسیله	-0.1343337
-3.836865	مسیله‌ای	-0.2571066
-4.238669	مسیله‌ساز	-0.1343337
-3.836865	مسیول	-0.1971594
-3.836865	مشابه	-0.1343337
-4.238669	مشابها	-0.1343337
-4.113178	مشاوره	-0.1343337
-4.238669	مشتاق	-0.1343337
-3.836865	مشتاقانه	-0.2202974
-3.450268	مشترک	-0.1838461
-3.567041	مشترکمان	-0.1691145
-3.450268	مشخص	-0.2883061
-3.727249	مشروب	-0.2202974
-4.238669	مشغله	-0.1343337
-3.008063	مشغول	-0.5712976
-4.238669	مشغولم	-0.1343337
-4.238669	مشغولیتی	-0.1343337
-4.238669	مشفول	-0.1343337
-2.989951	مشکل	-0.294074
-4.113178	مشکلات	-0.1343337
-3.983843	مشکلاتی	-0.1343337
-4.238669	مشکلساز	-0.1343337
-2.939752	مشکلی	-0.4364503
-3.836865	مشکل‌ساز	-0.1971594
-4.113178	مصاحبه	-0.1343337
-4.238669	مصادف	-0.1343337
-4.238669	مصر	-0.1343337
-4.238669	مصنوعی	-0.1343337
-4.238669	مطابق	-0.1343337
-3.836865	مطابقت	-0.4321189
-4.113178	مطالعات	-0.1343337
-4.113178	مطبوع	-0.1343337
-4.238669	مطبوعات	-0.1343337
-4.238669	مطبوعاتی	-0.1343337
-4.238669	مطرح	-0.1343337
-4.238669	مطلب	-0.1343337
-3.983843	مطلقا	-0.1343337
-3.983843	مطمین	-0.1971594
-3.567041	مطمینا	-0.1343337
-4.113178	مطمینم	-0.1343337
-4.238669	مطمینید	-0.1343337
-4.238669	معاری	-0.1343337
-4.113178	معامله	-0.1343337
-4.238669	معتقد	-0.1343337
-4.238669	معتقدم	-0.1343337
-4.238669	معراج	-0.1343337
-4.113178	معرفی	-0.1343337
-4.238669	معرفی‌	-0.1343337
-4.238669	معطلی	-0.1343337
-4.238669	معقول	-0.1343337
-4.238669	معقولانه	-0.1343337
-4.238669	معقولی	-0.1343337
-4.113178	معلم	-0.1343337
-4.238669	معلوم	-0.1343337
-4.238669	معماری	-0.1343337
-4.238669	معمول	-0.1343337
-3.567041	معمولا	-0.1646115
-4.238669	معنا	-0.1343337
-3.983843	معنی	-0.1343337
-4.113178	معین	-0.1343337
-4.238669	معینی	-0.1343337
-4.238669	معیین	-0.1343337
-4.238669	مغزم	-0.1343337
-4.238669	مفصل	-0.1343337
-4.113178	مفید	-0.1343337
-4.238669	مقاله	-0.1343337
-4.238669	مقدار	-0.1343337
-4.238669	مقداری	-0.1343337
-3.983843	مقدس	-0.1343337
-4.113178	مقدسین	-0.1343337
-3.504741	مقدمات	-0.1611411
-3.836865	مقدماتی	-0.1751478
-3.188961	مقدور	-0.5510272
-4.238669	ملاحظه‌ای	-0.1343337
-2.431956	ملاقات	-0.3917428
-4.238669	ملاقاتها	-0.1343337
-3.727249	ملاقاتهای	-0.1343337
-3.983843	ملاقاتهایی	-0.1971594
-3.450268	ملاقاتی	-0.2082871
-4.113178	ملاقات‌ها	-0.1691145
-4.238669	ملاقات‌های	-0.1343337
-4.238669	ملاقات‌هایی	-0.1343337
-4.238669	ملاقات‌کاری	-0.1343337
-4.238669	ملغی	-0.1343337
-3.983843	ملی	-0.2202974
-4.238669	ممم	-0.1343337
-3.727249	ممنون	-0.2892988
-3.567041	ممنونم	-0.675157
-2.711522	ممکن	-0.7164261
-2.003183	من	-0.4218899
-2.51858	مناسب	-0.735275
-3.983843	مناسبتر	-0.3071802
-4.238669	مناسبترند	-0.1343337
-3.727249	مناسبترین	-0.2409478
-4.238669	مناسبرترخواهد	-0.1343337
-3.727249	مناسبی	-0.1751921
-4.238669	مناسب‌تر	-0.1343337
-3.639799	منتظر	-0.2069252
-4.238669	منتظرم	-0.1343337
-4.238669	منتهای‌مراتب	-0.1343337
-4.238669	منحصرا	-0.1343337
-4.238669	منرا	-0.1343337
-3.727249	منزل	-0.1990895
-4.113178	منسا	-0.1343337
-3.727249	منشی	-0.2069252
-4.113178	منشی‌ام	-0.1343337
-4.113178	منطبق	-0.1343337
-4.113178	منطقی	-0.1343337
-3.567041	منظور	-0.2346489
-4.238669	منظورت	-0.1343337
-4.113178	منظورتان	-0.1343337
-4.113178	منظورم	-0.1343337
-4.238669	منفی	-0.1343337
-4.113178	منهم	-0.1343337
-4.238669	منوی	-0.1343337
-3.983843	منییم	-0.1456206
-3.1362	مهم	-0.4335908
-4.238669	مهمتر	-0.1343337
-4.113178	مهمترین	-0.1343337
-3.836865	مهمی	-0.1343337
-3.983843	مواجه	-0.1343337
-4.238669	مواد	-0.1343337
-4.113178	موارد	-0.1343337
-4.238669	مواظب	-0.1343337
-3.401871	موافق	-0.578894
-3.567041	موافقت	-0.2791609
-3.450268	موافقم	-0.6346143
-4.238669	موافقی	-0.1343337
-4.113178	موافقید	-0.1343337
-4.238669	موافق‌	-0.1343337
-4.238669	موجب	-0.1343337
-4.238669	موجود	-0.1343337
-3.567041	مورد	-0.1343337
-4.238669	موردش	-0.1343337
-3.836865	موردی	-0.1971594
-4.238669	مورد‌نظر	-0.1343337
-4.238669	موشامر	-0.1343337
-3.24903	موضوع	-0.1942682
-3.836865	موضوعات	-0.1971594
-4.238669	موضوعی	-0.1343337
-4.238669	موعد	-0.1343337
-4.113178	موفق	-0.1343337
-4.238669	موفقیت	-0.1343337
-3.504741	موقع	-0.1835183
-3.836865	موقعی	-0.1751921
-3.450268	مولر	-0.1971594
-4.238669	مولرلودنچدیت	-0.1343337
-4.238669	مونیخ	-0.1343337
-4.113178	موکل	-0.1343337
-3.727249	موکول	-0.3757464
-4.238669	موکول‌	-0.1343337
-4.238669	مکالمه	-0.1343337
-4.238669	مکان	-0.1343337
-4.238669	مکینم	-0.1343337
-3.836865	مگر	-0.2921916
-4.238669	مگر‌نه	-0.1343337
-2.816725	می	-0.2909201
-4.113178	میافتد	-0.1343337
-4.238669	میافتم	-0.1343337
-4.238669	میام	-0.1343337
-4.238669	میامدم	-0.1343337
-3.727249	میان	-0.1343337
-4.238669	میانداختم	-0.1343337
-3.727249	میاندازم	-0.1838461
-4.238669	میاورد	-0.1343337
-4.113178	میاورم	-0.2706361
-4.238669	میاورید	-0.1343337
-3.504741	میاید	-0.2148919
-3.983843	میایم	-0.1343337
-4.113178	میایید	-0.1343337
-2.782406	میباشد	-0.8923761
-3.727249	میباشم	-0.529029
-3.983843	میباشند	-0.2202974
-4.238669	میبرد	-0.1343337
-3.358331	میبینم	-0.5119472
-3.504741	میبینمت	-0.733149
-3.567041	میبینمتان	-0.5119472
-4.113178	میبینید	-0.1343337
-3.727249	میبینیم	-0.2615697
-3.983843	میترسم	-0.1791043
-4.238669	میتواتیم	-0.1343337
-3.983843	میتوان	-0.1343337
-3.217958	میتواند	-0.1492088
-4.238669	میتوانست	-0.1343337
-4.238669	میتوانستم	-0.1343337
-3.983843	میتوانستیم	-0.1343337
-2.86716	میتوانم	-0.2519581
-4.113178	میتوانند	-0.1343337
-3.567041	میتوانی	-0.1343337
-3.282498	میتوانید	-0.184772
-2.48404	میتوانیم	-0.3569296
-3.282498	میخواستم	-0.2247275
-4.238669	میخواستید	-0.1343337
-3.836865	میخواستیم	-0.1846728
-4.238669	میخوانم	-0.1343337
-3.217958	میخواهم	-0.225387
-4.113178	میخواهم‌	-0.1343337
-4.238669	میخواهند	-0.1343337
-3.358331	میخواهید	-0.188982
-3.24903	میخواهیم	-0.1674716
-4.238669	میخوریم	-0.1343337
-4.238669	میداد	-0.1343337
-4.238669	میدادیم	-0.1343337
-4.238669	میداند	-0.1343337
-3.983843	میدانم	-0.2571066
-4.238669	میدانی	-0.1343337
-3.639799	میدانید	-0.2892987
-3.727249	میدهد	-0.2615697
-3.358331	میدهم	-0.3584625
-4.238669	میدهند	-0.1343337
-4.113178	میدهی	-0.1343337
-3.504741	میدهید	-0.2686982
-3.504741	میدهیم	-0.4834185
-4.238669	میرسانم	-0.1343337
-3.450268	میرسد	-0.2672594
-4.238669	میرسم	-0.1343337
-4.113178	میرسیم	-0.2706361
-4.238669	میرفت	-0.1343337
-4.113178	میرفتیم	-0.1343337
-4.238669	میرود	-0.1343337
-3.983843	میروم	-0.2571066
-3.358331	میرویم	-0.3398306
-4.113178	میز	-0.2202974
-4.238669	میزم	-0.1343337
-3.983843	میزنم	-0.1971594
-4.238669	میزنید	-0.1343337
-4.238669	میزنیم	-0.1343337
-3.639799	میسر	-0.1913961
-3.983843	میشد	-0.2397384
-4.238669	میشدم	-0.1343337
-4.238669	میشناسم	-0.1343337
-4.113178	میشناسید	-0.2706361
-4.238669	میشناسیم	-0.1343337
-4.238669	میشنوم	-0.1343337
-4.113178	میشنوید	-0.2706361
-2.569371	میشود	-0.4434665
-3.639799	میشوم	-0.2409478
-3.836865	میشوند	-0.2921916
-4.238669	میشوی	-0.1343337
-3.983843	میشویم	-0.2571066
-4.238669	میفرستد	-0.1343337
-4.238669	میفرستیم	-0.1343337
-4.238669	میفرمایید	-0.1343337
-3.983843	میفهمم	-0.2202974
-4.238669	میفون	-0.1343337
-3.727249	میل	-0.1751921
-4.238669	میلاد	-0.1343337
-3.567041	میماند	-0.3550982
-4.238669	میندازم	-0.1343337
-4.238669	مینز	-0.1343337
-3.727249	مینویسم	-0.3713728
-4.238669	میوه	-0.1343337
-4.238669	میپذیرم	-0.1343337
-4.238669	میچسبیم	-0.1343337
-3.983843	میکردم	-0.1751921
-4.238669	میکردید	-0.1343337
-3.727249	میکردیم	-0.3071802
-4.113178	میکشد	-0.1646115
-4.238669	میکشند	-0.1343337
-3.358331	میکند	-0.5261249
-2.720967	میکنم	-0.3671897
-4.238669	میکنمک	-0.1343337
-3.836865	میکنند	-0.2571066
-3.836865	میکنی	-0.2122141
-3.24903	میکنید	-0.3628682
-2.955849	میکنیم	-0.679579
-4.238669	میگذارد	-0.1343337
-3.836865	میگذارم	-0.1343337
-3.504741	میگذاریم	-0.3500922
-4.238669	میگردد	-0.1343337
-4.238669	میگردم	-0.1343337
-4.238669	میگردیم	-0.1343337
-3.836865	میگوید	-0.1343337
-3.067423	میگویم	-0.3271624
-4.113178	میگویی	-0.2202974
-3.836865	میگویید	-0.2615698
-4.113178	میگیرد	-0.2202974
-3.727249	میگیرم	-0.2425486
-3.836865	میگیرید	-0.2706361
-3.983843	میگیریم	-0.2202974
-3.836865	مییر	-0.2202974
-4.238669	می‌توانیم	-0.1343337
-4.238669	می‌فهمم	-0.1343337
-3.450268	ن	-0.1808556
-4.238669	ناامید	-0.1343337
-4.113178	ناجور	-0.1343337
-3.983843	نادلمی	-0.1343337
-3.727249	نادولمی	-0.2001962
-4.113178	ناراحت	-0.1343337
-4.238669	ناسازگار	-0.1343337
-4.238669	ناسب	-0.1343337
-4.238669	ناشناخته	-0.1343337
-4.238669	نالدومی	-0.1343337
-4.238669	نام	-0.1343337
-4.238669	نامساعد	-0.1343337
-3.727249	نامناسب	-0.3087996
-4.238669	نامه	-0.1343337
-4.238669	نامیده	-0.1343337
-3.282498	ناهار	-0.1859547
-4.238669	ناهاری	-0.1343337
-4.238669	ناهاز	-0.1343337
-4.238669	ناومی	-0.1343337
-4.238669	ناگزیر	-0.1343337
-4.238669	نایهمایر	-0.1343337
-3.983843	نایهمیر	-0.1343337
-4.238669	نا‌مساعد	-0.1343337
-3.1362	نباشد	-0.4941118
-4.238669	نباشم	-0.1343337
-4.113178	نباشید	-0.2706361
-4.238669	نباشیم	-0.1343337
-3.358331	نباید	-0.1343337
-3.983843	نبود	-0.1343337
-3.983843	نتایج	-0.1343337
-4.238669	نتوانیم	-0.1343337
-4.238669	نتیجه	-0.1343337
-4.238669	نتیجه‌	-0.1343337
-4.238669	نجیب	-0.1343337
-4.238669	نحوی	-0.1343337
-3.24903	نخواهد	-0.3822208
-3.727249	نخواهد‌بود	-0.2296183
-4.238669	نخواهد‌داشت	-0.1343337
-3.318761	نخواهم	-0.46796
-3.836865	نخواهم‌بود	-0.2571066
-4.238669	نخواهم‌داشت	-0.1343337
-4.238669	نخواهی	-0.1343337
-4.113178	نخواهید	-0.2706361
-4.113178	نخواهیم	-0.1343337
-4.238669	نخیر	-0.1343337
-4.238669	نداده	-0.1343337
-3.217958	ندارد	-0.4718477
-2.760946	ندارم	-0.7907283
-4.238669	ندارند	-0.1343337
-3.983843	نداری	-0.1838461
-3.450268	ندارید	-0.3737223
-3.983843	نداریم	-0.2202974
-4.238669	نداشتم	-0.1343337
-3.727249	نداشته	-0.2122141
-4.238669	نداشته‌باشم	-0.1343337
-3.983843	نداشتید	-0.2202974
-4.238669	ندرت	-0.1343337
-4.238669	ندهد	-0.1343337
-4.238669	ندهیم	-0.1343337
-4.238669	نرا	-0.1343337
-4.238669	نربرگ	-0.1343337
-3.836865	نزد	-0.2615698
-3.24903	نزدیک	-0.2230181
-4.238669	نزول	-0.1343337
-3.24903	نسبتا	-0.1990895
-4.238669	نسبتی	-0.1343337
-4.113178	نشان	-0.1343337
-4.113178	نشدم	-0.2202974
-4.113178	نشده	-0.2706361
-4.238669	نشده‌ام	-0.1343337
-3.567041	نشست	-0.277252
-4.238669	نشستمان	-0.1343337
-3.983843	نشستی	-0.2202974
-4.238669	نشود	-0.1343337
-4.238669	نصب	-0.1343337
-4.238669	نصف	-0.1343337
-4.113178	نصفه	-0.1343337
-4.238669	نصفی	-0.1343337
-3.318761	نظر	-0.2181465
-3.983843	نظرت	-0.2615697
-3.639799	نظرتان	-0.2845429
-4.113178	نظرتون	-0.2706361
-3.983843	نظرم	-0.1343337
-4.238669	نظرمن	-0.1343337
-4.113178	نظری	-0.1343337
-4.238669	نظر‌بگیریم	-0.1343337
-4.238669	نظم	-0.1343337
-4.238669	نفر	-0.1343337
-4.113178	نفهمیدم	-0.2706361
-4.238669	نقش	-0.1343337
-4.238669	نقشه	-0.1343337
-4.113178	نلی	-0.1343337
-4.238669	نمانده	-0.1343337
-3.836865	نمایش	-0.1971594
-3.727249	نمایشگاه	-0.1751921
-3.983843	نمایشگاهی	-0.3071802
-4.238669	نمود	-0.1343337
-4.238669	نمودیم	-0.1343337
-4.238669	نمونه	-0.1343337
-4.238669	نمیاندیشم	-0.1343337
-4.238669	نمیاورم	-0.1343337
-4.113178	نمیاید	-0.1343337
-4.238669	نمیایید	-0.1343337
-3.983843	نمیباشد	-0.2571066
-4.238669	نمیباشم	-0.1343337
-4.113178	نمیبینم	-0.1343337
-4.113178	نمیتوان	-0.2706361
-4.238669	نمیتواند	-0.1343337
-3.026962	نمیتوانم	-0.2833762
-4.238669	نمیتوانند	-0.1343337
-4.238669	نمیتوانید	-0.1343337
-3.504741	نمیتوانیم	-0.1343337
-3.983843	نمیخواهم	-0.1343337
-4.113178	نمیخواهید	-0.1343337
-4.238669	نمیدانستم	-0.1343337
-3.282498	نمیدانم	-0.2714168
-4.238669	نمیدانید	-0.1343337
-4.238669	نمیدهد	-0.1343337
-4.113178	نمیدهم	-0.2202974
-4.238669	نمیدهید	-0.1343337
-4.238669	نمیدهیم	-0.1343337
-4.238669	نمیرسیم	-0.1343337
-4.238669	نمیشدم	-0.1343337
-3.983843	نمیشناسم	-0.1343337
-4.238669	نمیشناسید	-0.1343337
-3.450268	نمیشود	-0.2475221
-4.238669	نمیشوم	-0.1343337
-4.238669	نمیشوند	-0.1343337
-4.238669	نمیشوی	-0.1343337
-4.238669	نمیشوید	-0.1343337
-4.238669	نمیفهمم	-0.1343337
-4.238669	نمیکشد	-0.1343337
-4.113178	نمیکند	-0.2706361
-4.113178	نمیکنم	-0.1343337
-4.238669	نمیکنند	-0.1343337
-3.983843	نمیکنید	-0.3071802
-4.238669	نمیگیرد	-0.1343337
-4.238669	نمییاید	-0.1343337
-4.238669	نمی‌توانم‌	-0.1343337
-2.828796	نه	-0.3098348
-3.504741	نهار	-0.1611412
-4.238669	نهارتان	-0.1343337
-4.113178	نهایت	-0.1343337
-4.238669	نهایتا	-0.1343337
-4.238669	نهایی	-0.1343337
-4.238669	نهصد	-0.1343337
-2.92423	نهم	-0.2959944
-4.238669	نو	-0.1343337
-2.693226	نوامبر	-0.4125566
-4.238669	نوامبرچطور	-0.1343337
-4.238669	نواملی	-0.1343337
-4.238669	نواکبر	-0.1343337
-4.238669	نوبت	-0.1343337
-3.983843	نود	-0.3071802
-4.238669	نورث	-0.1343337
-2.86716	نوزدهم	-0.3195843
-4.238669	نوشت	-0.1343337
-3.983843	نوشتم	-0.3071802
-4.113178	نوشتن	-0.2202974
-3.282498	نوشته	-0.9440023
-4.238669	نوشته‌	-0.1343337
-4.238669	نوشته‌میشود	-0.1343337
-4.238669	نوشتی	-0.1343337
-4.238669	نوشیدن	-0.1343337
-4.238669	نوشیدنی	-0.1343337
-4.238669	نوشیده	-0.1343337
-4.238669	نولزتد	-0.1343337
-4.238669	نکردم	-0.1343337
-4.113178	نکرده	-0.1343337
-3.983843	نکرده‌ام	-0.3071802
-4.238669	نکشد	-0.1343337
-4.113178	نکنم	-0.1971594
-4.238669	نکنید	-0.1343337
-3.983843	نکنیم	-0.2202974
-3.504741	نگاه	-0.2207607
-3.282498	نگاهی	-0.4145362
-4.238669	نگاه‌	-0.1343337
-4.238669	نگاه‌کردم	-0.1343337
-4.238669	نگذاریم	-0.1343337
-4.238669	نگذاشتم	-0.1343337
-4.238669	نگذرد	-0.1343337
-4.238669	نگران	-0.1343337
-4.238669	نگرانی	-0.1343337
-4.238669	نگرفته‌اید	-0.1343337
-4.238669	نگفتی	-0.1343337
-3.727249	نگه	-0.2397385
-4.113178	نگهدار	-0.1343337
-4.238669	نگهدارم	-0.1343337
-3.983843	نگهدارید	-0.1343337
-3.504741	نگهداریم	-0.3082591
-4.238669	نگهداشته	-0.1343337
-4.113178	نگه‌	-0.1343337
-4.238669	نگه‌داریم	-0.1343337
-4.238669	نگه‌‌داریم	-0.1343337
-4.238669	نگیرید	-0.1343337
-2.955849	نیاز	-0.6532875
-4.238669	نیازمندیم	-0.1343337
-4.238669	نیافتد	-0.1343337
-4.113178	نیامیر	-0.1343337
-4.238669	نیامییر	-0.1343337
-4.238669	نیاید	-0.1343337
-4.238669	نیایش	-0.1343337
-4.238669	نیروهای	-0.1343337
-3.112044	نیز	-0.2260465
-2.711522	نیست	-0.6602174
-3.318761	نیستم	-0.5178275
-3.983843	نیستند	-0.1971594
-4.238669	نیستید	-0.1343337
-3.983843	نیم	-0.1456206
-4.238669	نیمتوانستم	-0.1343337
-4.238669	نیمر	-0.1343337
-3.401871	نیمه	-0.4399099
-4.238669	نیمیر	-0.1343337
-4.113178	نیوبرانزویک	-0.2706361
-4.238669	نیوپرلاچ	-0.1343337
-4.238669	نیک	-0.1343337
-4.113178	ه	-0.1343337
-3.727249	ها	-0.1343337
-4.113178	هارتمن	-0.1343337
-4.238669	هاف	-0.1343337
-4.238669	هامان	-0.1343337
-3.836865	هامبورگ	-0.1751921
-4.238669	هانس	-0.1343337
-4.238669	هانسژورژ	-0.1343337
-4.238669	هانور	-0.1343337
-3.983843	هانوفر	-0.1691145
-4.113178	هانوور	-0.1343337
-3.639799	های	-0.1343337
-4.238669	هایم	-0.1343337
-4.238669	هایمن	-0.1343337
-4.238669	هایی	-0.1343337
-3.567041	هتل	-0.1343337
-4.238669	هتم	-0.1343337
-2.939752	هجدهم	-0.2554646
-3.188961	هجی	-0.351409
-3.983843	هجی‌	-0.1971594
-4.113178	هجی‌اش	-0.1343337
-4.238669	هجی‌میکنید	-0.1343337
-2.828796	هر	-0.3441668
-4.238669	هربار	-0.1343337
-4.238669	هرتاریخی	-0.1343337
-4.238669	هرجهت	-0.1343337
-4.238669	هرجور	-0.1343337
-4.238669	هرحال	-0.1343337
-4.238669	هردو	-0.1343337
-4.238669	هردوتا	-0.1343337
-3.983843	هردوی	-0.2571066
-4.238669	هرزمان	-0.1343337
-4.238669	هرطور	-0.1343337
-4.238669	هرقدرهم	-0.1343337
-3.836865	هرچند	-0.1646115
-3.639799	هرچه	-0.4331978
-3.983843	هرچیز	-0.2202974
-4.238669	هرکدام	-0.1343337
-4.113178	هرگز	-0.1343337
-4.113178	هری	-0.2706361
-4.238669	هر‌طور	-0.1343337
-4.238669	هر‌وقت	-0.1343337
-4.238669	هر‌چند	-0.1343337
-4.113178	هر‌چه	-0.2706361
-3.358331	هزار	-0.8714517
-4.238669	هزینه	-0.1343337
-4.238669	هزینه‌ها	-0.1343337
-2.828796	هست	-0.5651127
-2.385454	هستم	-0.7519145
-2.828796	هستند	-0.5884085
-4.238669	هستی	-0.1343337
-3.1362	هستید	-0.4834185
-3.567041	هستیم	-0.277252
-2.939752	هشت	-0.3175264
-2.92423	هشتم	-0.3696925
-4.238669	هشت‌	-0.1343337
-4.238669	هضم	-0.1343337
-3.217958	هفت	-0.2193293
-2.92423	هفتم	-0.3122895
-2.431956	هفته	-0.3991266
-4.238669	هفتهای	-0.1343337
-4.238669	هفتهکاری	-0.1343337
-3.1362	هفته‌ای	-0.3417667
-4.238669	هفته‌مان	-0.1343337
-4.113178	هفته‌ها	-0.1343337
-4.113178	هفته‌های	-0.1343337
-4.238669	هفته‌گی	-0.1343337
-3.727249	هفتگی	-0.1343337
-4.238669	هفتگی‌ام	-0.1343337
-3.046721	هفدهم	-0.3256894
-4.238669	هفنم	-0.1343337
-4.238669	هقته	-0.1343337
-2.234294	هم	-0.3561411
-4.238669	هماز	-0.1343337
-2.92423	همان	-0.2591215
-4.238669	همانجا	-0.1343337
-3.567041	همانطور	-0.3093407
-4.238669	همانطورکه	-0.1343337
-4.113178	همانطوری	-0.1343337
-3.983843	همانطوریکه	-0.2202974
-4.238669	همانطور‌که	-0.1343337
-4.238669	همانند	-0.1343337
-4.238669	همانگونه	-0.1343337
-4.238669	همان‌	-0.1343337
-2.92423	هماهنگ	-0.5562415
-4.113178	هماهنگی	-0.1343337
-3.836865	همایش	-0.1343337
-4.238669	همایشت	-0.1343337
-3.983843	همایشی	-0.2202974
-4.238669	همدیگ	-0.1343337
-2.452046	همدیگر	-1.056137
-4.238669	همدیگررا	-0.1343337
-3.504741	همراه	-0.2207607
-3.983843	همراهتان	-0.2202974
-3.983843	همراهم	-0.2202974
-3.983843	همراهی	-0.1971594
-4.238669	همزمان	-0.1343337
-4.113178	همسرم	-0.1343337
-2.853992	همه	-0.2561055
-4.238669	همه‌اش	-0.1343337
-3.983843	همه‌چیز	-0.1343337
-4.238669	همپل	-0.1343337
-3.504741	همچنان	-0.1905041
-4.238669	همچنانکه	-0.1343337
-3.188961	همچنین	-0.2070382
-4.113178	همکار	-0.2706361
-4.238669	همکارانم	-0.1343337
-4.113178	همکاری	-0.1343337
-4.238669	همکاریتان	-0.1343337
-4.238669	همگی	-0.1343337
-3.08916	همیشه	-0.1791867
-2.782406	همین	-0.3632852
-4.238669	همینرا	-0.1343337
-3.282498	همینطور	-0.2066205
-4.113178	همینطوری	-0.1343337
-4.238669	همینقدر	-0.1343337
-4.113178	همینگونه	-0.1343337
-4.238669	همین‌الان	-0.1343337
-4.113178	همین‌طور	-0.1343337
-4.238669	هنریش	-0.1343337
-2.782406	هنوز	-0.3251359
-4.113178	هنگام	-0.1343337
-4.238669	هوا	-0.1343337
-3.983843	هوش	-0.3071802
-4.238669	هولتزر	-0.1343337
-4.238669	هولزر	-0.1343337
-4.238669	هیج	-0.1343337
-4.238669	هیجانزده	-0.1343337
-4.238669	هیجان‌انگیز	-0.1343337
-3.318761	هیجدهم	-0.2126473
-4.238669	هیلمییر	-0.1343337
-4.238669	هین	-0.1343337
-2.782406	هیچ	-0.2929762
-4.238669	هیچگونه	-0.1343337
-4.238669	هیچ‌وقت	-0.1343337
-4.113178	هیچ‌وقتی	-0.1343337
-4.238669	هیچ‌کدام	-0.1343337
-3.983843	هییت	-0.1971594
-4.238669	هییت‌	-0.1343337
-2.001358	و	-0.3774592
-4.113178	واحد	-0.1343337
-4.238669	وارونه	-0.1343337
-3.983843	واضح	-0.1343337
-3.836865	واقع	-0.1419475
-2.853992	واقعا	-0.226191
-4.113178	واقعی	-0.1343337
-4.238669	واقعیتی	-0.1343337
-3.639799	والبرگ	-0.2921916
-4.238669	والتر	-0.1343337
-4.238669	والترز	-0.1343337
-4.238669	والدینم	-0.1343337
-4.238669	واکتبر	-0.1343337
-4.238669	واگذار	-0.1343337
-3.836865	وای	-0.1846728
-4.113178	وبر	-0.1343337
-4.238669	وبسیار	-0.1343337
-4.238669	وترن	-0.1343337
-4.113178	وجه	-0.1343337
-2.972565	وجود	-0.5306483
-4.238669	وجودان	-0.1343337
-4.113178	وجود‌دارد	-0.2706361
-4.238669	وحدت‌المان	-0.1343337
-4.238669	وحشیانه	-0.1343337
-4.238669	ودر	-0.1343337
-4.238669	ودوشنبه	-0.1343337
-4.113178	ودوم	-0.1343337
-4.238669	وردوی	-0.1343337
-3.983843	ورود	-0.1971594
-4.238669	ورودی	-0.1343337
-4.238669	وزارتخانه	-0.1343337
-4.238669	وزیران	-0.1343337
-3.639799	وسط	-0.2615698
-4.238669	وسواس	-0.1343337
-4.238669	وسوم	-0.1343337
-4.238669	وسپس	-0.1343337
-4.238669	وششم	-0.1343337
-3.983843	وصل	-0.1343337
-4.238669	وظایف	-0.1343337
-4.238669	وظایفتان	-0.1343337
-4.113178	وعده	-0.1343337
-4.238669	وغیره	-0.1343337
-2.204224	وقت	-0.6848167
-3.450268	وقتتان	-0.3082591
-4.238669	وقتش	-0.1343337
-2.576158	وقتم	-0.9225368
-4.113178	وقتمان	-0.1343337
-4.238669	وقتها	-0.1343337
-3.112044	وقتی	-0.2517307
-4.113178	وقتیکه	-0.1343337
-3.983843	وقت‌	-0.2202974
-4.238669	وقرار	-0.1343337
-4.238669	وقفه	-0.1343337
-4.238669	وقفه‌ای	-0.1343337
-4.113178	وقفه‌های	-0.1343337
-4.113178	ولاک	-0.2202974
-4.238669	ولزتد	-0.1343337
-4.238669	ولنتاین	-0.1343337
-4.238669	ولوک	-0.1343337
-4.113178	ولی	-0.178263
-4.238669	وم	-0.1343337
-3.727249	ون	-0.2347302
-4.238669	ونریچ	-0.1343337
-4.238669	ونهم	-0.1343337
-4.238669	ونیم	-0.1343337
-4.238669	ون‌رومر	-0.1343337
-4.238669	وهفتم	-0.1343337
-4.238669	ووبنا	-0.1343337
-4.238669	وپنجشنبه	-0.1343337
-4.238669	وپنجم	-0.1343337
-4.238669	وچرا	-0.1343337
-4.238669	وچهرم	-0.1343337
-3.727249	وگرنه	-0.1343337
-4.238669	وگنر	-0.1343337
-3.504741	وی	-0.3220049
-4.238669	ویبر	-0.1343337
-3.727249	ویت	-0.1971594
-4.113178	ویترشیت	-0.1343337
-4.113178	ویر	-0.1343337
-4.238669	ویرشفت	-0.1343337
-4.113178	ویر‌ژارشتاین	-0.1343337
-4.238669	ویزبیدن	-0.1343337
-4.113178	ویزفلاگ	-0.1343337
-4.113178	ویسپ	-0.2706361
-4.238669	ویلیام	-0.1343337
-3.836865	وین	-0.1561424
-4.238669	ویژه	-0.1343337
-4.113178	پ	-0.1343337
-4.238669	پاره‌ای	-0.1343337
-4.238669	پاف	-0.1343337
-2.667152	پانزدهم	-0.408949
-4.238669	پاک	-0.1343337
-4.238669	پای	-0.1343337
-3.504741	پایان	-0.1897128
-4.238669	پایانی	-0.1343337
-4.238669	پایه	-0.1343337
-4.238669	پاییزی	-0.1343337
-4.113178	پایین	-0.1343337
-4.113178	پتژولد	-0.1343337
-4.238669	پدر	-0.1343337
-3.983843	پدرم	-0.1343337
-4.113178	پذیر	-0.1343337
-4.238669	پذیرای	-0.1343337
-3.24903	پر	-0.4841153
-4.238669	پراست	-0.1343337
-4.113178	پراکنده	-0.1343337
-4.238669	پردازش	-0.1343337
-4.238669	پرسش	-0.1343337
-4.113178	پرشده	-0.2706361
-4.238669	پرمخاطره	-0.1343337
-4.238669	پرهیز	-0.1343337
-4.238669	پرواز	-0.1343337
-4.238669	پروازها	-0.1343337
-4.238669	پروتستان	-0.1343337
-3.983843	پروژه	-0.1343337
-2.667152	پس	-0.27668
-4.238669	پست	-0.1343337
-4.238669	پس‌از	-0.1343337
-3.983843	پس‌فردا	-0.1343337
-3.983843	پشت	-0.1343337
-4.113178	پشت‌	-0.2706361
-4.238669	پل	-0.1343337
-4.238669	پلاس	-0.1343337
-4.238669	پلکس	-0.1343337
-4.238669	پلیکس	-0.1343337
-2.804981	پنج	-0.4443684
-4.238669	پنجاهمین	-0.1343337
-4.238669	پنجاهه	-0.1343337
-2.590061	پنجشنبه	-0.3997018
-4.238669	پنجشنبه‌	-0.1343337
-3.983843	پنجشنبه‌ها	-0.1343337
-2.793547	پنجم	-0.3640809
-4.238669	پنجمین	-0.1343337
-4.113178	پنج‌	-0.2706361
-4.113178	پنج‌روزه	-0.1691145
-4.238669	پنج‌شنبه‌ها	-0.1343337
-4.238669	پنج‌‌شنبه	-0.1343337
-4.113178	پنچ	-0.1343337
-3.727249	پنچشنبه	-0.1838461
-4.238669	پنچ‌روزه	-0.1343337
-4.113178	پوش	-0.1343337
-4.238669	پول	-0.1343337
-3.318761	پی	-0.2524284
-4.238669	پیالو	-0.1343337
-3.983843	پیتر	-0.1343337
-3.067423	پیدا	-0.4021575
-4.238669	پیداست	-0.1343337
-4.238669	پیداکردم	-0.1343337
-4.238669	پیدا‌	-0.1343337
-4.238669	پیدا‌کردم	-0.1343337
-4.238669	پیدا‌کردن	-0.1343337
-4.238669	پیروزی	-0.1343337
-4.238669	پیسک	-0.1343337
-3.08916	پیش	-0.1751363
-3.112044	پیشاپیش	-0.2246435
-2.720967	پیشنهاد	-0.4039547
-4.238669	پیشنهادات	-0.1343337
-4.238669	پیشنهادمیکنم	-0.1343337
-3.358331	پیشنهادی	-0.2093582
-4.238669	پیشنهادی‌	-0.1343337
-3.727249	پیشنهاد‌	-0.2260995
-4.238669	پیشنهاد‌میکنید	-0.1343337
-4.238669	پیشین	-0.1343337
-4.238669	پیش‌نویس	-0.1343337
-4.238669	پیلکس	-0.1343337
-4.238669	پیوند	-0.1343337
-4.238669	پیچیده	-0.1343337
-4.238669	پیکره	-0.1343337
-4.113178	پیگیری	-0.1343337
-4.238669	پی‌در‌پی	-0.1343337
-4.238669	پی‌گیری	-0.1343337
-4.113178	چ	-0.1343337
-4.238669	چاره‌ای	-0.1343337
-4.113178	چاق	-0.1343337
-4.238669	چاهرشنبه	-0.1343337
-3.727249	چای	-0.1343337
-3.836865	چرا	-0.1667071
-4.238669	چرخه	-0.1343337
-4.238669	چشم	-0.1343337
-4.238669	چشم‌انتظار	-0.1343337
-4.113178	چطو	-0.2706361
-2.422249	چطور	-0.9171942
-3.983843	چطوراست	-0.2202974
-4.113178	چطوره	-0.2706361
-4.238669	چطوری	-0.1343337
-3.450268	چقدر	-0.2245094
-4.113178	چنانچه	-0.1343337
-4.238669	چنته‌مان	-0.1343337
-3.026962	چند	-0.3208438
-4.238669	چندبار	-0.1343337
-4.238669	چندباری	-0.1343337
-3.401871	چندتا	-0.2606494
-3.639799	چندین	-0.2409478
-3.567041	چنین	-0.1343337
-2.48404	چه	-0.4053963
-4.238669	چهادهم	-0.1343337
-2.972565	چهار	-0.3158755
-4.238669	چهارتا	-0.1343337
-4.238669	چهارتایی	-0.1343337
-4.113178	چهارده	-0.2706361
-2.909244	چهاردهم	-0.3203791
-2.500967	چهارشنبه	-0.4218477
-4.238669	چهارشنبه‌ای	-0.1343337
-3.567041	چهارشنبه‌ها	-0.1897128
-4.238669	چهارشنبه‌هایی	-0.1343337
-4.238669	چهارشنبه‌‌های	-0.1343337
-4.238669	چهارعصر	-0.1343337
-2.782406	چهارم	-0.3584524
-4.113178	چهارمین	-0.1343337
-4.238669	چهار‌	-0.1343337
-4.238669	چهام	-0.1343337
-4.113178	چهل	-0.2706361
-4.113178	چهل‌	-0.2706361
-4.238669	چه‌	-0.1343337
-4.113178	چه‌زمان	-0.2706361
-3.401871	چه‌زمانی	-0.1958335
-4.113178	چه‌ساعتی	-0.2202974
-4.238669	چه‌عجب	-0.1343337
-4.113178	چه‌هنگام	-0.1343337
-4.113178	چه‌چیزی	-0.1343337
-2.804981	چون	-0.2924771
-4.238669	چونکه	-0.1343337
-3.836865	چک	-0.2001962
-4.113178	چک‌	-0.1343337
-3.836865	چگونه	-0.1343337
-3.282498	چی	-0.3405207
-4.238669	چیدمان	-0.1343337
-3.318761	چیز	-0.2066205
-4.238669	چیزاست	-0.1343337
-4.238669	چیزخوبی	-0.1343337
-3.836865	چیزها	-0.1751921
-4.113178	چیزهای	-0.1343337
-3.983843	چیزهایی	-0.2202974
-2.955849	چیزی	-0.2246436
-4.113178	چیزیست	-0.1343337
-2.556105	چیست	-1.023023
-4.238669	چینی	-0.1343337
-4.238669	ژ	-0.1343337
-2.711522	ژانویه	-0.3923484
-4.113178	ژن‌فنگ	-0.1343337
-4.238669	ژهرشتاین	-0.1343337
-4.238669	ژولیس	-0.1343337
-2.853992	ژوین	-0.363587
-2.88074	ژوییه	-0.3046146
-3.639799	ک	-0.3087995
-4.238669	کا	-0.1343337
-4.238669	کاترین	-0.1343337
-4.113178	کاتولیک	-0.1343337
-2.828796	کار	-0.1952907
-4.238669	کاراداری	-0.1343337
-3.983843	کاربردی	-0.1343337
-4.113178	کاررا	-0.1343337
-4.238669	کارشناسان	-0.1343337
-4.238669	کارم	-0.1343337
-4.113178	کارمان	-0.1343337
-3.983843	کارمندان	-0.1343337
-4.238669	کارمندانی	-0.1343337
-3.727249	کارناوال	-0.1343337
-3.567041	کارها	-0.2791609
-4.113178	کارهای	-0.1343337
-4.238669	کارهایم	-0.1343337
-4.238669	کارهایمان	-0.1343337
-4.238669	کارهایی	-0.1343337
-3.836865	کارکنان	-0.1343337
-4.238669	کارگر	-0.1343337
-2.88074	کاری	-0.3106095
-4.238669	کاریمان	-0.1343337
-4.238669	کار‌	-0.1343337
-4.238669	کار‌کردن	-0.1343337
-4.238669	کازینو	-0.1343337
-4.238669	کاش	-0.1343337
-4.238669	کاغذ	-0.1343337
-4.238669	کاغذم	-0.1343337
-4.238669	کاغذهایم	-0.1343337
-4.238669	کاغذهایی	-0.1343337
-3.836865	کافر	-0.2615697
-4.238669	کافه	-0.1343337
-3.08916	کافی	-0.3541863
-4.238669	کافیست	-0.1343337
-4.113178	کالبی	-0.1343337
-3.727249	کامل	-0.1611411
-2.675671	کاملا	-0.3572863
-4.238669	کامپیوتر	-0.1343337
-4.238669	کامپیوتری	-0.1343337
-4.238669	کانز	-0.1343337
-3.836865	کاپ	-0.1971594
-4.238669	کاچ	-0.1343337
-3.567041	کجا	-0.151376
-3.836865	کجاست	-0.1971594
-3.358331	کدام	-0.1871855
-4.238669	کدامند	-0.1343337
-4.238669	کدامیک	-0.1343337
-3.217958	کرد	-0.4573542
-3.358331	کردم	-0.4329279
-3.358331	کردن	-0.1751921
-3.504741	کرده	-0.2033485
-3.450268	کرده‌ام	-0.5306484
-3.727249	کرده‌اید	-0.2122141
-3.639799	کرده‌ایم	-0.3082591
-4.238669	کرده‌ا‌یم	-0.1343337
-4.238669	کردی	-0.1343337
-3.450268	کردید	-0.216237
-3.1362	کردیم	-0.3711676
-4.238669	کرومل	-0.1343337
-4.238669	کرون	-0.1343337
-4.113178	کرونر	-0.1343337
-4.238669	کروننبچ	-0.1343337
-3.639799	کریسمس	-0.1343337
-4.238669	کس	-0.1343337
-3.504741	کسی	-0.1561424
-4.238669	کشف	-0.1343337
-4.238669	کشور	-0.1343337
-4.113178	کشید	-0.2202974
-4.238669	کفایت	-0.1343337
-3.217958	کل	-0.2290951
-4.113178	کلا	-0.1343337
-4.238669	کلابنر	-0.1343337
-3.639799	کلاس	-0.1343337
-4.238669	کلاسم	-0.1343337
-3.983843	کلانژ	-0.151376
-4.113178	کلاودیا	-0.1343337
-4.113178	کلاوس	-0.1343337
-3.983843	کلن	-0.1343337
-4.238669	کلنی	-0.1343337
-4.238669	کلوسر	-0.1343337
-4.238669	کلون	-0.1343337
-4.238669	کلوگن	-0.1343337
-3.836865	کلی	-0.1343337
-4.238669	کلیسا	-0.1343337
-4.238669	کلیسای	-0.1343337
-4.238669	کلیه	-0.1343337
-3.639799	کم	-0.2001962
-4.238669	کمابیش	-0.1343337
-4.238669	کمال	-0.1343337
-4.238669	کمبود	-0.1343337
-4.238669	کمتری	-0.1343337
-4.238669	کمه	-0.1343337
-4.238669	کمکتان	-0.1343337
-4.238669	کمکی	-0.1343337
-4.238669	کمک‌	-0.1343337
-2.693226	کمی	-0.3423505
-4.113178	کن	-0.2706361
-3.983843	کنار	-0.1343337
-4.238669	کنجکاو	-0.1343337
-3.567041	کند	-0.2409478
-4.238669	کنسرتی	-0.1343337
-3.983843	کنسل	-0.2202974
-3.16178	کنفرانس	-0.2456977
-4.238669	کنفرانسها	-0.1343337
-4.113178	کنفرانسی	-0.1343337
-2.512629	کنم	-0.6706269
-3.983843	کنند	-0.1343337
-3.983843	کننده	-0.1343337
-4.238669	کننده‌ها	-0.1343337
-4.238669	کنون	-0.1343337
-4.113178	کنگره	-0.2202974
-3.983843	کنگره‌ای	-0.2202974
-3.836865	کنی	-0.2571066
-4.113178	کنیا	-0.1343337
-2.853992	کنید	-0.619817
-2.347476	کنیم	-0.8937096
-2.008704	که	-0.4414445
-3.836865	کوال	-0.2397384
-3.401871	کوتاه	-0.1842375
-3.567041	کوتاهی	-0.1561424
-4.238669	کوتاه‌	-0.1343337
-4.113178	کورن	-0.1343337
-4.238669	کولون	-0.1343337
-4.238669	کونیگستراسه	-0.1343337
-4.238669	کوهن	-0.1343337
-4.113178	کوپ	-0.1838461
-3.727249	کوچک	-0.1838461
-4.238669	کوچکتان	-0.1343337
-4.238669	کوچکمان	-0.1343337
-4.238669	کوکوک	-0.1343337
-3.727249	کویل	-0.2921916
-4.238669	کوییل	-0.1343337
-3.188961	کی	-0.2331326
-4.238669	کیر	-0.1343337
-4.113178	کیفر-پلکس	-0.2706361
-3.727249	کیل	-0.1646115
-3.836865	کیو	-0.3540166
-4.113178	کیول	-0.1838461
-3.727249	کیک	-0.1343337
-4.238669	کییل	-0.1343337
-3.639799	گ	-0.3093407
-4.238669	گارتنر	-0.1343337
-4.238669	گارسونهای	-0.1343337
-4.238669	گاستوس	-0.1343337
-4.238669	گاها	-0.1343337
-4.113178	گاهی	-0.2706361
-4.238669	گایست	-0.1343337
-4.238669	گذار	-0.1343337
-4.238669	گذاشت	-0.1343337
-3.983843	گذاشتم	-0.2202974
-3.983843	گذاشتن	-0.1343337
-3.836865	گذاشته	-0.1343337
-3.567041	گذاشته‌ام	-0.5001447
-4.113178	گذاشتید	-0.1343337
-4.113178	گذاشتیم	-0.1838461
-4.238669	گذراند	-0.1343337
-3.983843	گذشته	-0.1343337
-4.113178	گراولزر	-0.2706361
-3.727249	گرتنر	-0.2001962
-4.238669	گردان	-0.1343337
-3.727249	گردش	-0.2202974
-4.238669	گرسنه	-0.1343337
-3.983843	گرفت	-0.2571066
-3.318761	گرفتار	-0.4359482
-4.113178	گرفتارم	-0.1343337
-4.113178	گرفتم	-0.1343337
-3.983843	گرفتن	-0.1343337
-4.238669	گرفتند	-0.1343337
-4.238669	گرفته	-0.1343337
-4.238669	گرفته‌ام	-0.1343337
-4.238669	گرفتید	-0.1343337
-4.238669	گرفتیم	-0.1343337
-4.238669	گرم	-0.1343337
-4.238669	گرن	-0.1343337
-4.238669	گرهولتزر	-0.1343337
-4.238669	گرهولدزر	-0.1343337
-4.113178	گرهولزر	-0.1343337
-3.983843	گرهولزنر	-0.1343337
-4.113178	گروشیم	-0.1343337
-4.238669	گروه	-0.1343337
-4.113178	گروهی	-0.1343337
-4.113178	گرچه	-0.1343337
-3.401871	گزارش	-0.2035477
-4.238669	گزارشهای	-0.1343337
-4.113178	گزارشی	-0.1343337
-3.836865	گزینه	-0.1343337
-4.238669	گسترش	-0.1343337
-3.727249	گشت	-0.3087995
-3.836865	گفت	-0.1343337
-3.401871	گفتم	-0.2686983
-4.238669	گفتن	-0.1343337
-3.727249	گفته	-0.1838461
-4.238669	گفته‌ام	-0.1343337
-4.238669	گفته‌اند	-0.1343337
-3.639799	گفتگو	-0.1751921
-4.113178	گفتگوها	-0.1343337
-4.238669	گفتگوهای	-0.1343337
-4.238669	گفتگوی	-0.1343337
-4.238669	گفتگویی	-0.1343337
-3.983843	گفتی	-0.1838461
-3.450268	گفتید	-0.1884767
-3.836865	گفتیم	-0.1343337
-4.238669	گفت‌وگو	-0.1343337
-4.238669	گلدن‌ادلر	-0.1343337
-4.238669	گلدن‌‌ادلر	-0.1343337
-4.238669	گلریزان	-0.1343337
-4.238669	گلف	-0.1343337
-3.836865	گمان	-0.2296183
-4.113178	گمانم	-0.1343337
-4.238669	گمان‌	-0.1343337
-4.238669	گنجانده‌	-0.1343337
-4.238669	گنجانده‌ایم	-0.1343337
-4.238669	گوتشاک	-0.1343337
-4.238669	گورشم	-0.1343337
-4.238669	گورشیم	-0.1343337
-3.983843	گوش	-0.1343337
-4.238669	گوشم	-0.1343337
-4.238669	گونترصحبت	-0.1343337
-4.238669	گونه	-0.1343337
-4.238669	گوییم	-0.1343337
-4.238669	گیج	-0.1343337
-3.983843	گیر	-0.1343337
-4.238669	گیرد	-0.1343337
-4.238669	گیری	-0.1343337
-3.727249	ی	-0.1343337
-2.283706	یا	-0.3228307
-3.836865	یااینکه	-0.1838461
-4.113178	یاد	-0.1343337
-4.238669	یاداشتم	-0.1343337
-4.238669	یاداوری	-0.1343337
-4.238669	یادبود	-0.1343337
-4.238669	یادتان	-0.1343337
-3.318761	یادداشت	-0.2619449
-4.238669	یادداشتتان	-0.1343337
-4.238669	یادداشتم	-0.1343337
-4.238669	یادداشتی	-0.1343337
-4.113178	یادداشت‌	-0.1343337
-4.113178	یادم	-0.1343337
-4.238669	یاد‌	-0.1343337
-4.238669	یاد‌دارم	-0.1343337
-3.567041	یازده	-0.2129586
-3.067423	یازدهم	-0.3444664
-4.238669	یرای	-0.1343337
-4.238669	یسیزدهم	-0.1343337
-3.567041	یعنی	-0.2500635
-4.113178	یقینا	-0.1343337
-4.238669	ینصورت	-0.1343337
-4.113178	یه	-0.1343337
-3.358331	یو	-0.1985739
-2.047423	یک	-0.548905
-3.067423	یکبار	-0.3711676
-4.113178	یکباره	-0.1343337
-4.238669	یکدفعه	-0.1343337
-3.008063	یکدیگر	-0.6200948
-3.727249	یکروزه	-0.2069251
-4.238669	یکسانی	-0.1343337
-2.667152	یکشنبه	-0.373333
-4.238669	یکشنبه‌	-0.1343337
-3.836865	یکشنبه‌ای	-0.2571066
-4.113178	یکشنبه‌ها	-0.1343337
-4.238669	یکشنبه‌های	-0.1343337
-4.113178	یکشنبه‌ی	-0.1343337
-4.238669	یکشنیه	-0.1343337
-4.238669	یکطرف	-0.1343337
-3.24903	یکم	-0.2270052
-4.238669	یکو	-0.1343337
-3.026962	یکی	-0.3966434
-3.983843	یک‌	-0.2202974
-4.238669	یک‌روزه	-0.1343337
-3.639799	یک‌شنبه	-0.1971594
-4.238669	یک‌شنبه‌ای	-0.1343337
-4.238669	یک‌شنبه‌ها	-0.1343337
-4.113178	یک‌وقتی	-0.1343337
-4.113178	‌	-0.2706361
-3.983843	‌از	-0.1343337
-3.983843	‌ان	-0.1343337
-4.238669	‌باشد	-0.1343337
-4.113178	‌باشم	-0.2202974
-4.238669	‌باشید	-0.1343337
-4.113178	‌باشیم	-0.1971594
-4.238669	‌ببینیم	-0.1343337
-3.983843	‌بدهم	-0.2296183
-3.983843	‌بدهید	-0.1451011
-3.983843	‌بدهیم	-0.2001962
-4.238669	‌بردم	-0.1343337
-4.113178	‌برسیم	-0.1343337
-3.983843	‌بود	-0.1343337
-4.238669	‌بودیم	-0.1343337
-4.238669	‌بکشد	-0.1343337
-4.238669	‌بگذاریم	-0.1343337
-4.238669	‌بگیرید	-0.1343337
-4.113178	‌بگیریم	-0.2706361
-4.238669	‌تا	-0.1343337
-4.238669	‌جمعه	-0.1343337
-4.238669	‌خاطر	-0.1343337
-4.238669	‌خواهیم	-0.1343337
-4.238669	‌خوب	-0.1343337
-4.238669	‌خوبم	-0.1343337
-4.113178	‌داد	-0.1343337
-4.238669	‌دادن	-0.1343337
-4.238669	‌دادیم	-0.1343337
-4.113178	‌دارم	-0.1343337
-4.113178	‌دارید	-0.1343337
-4.238669	‌داریم	-0.1343337
-4.113178	‌دهیم	-0.1838461
-4.113178	‌دوم	-0.1343337
-4.238669	‌رابطه	-0.1343337
-4.238669	‌رسیدیم	-0.1343337
-4.113178	‌رفت	-0.2706361
-4.238669	‌روزانه‌ام	-0.1343337
-4.238669	‌زدید	-0.1343337
-4.238669	‌زمانی	-0.1343337
-4.238669	‌ساعتی	-0.1343337
-4.238669	‌سه‌شنبه	-0.1343337
-4.113178	‌شد	-0.1343337
-4.238669	‌شدم	-0.1343337
-4.238669	‌شده‌است	-0.1343337
-4.113178	‌شنبه	-0.1343337
-4.113178	‌شود	-0.1343337
-4.113178	‌شویم	-0.2706361
-4.238669	‌مان	-0.1343337
-4.238669	‌مثال	-0.1343337
-4.238669	‌مشترک	-0.1343337
-4.113178	‌مقدماتی	-0.1343337
-4.238669	‌من	-0.1343337
-4.238669	‌موتور	-0.1343337
-4.238669	‌مکانی	-0.1343337
-4.238669	‌میدهم	-0.1343337
-4.238669	‌میدهید	-0.1343337
-4.238669	‌میدهیم	-0.1343337
-4.238669	‌میرسد	-0.1343337
-4.113178	‌میزنم	-0.2706361
-4.238669	‌میشد	-0.1343337
-4.113178	‌میکند	-0.1971594
-3.358331	‌میکنم	-0.3599468
-4.238669	‌میکنید	-0.1343337
-4.113178	‌میکنیم	-0.2202974
-4.238669	‌میگذارد	-0.1343337
-4.238669	‌میگیرم	-0.1343337
-4.238669	‌نا‌مناسب	-0.1343337
-4.238669	‌نتیجه‌ای	-0.1343337
-4.238669	‌نخواهند‌داشت	-0.1343337
-4.238669	‌ندارد	-0.1343337
-4.238669	‌ندارم	-0.1343337
-4.238669	‌نشود	-0.1343337
-4.238669	‌نمیدهم	-0.1343337
-4.238669	‌نمیکنم	-0.1343337
-4.113178	‌نمیکنیم	-0.1343337
-4.238669	‌نمی‌دهیم	-0.1343337
-4.238669	‌نهم	-0.1343337
-4.238669	‌هشتم	-0.1343337
-4.238669	‌هفته	-0.1343337
-3.836865	‌و	-0.151376
-4.238669	‌وقتی	-0.1343337
-4.238669	‌و‌	-0.1343337
-4.238669	‌پایان	-0.1343337
-4.238669	‌پنجم	-0.1343337
-4.238669	‌پنج‌روزه	-0.1343337
-4.238669	‌کاری	-0.1343337
-3.727249	‌کرد	-0.529029
-4.238669	‌کردم	-0.1343337
-4.238669	‌کرده‌ایم	-0.1343337
-4.113178	‌کردید	-0.2706361
-3.983843	‌کردیم	-0.1343337
-3.401871	‌کنم	-0.475031
-4.238669	‌کنند	-0.1343337
-3.727249	‌کنید	-0.2615697
-3.16178	‌کنیم	-0.5047634
-4.238669	‌گرفت	-0.1343337
-4.238669	‌گرفتن	-0.1343337
-4.238669	‌گشت	-0.1343337
-3.983843	‌یکم	-0.1343337
-4.238669	‌‌باید	-0.1343337
-4.238669	‌‌شده‌است	-0.1343337
-4.238669	‌‌مقدماتی	-0.1343337
-4.238669	‌‌میزنم	-0.1343337
-4.238669	‌‌میکند	-0.1343337
-4.238669	‌‌میکنیم	-0.1343337
-4.238669	‌‌و	-0.1343337
-4.238669	‌‌کردم	-0.1343337
-4.238669	‌‌‌میکنم	-0.1343337
-4.238669	‌‌‌ندارم	-0.1343337
-4.238669	‌‌‌‌‌‌	-0.1343337

\2-grams:
-2.169803	, ,	-0.2434976
-0.8955321	, </s>
-3.607887	, ا
-3.827336	, ابتدا
-3.207536	, ابتدای	-0.1307286
-4.004081	, ابلینتر
-4.004081	, اتفاقا
-3.987851	, اجاره
-2.40757	, اجازه	-0.8519852
-3.053103	, اجازه‌	-0.6001885
-3.987851	, اجازه‌بدهید
-4.004081	, اجازه‌دهید
-4.004081	, اجاز‌ه
-2.986457	, احتمالا	-0.0998429
-2.967896	, اخر
-3.637592	, اخرهفته
-3.372428	, اخرین	-0.2334448
-4.004081	, اخر‌هفته‌های
-3.96637	, اخیرا
-3.827336	, ادامه
-2.820346	, ادوارد	-0.6793697
-1.626914	, از	-0.2933109
-2.955017	, ازاد
-2.788743	, اس	-0.8043084
-2.815688	, اساسا	-0.260057
-2.528275	, اسم	-0.8272603
-3.96637	, اسمم
-4.004081	, اسوده‌خاطر
-3.782177	, اشتباه
-4.004081	, اشعه
-3.987851	, اشمیتز
-3.475593	, اشکالی	-0.2334448
-2.823814	, اصلا	-0.3047556
-3.213284	, اف	-0.8043084
-4.004081	, اقا
-2.185757	, اقای	-0.1360404
-3.15896	, ال	-0.5032785
-2.895507	, الان	-0.06321892
-2.909655	, البته	-0.3639607
-3.987851	, البرت
-3.987851	, البیتنر
-4.004081	, البینتر
-3.987851	, الن
-4.004081	, الیتنر
-3.196262	, ام	-0.1404604
-2.048057	, اما	-0.1447902
-3.686347	, اماده
-4.004081	, امادگیها
-2.683883	, امروز	-0.06782014
-3.148866	, امکان	-0.0678
-3.761244	, امکانش
-3.851807	, امکانپذیر
-2.733611	, امکان‌پذیر	-0.5697491
-4.004081	, امکان‌پذیراست
-3.96637	, امیدوارم
-1.907709	, ان	-0.4491079
-3.494777	, انجا
-3.173489	, انجام
-4.004081	, اندره
-3.473193	, انرا
-4.004081	, انطور
-3.782177	, انقدر
-2.687317	, انموقع	-0.03858071
-2.972939	, انها	-0.0734919
-2.976279	, انوقت	-0.07648114
-2.697784	, ان‌موقع
-3.877741	, ان‌وقت
-3.987851	, ان‌‌موقع
-4.004081	, اهان
-3.722183	, او
-3.741275	, اواخر
-3.703895	, اواسط
-3.007556	, اوایل	-0.09846299
-3.987851	, اوضاع
-2.362882	, اول	-0.105748
-4.004081	, اولش
-3.96637	, اولی
-3.124611	, اولین
-4.004081	, اولیور
-3.493306	, اوه
-3.96637	, اوپرمن
-3.414218	, اکتبر
-3.827336	, اکنون
-1.883256	, اگر	-0.202847
-3.987851	, اگرچه
-3.282289	, اگوست
-2.791967	, ای	-0.3462234
-2.227903	, ایا	-0.171481
-3.741275	, ایده	-0.3374183
-4.004081	, ایسان
-3.987851	, ایشان
-2.025879	, این	-0.2130184
-3.96637	, اینا
-3.566822	, اینجا
-3.987851	, اینجوری
-3.225015	, اینطور	-0.2415888
-3.877741	, اینها
-3.987851	, اینهم
-3.593763	, اینکه
-3.851807	, ایچ
-2.315338	, با	-0.07047166
-3.905322	, بابت
-3.213284	, باز	-0.3783397
-3.722183	, بازهم
-2.132654	, باشد	-0.6919771
-2.187935	, باشه	-1.003127
-3.987851	, بالاخره
-4.004081	, بانضمام
-3.653243	, باهم
-4.004081	, باوجود
-2.180333	, باید	-0.07372867
-3.275388	, ببخشید	-0.1778876
-3.66948	, ببینم
-4.004081	, بتلینر
-3.622485	, بتوانیم
-3.243227	, بجز
-3.741275	, بخاطر
-3.987851	, بخصوص
-2.966335	, بد	-0.2324079
-3.851807	, بدون
